#ifndef WEIGHT3_H_
#define WEIGHT3_H_

#include <ap_int.h>

ap_fixed<8, 1> WEIGHT3[12][32][25] = {
    {{-0.014162717387080193, 0.012871761806309223,  0.011036769486963749,
      -0.03919273614883423,  -0.019518544897437096, -0.02117406763136387,
      0.0320342481136322,    -0.02801288291811943,  -0.023410098627209663,
      0.018875418230891228,  -0.03802533447742462,  -0.022296277806162834,
      0.04049926996231079,   -0.005211920943111181, -0.02198910526931286,
      0.002348054200410843,  -0.029405925422906876, 0.04275527596473694,
      0.008419475518167019,  -0.03911223262548447,  -0.017817717045545578,
      -0.03307514265179634,  -0.015607497654855251, -0.04369070380926132,
      -0.02017592079937458},

     {-0.014584303833544254, 0.001491800881922245,   0.004143558442592621,
      -0.010822738520801067, 0.018548766151070595,   0.012072485871613026,
      -0.008905865252017975, -0.021787354722619057,  -0.015685824677348137,
      -0.019352948293089867, -0.0065609486773610115, 0.03257564827799797,
      0.02908840961754322,   -0.027133360505104065,  -0.024648208171129227,
      0.03605401888489723,   -0.017119739204645157,  0.008869138546288013,
      0.019569046795368195,  -0.02028360776603222,   0.010173176415264606,
      -0.003938757814466953, 0.032680537551641464,   -0.05456790328025818,
      -0.03897375240921974},

     {-0.03847843036055565,  -0.039053015410900116,   -0.024862350896000862,
      -0.004436432849615812, -0.012127438560128212,   -0.027899233624339104,
      0.01651444286108017,   -0.015638768672943115,   -0.04731715843081474,
      -0.005222816951572895, 0.02327716164290905,     0.013947457075119019,
      0.019393593072891235,  -0.00023915746714919806, 0.015624115243554115,
      -0.0208461694419384,   0.029870115220546722,    0.0016393917612731457,
      0.04810221493244171,   -0.004104050807654858,   0.008150627836585045,
      -0.024768251925706863, 0.024314166978001595,    -0.0031136812176555395,
      0.04734278470277786},

     {-0.021601472049951553, 0.008747226558625698,   -0.018534338101744652,
      0.010676023550331593,  -0.012229068204760551,  0.0030905241146683693,
      -0.020059529691934586, -0.0036587452050298452, -0.02371448092162609,
      0.018588591367006302,  -0.027182362973690033,  0.04853272810578346,
      -0.03559138998389244,  -0.041656509041786194,  0.02284739539027214,
      -0.014739708974957466, 0.004229570273309946,   0.04702530801296234,
      0.06140083819627762,   0.014742420986294746,   -0.06794282793998718,
      0.019826151430606842,  -0.010506309568881989,  0.010543262585997581,
      0.08958087116479874},

     {-0.04914936050772667,    -0.016553713008761406, -0.05306190252304077,
      -3.6505673051578924e-05, -0.06753697991371155,  -0.0575043149292469,
      0.031857773661613464,    -0.008443880826234818, 0.038920700550079346,
      -0.0017462684772908688,  -0.06774672865867615,  0.06744794547557831,
      0.10418419539928436,     -0.03359891474246979,  -0.010130121372640133,
      0.03526511415839195,     -0.028852693736553192, -0.049581728875637054,
      0.01851782388985157,     0.03139093518257141,   0.022566847503185272,
      -0.005310571286827326,   -0.012109016999602318, -0.05626386031508446,
      -0.009832542389631271},

     {0.007559865713119507,  0.019888777285814285,   -0.0001518397912150249,
      0.03053104504942894,   0.004621534608304501,   0.006673942785710096,
      -0.01705816574394703,  -0.0003752722404897213, 0.029611041769385338,
      -0.03583111613988876,  0.0023931777104735374,  0.01616048440337181,
      -0.04263686016201973,  0.025335567072033882,   -0.06582504510879517,
      -0.034832268953323364, -0.0020888070575892925, 0.012149444781243801,
      0.011316271498799324,  -0.019166896119713783,  -0.024326566606760025,
      0.046950310468673706,  0.05567163601517677,    -0.019929099828004837,
      -0.06788910925388336},

     {-0.05271495133638382,  -0.0254500899463892,    -0.04971636086702347,
      -0.06986403465270996,  0.06768626719713211,    -0.02085414156317711,
      0.010588466189801693,  0.009869355708360672,   -0.04491511732339859,
      0.01439935527741909,   0.02933555655181408,    0.032115474343299866,
      -0.019668130204081535, -0.0024010040797293186, 0.030978940427303314,
      -0.01743186265230179,  0.025000885128974915,   0.014518854208290577,
      -0.01919344998896122,  -0.0317673534154892,    -0.0040914397686719894,
      0.0541762113571167,    0.047705329954624176,   -0.03187507763504982,
      -0.05207543447613716},

     {0.0013607755536213517, -0.06562065333127975,  -0.04304153099656105,
      0.02134605124592781,   0.0055925799533724785, -0.011736372485756874,
      -0.011090273037552834, -0.01232620794326067,  0.042455583810806274,
      0.029649842530488968,  -0.04330989718437195,  0.01158062182366848,
      -0.0564708448946476,   0.03302368149161339,   0.036940086632966995,
      0.02532113902270794,   -0.008470196276903152, 0.059831295162439346,
      0.03947680816054344,   -0.043932218104600906, -0.006692645605653524,
      0.0491594523191452,    -0.023278284817934036, -9.472254168940708e-05,
      0.0016796361887827516},

     {0.07399126142263412,   -0.029734833166003227, -0.017963945865631104,
      -0.03506305441260338,  0.011764787137508392,  0.037610091269016266,
      -0.006864235736429691, 0.03073526732623577,   0.03058907575905323,
      -0.016779126599431038, -0.035787101835012436, 0.0006701062084175646,
      0.07830595225095749,   0.052918191999197006,  0.008541480638086796,
      -0.007798343431204557, -0.06672273576259613,  0.00038813144783489406,
      0.07886020094156265,   -0.022462308406829834, 0.022835882380604744,
      -0.08847938477993011,  -0.09335604310035706,  -0.13512513041496277,
      -0.019901785999536514},

     {0.0067695127800107,    0.03032376430928707,   -0.04384731128811836,
      0.01381381880491972,   0.032088615000247955,  0.006607093382626772,
      0.011801492422819138,  -0.04551241174340248,  0.0171359870582819,
      -0.003736912738531828, -0.016608720645308495, 0.03705471381545067,
      0.018325095996260643,  0.02495693229138851,   -0.03388329595327377,
      -0.024356288835406303, -0.01735319383442402,  0.03804119676351547,
      -0.011460382491350174, -0.055262241512537,    -0.005887703038752079,
      -0.018158381804823875, -0.02479877509176731,  0.027814438566565514,
      -0.0008489107131026685},

     {-0.015660958364605904,  -0.012984785251319408, 0.02436087280511856,
      0.03648342192173004,    0.036533430218696594,  -0.022001588717103004,
      0.017777465283870697,   -0.029278073459863663, -0.031057540327310562,
      0.011416246183216572,   -0.011530295945703983, -0.018384460359811783,
      -0.03638171777129173,   -0.025287605822086334, -0.0015603896463289857,
      -0.04014992341399193,   -0.04250117763876915,  0.036404941231012344,
      -0.007296426687389612,  0.027001159265637398,  -0.03929183632135391,
      -0.0034137440379709005, 0.026254883036017418,  0.055121030658483505,
      -0.031198279932141304},

     {0.04175398498773575,   0.019020406529307365,   0.01449900958687067,
      -0.039218101650476456, -0.0022257263772189617, 0.019059687852859497,
      -0.020850753411650658, 0.02060437947511673,    0.02657928317785263,
      -0.033062953501939774, -0.005993009079247713,  -0.03393249213695526,
      0.018543889746069908,  -0.08143763244152069,   -0.015352167189121246,
      0.046432387083768845,  0.0010260443668812513,  0.05627444013953209,
      -0.0156483706086874,   -0.012754358351230621,  0.00149524153675884,
      -0.010493033565580845, 0.021615080535411835,   0.04844782501459122,
      -0.019420215860009193},

     {-0.11123340576887131,   -0.08131300657987595,  -0.029256194829940796,
      -0.0032466906122863293, 0.0016786381602287292, -0.03489489480853081,
      -0.03390413895249367,   -0.013981563039124012, -0.016752945259213448,
      0.011659573763608932,   -0.014883656986057758, 0.015555433928966522,
      0.0384724996984005,     -0.002700266195461154, 0.009946676902472973,
      -0.03317184001207352,   0.006304468959569931,  0.05524173378944397,
      0.017539866268634796,   -0.034659307450056076, -0.04799357056617737,
      -0.01991509646177292,   0.044292740523815155,  0.04454340040683746,
      0.012472693808376789},

     {-0.028851239010691643,  -0.026196302846074104,  -0.05798359960317612,
      -0.03976929560303688,   0.035255882889032364,   0.0028168295975774527,
      -0.0007981722010299563, 0.017643282189965248,   -0.05305827036499977,
      -0.058956440538167953,  -0.018912648782134056,  0.052467748522758484,
      0.013379691168665886,   -0.02156745083630085,   -0.0037135211750864983,
      -0.011071198619902134,  -0.0011317178141325712, -0.0015038700075820088,
      -0.007984038442373276,  0.03570513799786568,    -0.06923436373472214,
      -0.05455166473984718,   -0.04205383360385895,   0.02544221468269825,
      0.0013262402499094605},

     {0.03215280547738075,    -0.011402779258787632, 0.010656162165105343,
      -0.01843155361711979,   0.01914985291659832,   -0.012386937625706196,
      -0.022787636145949364,  -0.024587765336036682, -0.02802203968167305,
      -0.004393335431814194,  0.0019133285386487842, 0.000311876239720732,
      0.03621750697493553,    -0.010759448632597923, 0.028666283935308456,
      -0.00868072547018528,   0.02367471717298031,   0.025191878899931908,
      -0.0016978849889710546, 0.01744392327964306,   -0.05217398330569267,
      -0.04091617837548256,   -0.04403561353683472,  -0.057667817920446396,
      -0.03643787279725075},

     {-0.05797181650996208,   0.006009266246110201,   0.06118477135896683,
      0.0011291535338386893,  -0.0013108864659443498, -0.011106121353805065,
      0.005556476768106222,   0.013563191518187523,   -0.03604656457901001,
      0.0002363752864766866,  0.006826357915997505,   -0.023120300844311714,
      -0.0026988477911800146, -0.018753109499812126,  -0.012754016555845737,
      -0.0055603208020329475, 0.010712182149291039,   0.014753827825188637,
      -0.046406831592321396,  -0.01255702879279852,   -0.012501622550189495,
      0.04622216895222664,    -0.039113663136959076,  -0.0688280463218689,
      -0.020309461280703545},

     {0.0379033163189888,     0.0017888329457491636, -0.00023654648975934833,
      -0.051366258412599564,  -0.028825189918279648, -0.0053986902348697186,
      -0.047799669206142426,  0.002413306850939989,  -0.042015284299850464,
      -0.013129551894962788,  -0.03309435769915581,  -0.042507875710725784,
      0.015099412761628628,   0.014518522657454014,  0.0016237848903983831,
      -0.03466852009296417,   -0.033030107617378235, 0.05897979810833931,
      -0.0054649426601827145, 0.002177957445383072,  -0.12055426090955734,
      -0.0012285229749977589, -0.052934303879737854, 0.08933906257152557,
      0.029580509290099144},

     {0.034625228494405746,  0.012618683278560638,  -0.0018718215869739652,
      -0.003677152330055833, 0.012023133225739002,  -0.027405818924307823,
      0.0291464664041996,    -0.023405706509947777, -0.010783308185636997,
      0.030286788940429688,  -0.004409922286868095, 0.018572449684143066,
      -0.012645781971514225, -0.032911237329244614, -0.045016903430223465,
      -0.02057476155459881,  -0.022206390276551247, -9.407987090526149e-05,
      -0.001383879454806447, -0.04697330296039581,  -0.0222525205463171,
      0.031065165996551514,  0.019455723464488983,  -0.011095130816102028,
      -0.024102725088596344},

     {-0.027232225984334946, -0.05363495275378227,  -0.05352306738495827,
      -0.03038421832025051,  -0.02380104549229145,  0.005833206232637167,
      -0.005668364930897951, 0.03532534837722778,   0.03063664212822914,
      -0.013558236882090569, 0.00236322614364326,   -0.011332185007631779,
      0.00594644621014595,   0.018190279603004456,  0.0038660785648971796,
      0.011224635876715183,  -0.02420739270746708,  0.05508193001151085,
      0.036333296447992325,  -0.021762734279036522, -0.05948461964726448,
      -0.037355776876211166, 0.08067205548286438,   0.042629674077034,
      -0.022504478693008423},

     {0.05584955960512161,    0.028809217736124992,   -0.0401427187025547,
      -0.02836233377456665,   -0.008769586682319641,  0.03217990696430206,
      0.014393944293260574,   -0.048947688192129135,  -0.004980337340384722,
      -0.08908911794424057,   0.02532118186354637,    0.009343601763248444,
      0.012437966652214527,   0.03410154953598976,    -0.09929168969392776,
      -0.030763190239667892,  0.044408608227968216,   0.05477563291788101,
      -0.0013011954724788666, 0.005805942229926586,   0.031614162027835846,
      0.018348773941397667,   6.0786860558437183e-05, -0.004425633233040571,
      -0.04804592207074165},

     {-0.04855186864733696,  -0.06353946775197983,   0.019572468474507332,
      -0.006944670341908932, 0.04393704980611801,    0.012876810505986214,
      -0.023813074454665184, -0.0037690866738557816, -0.015708589926362038,
      0.04430193081498146,   0.028057508170604706,   -0.015217607840895653,
      -0.03854941204190254,  -0.025663867592811584,  0.01652110181748867,
      -0.06585321575403214,  -0.013882191851735115,  0.05122671276330948,
      0.0009796400554478168, -0.04615071788430214,   -0.020463353022933006,
      -0.02512224018573761,  0.038936931639909744,   0.022050585597753525,
      -0.005080965347588062},

     {-0.028683818876743317, 0.06963028013706207,   0.043514423072338104,
      0.010228453204035759,  0.029921235516667366,  0.03956378251314163,
      0.02584393322467804,   -0.023240836337208748, 0.046719975769519806,
      -0.010469643399119377, 0.022116156294941902,  0.06331716477870941,
      0.0101566007360816,    0.038672082126140594,  -0.03775353729724884,
      0.005964131560176611,  0.05882249027490616,   0.0327792726457119,
      0.05294722691178322,   -0.052220989018678665, -0.015763452276587486,
      -0.004739790689200163, 0.057690978050231934,  0.041011713445186615,
      -0.030397621914744377},

     {0.02535625360906124,    0.000580322346650064,   -0.0038482879754155874,
      0.023076357319951057,   0.0010104000102728605,  0.006975148338824511,
      -0.0035045312251895666, -0.0023734383285045624, -0.0009192037978209555,
      -0.005517721641808748,  -0.007685263641178608,  -0.005897865630686283,
      -0.0296629648655653,    -0.017537211999297142,  -0.08296097815036774,
      -0.007499093655496836,  -0.0022395828273147345, -2.2077943867770955e-05,
      -0.05632063373923302,   -0.05927537754178047,   -0.02247077412903309,
      -0.004473592154681683,  0.011578807607293129,   -0.011204548180103302,
      -0.010959794744849205},

     {-0.008820177987217903,  -0.024104630574584007, 0.021795619279146194,
      0.005157488863915205,   -0.004908660892397165, 0.0004931531730107963,
      -0.04047674313187599,   0.01415302511304617,   0.00492014130577445,
      0.019212642684578896,   -0.024658875539898872, 0.018599480390548706,
      0.021639589220285416,   -0.030771171674132347, -0.035872168838977814,
      0.0030925741884857416,  -0.018105804920196533, 0.029973667114973068,
      0.001531184883788228,   -0.056533847004175186, -0.025607692077755928,
      -0.0030204185750335455, 0.016737081110477448,  -0.01941232569515705,
      0.0027722599916160107},

     {0.03018253482878208,   0.01794249750673771,   0.0033836858347058296,
      0.006467859726399183,  -0.052900124341249466, -0.007131308317184448,
      0.029431939125061035,  -0.04376309737563133,  -0.017052937299013138,
      -0.016883427277207375, 0.015729030594229698,  -0.026350392028689384,
      0.029360448941588402,  -0.05922519415616989,  -0.043019849807024,
      0.015997903421521187,  -0.004224035888910294, 0.020566662773489952,
      0.007445467635989189,  -0.0939517542719841,   0.03050876222550869,
      0.0031015982385724783, 0.014454151503741741,  -0.00501379044726491,
      -0.034500062465667725},

     {0.044556859880685806,   0.0458497479557991,    0.033637627959251404,
      -0.01808772049844265,   0.008593637496232986,  -0.006621790584176779,
      -0.010043913498520851,  -0.043964650481939316, -0.0025439884047955275,
      -0.010637423023581505,  0.0020455163903534412, 0.009297716431319714,
      -0.04181157425045967,   -0.006813206244260073, -0.01477326825261116,
      0.08272968977689743,    -0.04318033158779144,  -0.1237398087978363,
      0.012321729212999344,   -0.050858065485954285, 0.004202775191515684,
      -0.0027100746519863605, -0.019907042384147644, 0.015787124633789062,
      0.027628479525446892},

     {-0.03720136359333992,   -0.011835016310214996, -0.005962160881608725,
      0.0025990454014390707,  0.010889475233852863,  0.004577253945171833,
      -0.028554849326610565,  -0.02241148054599762,  0.010277369059622288,
      -0.026378247886896133,  -0.04539909586310387,  -0.018334442749619484,
      0.00015728075231891125, 0.01101626269519329,   -0.014470781199634075,
      -0.07220407575368881,   0.01833944581449032,   -0.022627796977758408,
      0.03987874463200569,    -0.013544258661568165, -0.06116316840052605,
      -0.038457754999399185,  0.017673693597316742,  -0.02293284982442856,
      -0.023946406319737434},

     {-0.04922032356262207,  0.04714903235435486,    -0.0016895413864403963,
      -0.002523435279726982, -0.03312079980969429,   -0.04321311414241791,
      0.009377630427479744,  0.01805354468524456,    -0.005551971960812807,
      0.0228789784014225,    0.005873247981071472,   -0.004598125349730253,
      0.02053525485098362,   -0.0012946727219969034, 0.025799183174967766,
      -0.04168161377310753,  -0.0069710505194962025, -0.01491928193718195,
      0.0014877197099849582, -0.002010224387049675,  -0.11666937917470932,
      0.03061872161924839,   -0.006287457887083292,  -0.0019999910145998,
      0.023974459618330002},

     {-0.05370645597577095,   -0.07630080729722977,  -0.07463937997817993,
      0.019283583387732506,   0.02574746124446392,   -0.0002794396714307368,
      -0.028407730162143707,  -0.002122717909514904, 0.03966141492128372,
      0.039692915976047516,   -0.014994082972407341, 0.049937594681978226,
      0.02383384481072426,    -0.027553103864192963, 0.05185812711715698,
      -0.011856207624077797,  0.03053896315395832,   0.030979657545685768,
      -0.0027658462058752775, 0.0009371257619932294, -0.03849906474351883,
      0.02327011339366436,    0.06486564874649048,   0.05665409937500954,
      0.03511756658554077},

     {-0.04896960034966469,  -0.0009122383780777454, 0.0038829264231026173,
      0.008632647804915905,  0.014701851643621922,   -0.028438154608011246,
      -0.029391488060355186, 0.008278865367174149,   0.0017871973104774952,
      -0.030783550813794136, -0.02393876388669014,   0.017410313710570335,
      0.00593535928055644,   -0.007866744883358479,  -0.020570849999785423,
      -0.05569867789745331,  -0.002215196378529072,  0.06628601998090744,
      0.034433700144290924,  -0.055369339883327484,  -0.00937843881547451,
      -0.03844987601041794,  0.0167225431650877,     0.044048018753528595,
      -0.034934017807245255},

     {0.03279060497879982,    -0.08568038046360016,   -0.037436921149492264,
      -0.0004874618025496602, 0.01369437389075756,    -0.0121436333283782,
      0.022713828831911087,   0.02028116025030613,    0.0479939728975296,
      -0.025846239179372787,  -0.010121052153408527,  0.04516461491584778,
      -0.02177809551358223,   0.039094965904951096,   0.017172088846564293,
      -0.0007360331946983933, -0.0046349079348146915, 0.0419260635972023,
      0.037417832762002945,   -0.04386769235134125,   -0.06859362125396729,
      -0.007902679033577442,  0.04933673143386841,    0.014182914979755878,
      -0.029260769486427307},

     {-0.040504150092601776, -0.026507360860705376, 0.04850035533308983,
      -0.06262406706809998,  -0.038534440100193024, 0.04996313899755478,
      0.023299342021346092,  0.01744643971323967,   0.011209606193006039,
      -0.03945564478635788,  0.054653409868478775,  -0.019837182015180588,
      -0.024055998772382736, -0.008028843440115452, -0.00430477038025856,
      -0.02073514834046364,  -0.04502879083156586,  0.02576369419693947,
      -0.0351434051990509,   0.03891013190150261,   -0.0166956577450037,
      -0.022940637543797493, -0.04560590535402298,  -0.004269808065146208,
      -0.006525001022964716}},

    {{0.0035385151859372854, -0.003965302836149931, -0.0029664712492376566,
      0.004879015032202005,  0.019189657643437386,  -0.01747269369661808,
      0.0314638651907444,    -0.004679355304688215, -0.02780369482934475,
      -0.017381958663463593, -0.003281089011579752, -0.0061119310557842255,
      0.004697091411799192,  0.014760569669306278,  -0.014390169642865658,
      0.006830758415162563,  -0.029817743226885796, -0.019894573837518692,
      0.015066132880747318,  0.026365289464592934,  -0.013005521148443222,
      -0.03895796835422516,  -0.016379449516534805, -0.0276347566395998,
      -0.011155317537486553},

     {-0.013526391237974167, -0.02547541633248329,   -0.03610573336482048,
      0.00845333281904459,   -0.015031781978905201,  0.04046163335442543,
      0.019694799557328224,  0.0018690709257498384,  0.016139347106218338,
      0.007334929425269365,  0.0347059890627861,     0.005001124460250139,
      -0.04547417163848877,  -0.031954120844602585,  -0.022731348872184753,
      0.03597130998969078,   -0.007760087959468365,  -0.019533924758434296,
      -0.027964582666754723, 0.010151971131563187,   -0.015179338864982128,
      -0.00407004076987505,  -0.0022853778209537268, -0.009148257784545422,
      -0.0314030647277832},

     {-0.023582374677062035,  0.016995878890156746,   0.027386151254177094,
      -0.03276567533612251,   -0.017576342448592186,  0.040014464408159256,
      -0.007957488298416138,  0.037191372364759445,   -0.010802986100316048,
      -0.036810848861932755,  0.058500856161117554,   0.023102331906557083,
      -0.03501441329717636,   -0.038799770176410675,  -0.04578316584229469,
      0.029545648023486137,   0.05267109349370003,    0.029340317472815514,
      0.019897302612662315,   -0.010461940430104733,  -0.04704970493912697,
      -0.0017476564971730113, -0.0004322569293435663, 0.008179303258657455,
      0.012374155223369598},

     {0.002057228470221162,  -0.007585843093693256,  -0.04559393599629402,
      -0.006941620726138353, -0.052507758140563965,  -0.0011586422333493829,
      -0.04143859073519707,  0.03357761725783348,    -0.042032286524772644,
      -0.03933343663811684,  -0.012072063982486725,  -0.002306261332705617,
      -0.020970940589904785, -0.03911788761615753,   -0.053705327212810516,
      0.0329849012196064,    0.037101492285728455,   0.04056525602936745,
      0.019555164501070976,  -0.013866592198610306,  -0.01909521035850048,
      0.04064234718680382,   -0.0004516679618973285, -0.03341078385710716,
      -0.02276381477713585},

     {-0.013731801882386208,  -0.03684879466891289,  -0.044766366481781006,
      -0.052401356399059296,  0.01814783364534378,   0.04523938521742821,
      -0.009761631488800049,  0.03060748800635338,   0.06561122089624405,
      0.026160627603530884,   -0.007926082238554955, -0.0023025344125926495,
      -0.0469319112598896,    -0.014577195979654789, 0.025267841294407845,
      -0.0029561668634414673, 0.028204966336488724,  -0.0706237256526947,
      -0.009618813171982765,  0.002674855524674058,  -0.01383974403142929,
      0.005628257989883423,   0.022169314324855804,  -0.007722898386418819,
      0.04167330265045166},

     {0.0022890970576554537, -0.009383450262248516, -0.024258848279714584,
      -0.05904648080468178,  -0.05536956712603569,  -0.020084816962480545,
      -0.016094733029603958, 0.00858630146831274,   -0.036805395036935806,
      -0.030984019860625267, 0.03469758853316307,   -0.021110281348228455,
      -0.023157434538006783, 0.019835054874420166,  -0.035957954823970795,
      -0.013640508987009525, -0.03315332159399986,  -0.029495198279619217,
      -0.02069823630154133,  -0.022153569385409355, -0.012199298478662968,
      -0.006723311729729176, -0.012577483430504799, -0.030592311173677444,
      0.014654727652668953},

     {0.05905389040708542,    0.028801120817661285, 0.01482335664331913,
      0.00040616406477056444, 0.004836777690798044, 0.034838322550058365,
      0.020636407658457756,   -0.03427247703075409, 0.008862344548106194,
      -0.01760822907090187,   0.0732160434126854,   -0.007989058271050453,
      -0.04635777324438095,   -0.01456677820533514, 0.030983300879597664,
      -0.01903429999947548,   -0.00067465181928128, -0.028788529336452484,
      -0.022898124530911446,  -0.04211943596601486, 0.01534892525523901,
      -0.01680474542081356,   0.04351704567670822,  -0.04070280119776726,
      0.054493602365255356},

     {0.01532876305282116,   -0.015639329329133034, -0.031967390328645706,
      -0.05941711738705635,  -0.02170245349407196,  0.036476437002420425,
      -0.027873359620571136, -0.015080160461366177, 0.037187110632658005,
      -0.056064508855342865, 0.05784962326288223,   0.03922685980796814,
      -0.03146537393331528,  0.009967376478016376,  -0.006759034004062414,
      0.061281874775886536,  0.012738718651235104,  -0.026893209666013718,
      -0.014363585971295834, -0.07552571594715118,  0.04336470365524292,
      0.013558882288634777,  -0.029118472710251808, -0.03467920050024986,
      -0.019391320645809174},

     {0.005783394444733858,  -0.018574150279164314,  -0.04671211913228035,
      0.007365101482719183,  0.003957374487072229,   0.08146674931049347,
      0.09358999878168106,   -0.0025686610024422407, 0.03458396717905998,
      -0.007924764417111874, 0.06015986204147339,    0.0609322227537632,
      0.031218158081173897,  -0.009178710170090199,  0.013035185635089874,
      0.01785164885222912,   -0.015255049802362919,  0.06144464761018753,
      -0.0386989489197731,   -0.01859617792069912,   0.0221218504011631,
      -0.04959632828831673,  0.016838181763887405,   0.02536996640264988,
      0.07002604752779007},

     {0.016823528334498405,    0.02497730776667595,   -0.03555798530578613,
      -0.00046079987077973783, 0.0005391801241785288, -0.015940319746732712,
      -0.015513655729591846,   0.0035726213827729225, -0.03286121040582657,
      -0.00842251256108284,    0.024154024198651314,  0.01575651578605175,
      -0.026644350960850716,   -0.022971708327531815, -0.03168244659900665,
      0.019637126475572586,    0.012266714125871658,  -0.01669924147427082,
      -0.042789287865161896,   -0.005570960696786642, -0.007357350550591946,
      -0.006699098739773035,   0.014904478564858437,  -0.016548654064536095,
      0.0032923414837569},

     {0.0039631761610507965, -0.015436873771250248, 0.005285950377583504,
      -0.016141405329108238, -0.019168715924024582, 0.023478688672184944,
      0.0032183309085667133, -0.001241649384610355, -0.007514753378927708,
      -0.033162299543619156, -0.007924730889499187, 0.030637988820672035,
      -0.01855373941361904,  -0.030101507902145386, -0.02020379900932312,
      -0.01985171250998974,  0.02706151455640793,   -0.04551810026168823,
      0.011875339783728123,  -0.014775645919144154, -0.04167723283171654,
      -0.03863245248794556,  -0.012124311178922653, -0.04531112313270569,
      -0.0347474180161953},

     {-0.0352189764380455,   -0.021981915459036827, 0.004304386209696531,
      -0.016262182965874672, 0.0629546195268631,    -0.005024785175919533,
      -0.051161255687475204, -0.0786270871758461,   -0.0843542292714119,
      -0.013369386084377766, 0.06935704499483109,   0.015552851371467113,
      -0.019516171887516975, 0.0677231177687645,    -0.029274938628077507,
      0.08376354724168777,   0.06652381271123886,   -0.0035641025751829147,
      -0.03647433593869209,  -0.06377615034580231,  0.030986573547124863,
      0.024604881182312965,  -0.015772275626659393, 0.08118926733732224,
      -0.08131295442581177},

     {0.022399893030524254,  -0.019926436245441437, -0.004085981287062168,
      -0.049773260951042175, -0.04928014427423477,  0.0025818569120019674,
      0.03619970753788948,   -0.012812492437660694, -0.012483896687626839,
      -0.02272195927798748,  0.05860624089837074,   0.0030592556577175856,
      0.03584570437669754,   0.0045689428225159645, -0.0009068885701708496,
      0.04274943098425865,   -0.006112714763730764, -0.019925333559513092,
      -0.014227666892111301, -0.05947227403521538,  -0.02765958569943905,
      0.03710896521806717,   -0.015077087096869946, -0.03606738522648811,
      -0.04948548227548599},

     {-0.013980560936033726, -0.0165510606020689,    -0.027034299448132515,
      -0.008513134904205799, -0.011705164797604084,  -0.01979576237499714,
      -0.035190653055906296, -0.03909267112612724,   0.014857199974358082,
      -0.06461809575557709,  0.015168513171374798,   0.020116178318858147,
      -0.03007134236395359,  0.009865175001323223,   -0.0032673294190317392,
      0.020811526104807854,  -0.03221828490495682,   -0.014673189260065556,
      0.03303785249590874,   -0.0010344882030040026, -0.015056023374199867,
      0.02218347042798996,   0.02252884767949581,    -0.012592491693794727,
      0.001451823627576232},

     {-0.022309476509690285, -0.01649237424135208,  -0.025589240714907646,
      -0.01901531219482422,  0.029624059796333313,  0.03396520018577576,
      0.0262448750436306,    0.03071889467537403,   -0.02689843624830246,
      -0.010813898406922817, 0.01329670287668705,   0.01358001958578825,
      0.022374697029590607,  0.009232250042259693,  -0.003014830406755209,
      -0.002797682536765933, -0.019817844033241272, -0.045885369181632996,
      -0.04653284698724747,  -0.031565334647893906, -0.006822523195296526,
      -0.018636956810951233, -0.00197696965187788,  0.0013673990033566952,
      -0.01186339557170868},

     {-0.007482181303203106,  0.029650503769516945,  -0.014985369518399239,
      -0.019418194890022278,  -0.020266352221369743, -0.013599950820207596,
      -0.033188346773386,     -0.031837500631809235, -0.024942919611930847,
      -0.006173306610435247,  -0.018073122948408127, -0.0014001410454511642,
      0.00022495555458590388, -0.04896854981780052,  -0.002112888265401125,
      0.03303728625178337,    -0.02802552469074726,  -0.03974226489663124,
      -0.020428268238902092,  -0.009850263595581055, -0.01928022690117359,
      0.011661238968372345,   -0.016189701855182648, 0.002672947011888027,
      -0.01842876896262169},

     {-0.017297592014074326, -0.006896634586155415, 0.0012463636230677366,
      -0.027479421347379684, 0.04599172621965408,   -0.025509117171168327,
      0.04118211567401886,   -0.04528744891285896,  0.015338154509663582,
      -0.03776531293988228,  0.0036221113987267017, 0.026317402720451355,
      0.0037360582500696182, 0.04770995303988457,   -0.014000050723552704,
      -0.03301626443862915,  0.018592335283756256,  0.00514719495549798,
      -0.007941794581711292, -0.00832442194223404,  -0.0574486069381237,
      0.04018491506576538,   0.053390175104141235,  -0.00022476731101050973,
      0.03427908197045326},

     {-0.009658931754529476, 0.037325017154216766,  0.0071969060227274895,
      -0.01800830103456974,  0.0011717171873897314, -0.020290737971663475,
      -0.004962241742759943, 0.02758699841797352,   0.0009209469426423311,
      -0.04416927322745323,  0.016628306359052658,  0.016022535040974617,
      -0.018487291410565376, -0.042479801923036575, -0.02983783558011055,
      -0.03995506837964058,  -0.005065747071057558, -0.03575458377599716,
      -0.027593355625867844, -0.03054753690958023,  -0.05064276605844498,
      0.0014962715795263648, -0.01940005086362362,  -0.04487575590610504,
      -0.030927332118153572},

     {-0.00866397563368082,  0.006817286368459463,  0.010862003080546856,
      0.013239809311926365,  0.02358580008149147,   0.05551011115312576,
      0.08087793737649918,   0.03436827287077904,   0.008557749912142754,
      -0.011650104075670242, 0.06136375665664673,   0.015816574916243553,
      0.04693315550684929,   0.004991140216588974,  -0.027476990595459938,
      0.04205697029829025,   0.0004269888740964234, -0.011248371563851833,
      0.0036356609780341387, -0.040516871958971024, -0.022348608821630478,
      -0.05104717239737511,  0.038374487310647964,  0.032563161104917526,
      0.008852038532495499},

     {-0.03382593020796776,  -0.0008399125072173774, -0.019268106669187546,
      0.024347543716430664,  -0.05339278653264046,   -0.037128668278455734,
      -0.027848944067955017, 0.012306484393775463,   -0.04120571166276932,
      -0.03173782303929329,  0.04079461097717285,    0.06885155290365219,
      0.0559152327477932,    -0.06391295045614243,   -0.06942886114120483,
      -0.06298636645078659,  0.004465026780962944,   -0.09610462933778763,
      0.008892753161489964,  -0.01438048668205738,   -0.07268433272838593,
      0.02797675132751465,   -0.0173310749232769,    0.025411564856767654,
      -0.0471680611371994},

     {0.013506443239748478,  -0.0011980478884652257, -0.027504483237862587,
      0.015610584057867527,  0.003521108999848366,   0.02815721556544304,
      0.019329793751239777,  0.014582887291908264,   0.02170603722333908,
      -0.014034819789230824, 0.07370798289775848,    0.01294131763279438,
      -0.01310998946428299,  -0.036378711462020874,  0.0019469063263386488,
      0.037705302238464355,  -0.0030553294345736504, -0.03441017493605614,
      0.014979698695242405,  -0.003979251254349947,  -0.00033878482645377517,
      0.0038182130083441734, -0.02670135349035263,   -0.013412252999842167,
      0.0031096073798835278},

     {0.021952873095870018,  -0.006946994457393885, 0.02607554942369461,
      -0.04876047000288963,  -0.030514055863022804, 0.03308682516217232,
      0.04348931089043617,   0.0029108859598636627, -0.010929952375590801,
      -0.030385194346308708, 0.06060053035616875,   0.02243482880294323,
      0.04167644679546356,   0.025665726512670517,  0.0002193343243561685,
      0.013268216513097286,  0.04171839728951454,   0.008894253522157669,
      0.011520632542669773,  -0.002043992280960083, -0.018960481509566307,
      0.031119657680392265,  0.005413734819740057,  -0.02177301235496998,
      -0.04672103002667427},

     {0.015699295327067375,  -0.026064392179250717, -0.04449945688247681,
      -0.03909654915332794,  -0.057218123227357864, -0.023281341418623924,
      -0.027842581272125244, 0.02556164376437664,   -0.015423513948917389,
      -0.04425281658768654,  0.01872273162007332,   -0.006632549688220024,
      0.028766505420207977,  -0.04902515187859535,  -0.05520588532090187,
      -0.0361950546503067,   -0.05039845034480095,  -0.006452914793044329,
      -0.005029536783695221, -0.01959943398833275,  -0.012119916267693043,
      -0.028675055131316185, -0.044413745403289795, -0.038874946534633636,
      0.011259183287620544},

     {0.035486575216054916,  0.022413864731788635,  0.02390451356768608,
      -0.022711629047989845, 0.01000702753663063,   0.02146691270172596,
      0.020426249131560326,  -0.019809678196907043, -0.006735078990459442,
      -0.04373607411980629,  0.008879910223186016,  0.03755279257893562,
      -0.005183297209441662, -0.03395530954003334,  -0.04066573455929756,
      0.009684581309556961,  0.006302054971456528,  -0.02816694974899292,
      -0.028945177793502808, -0.053216252475976944, 0.019058173522353172,
      -0.01529637910425663,  0.0034426553174853325, -0.016384664922952652,
      -0.03726517781615257},

     {0.02524091862142086,   0.035914089530706406,   -0.05327262356877327,
      -0.017702016979455948, 0.0013770217774435878,  0.034376610070466995,
      0.037179622799158096,  -0.0348631925880909,    -0.02869207225739956,
      0.0074669006280601025, 0.021425891667604446,   0.04250984266400337,
      0.0322837196290493,    0.014687301591038704,   0.06938906759023666,
      -0.01382115762680769,  -0.0004490691644605249, 0.005374626722186804,
      -0.07367805391550064,  -0.07256965339183807,   0.025145849213004112,
      -0.0108100064098835,   0.06118706241250038,    -0.04892842099070549,
      0.02162512205541134},

     {-0.006373997777700424,  -0.035520486533641815,  -0.006584112998098135,
      -0.0133849261328578,    0.02701358124613762,    0.056015919893980026,
      -0.0341714508831501,    -0.0568537712097168,    -0.023049145936965942,
      0.00035546720027923584, 0.0527142696082592,     -0.052215155214071274,
      0.02203262969851494,    0.01171335019171238,    -0.013795284554362297,
      0.006851976737380028,   -0.05662424862384796,   -0.037424396723508835,
      0.00500120036303997,    -0.0053631216287612915, 0.008517434820532799,
      -0.005858123768121004,  -0.02835395745933056,   -0.012461991049349308,
      0.020458495244383812},

     {0.02068213000893593,    -0.01435787696391344,   0.0019440085161477327,
      -0.0016570508014410734, -0.004490310326218605,  0.032632976770401,
      0.018588317558169365,   0.008167591877281666,   -0.012895439751446247,
      -0.021052679046988487,  -0.014820484444499016,  0.014840871095657349,
      -0.01456222590059042,   -0.03352107107639313,   -0.007545230910181999,
      -0.0005213749827817082, -0.03852158784866333,   -0.005835235118865967,
      -0.03656715527176857,   -0.0005156276747584343, 0.0012832795036956668,
      -0.017564572393894196,  -0.03322507068514824,   0.020699238404631615,
      -0.0013936929171904922},

     {0.01331673376262188,    -0.036470506340265274, -0.012786769308149815,
      0.03231210634112358,    -0.029990172013640404, 0.03994561359286308,
      0.04252948239445686,    -0.017047297209501266, -0.009297058917582035,
      -0.025292102247476578,  0.025740206241607666,  -0.006705538369715214,
      -0.017543701454997063,  0.008737880736589432,  0.029286330565810204,
      -0.008138200268149376,  0.03410230576992035,   0.00734548969194293,
      0.008490810170769691,   0.007737819105386734,  0.007597659714519978,
      -0.0030005075968801975, 0.015922769904136658,  -0.03974372521042824,
      0.0062676542438566685},

     {-0.03679276630282402,  0.015459730289876461,  0.006267487537115812,
      -0.04056965559720993,  -0.00871935486793518,  0.06216835975646973,
      0.04116959497332573,   -0.02165074087679386,  0.025409946218132973,
      -0.005391131620854139, 0.09405909478664398,   0.04148455709218979,
      0.02367367409169674,   0.011458629742264748,  -0.023705968633294106,
      0.08900557458400726,   0.02213549241423607,   0.0168035589158535,
      0.02188250422477722,   -0.020364591851830482, 0.030665261670947075,
      0.037793081253767014,  0.022671980783343315,  -0.0208036657422781,
      -0.09387435019016266},

     {0.008304731920361519,   -0.02533458173274994,   -0.01339587103575468,
      -0.0034376641269773245, -0.0017470334423705935, 0.06506461650133133,
      0.025901827961206436,   -0.012384706176817417,  -0.013300668448209763,
      -0.059886060655117035,  0.017319273203611374,   0.005802188999950886,
      -0.004834284074604511,  0.019418014213442802,   -0.05178995057940483,
      0.039305493235588074,   0.029950294643640518,   -0.017817828804254532,
      0.008621999993920326,   0.01128345262259245,    -0.00744246132671833,
      -0.0015917208511382341, -0.0310651995241642,    -0.038425762206315994,
      -0.032623469829559326},

     {-0.01407543383538723,  -0.02429434098303318,  -0.04459168389439583,
      -0.04037466272711754,  -0.050082895904779434, 0.02970956265926361,
      0.025997638702392578,  0.023472938686609268,  -0.007426083087921143,
      -0.03527446463704109,  0.015654053539037704,  0.0508190356194973,
      0.0396965928375721,    0.003648755606263876,  -0.06839148700237274,
      0.01910782977938652,   0.013055184856057167,  0.009757453575730324,
      -0.005852348171174526, -0.04131021350622177,  -0.009421772323548794,
      -0.027806393802165985, -0.014467763714492321, -0.039724260568618774,
      -0.0556318536400795},

     {-0.0036030791234225035, 0.004932868294417858,  -0.036661986261606216,
      0.008996387012302876,   -0.003795186523348093, -0.04083128273487091,
      -0.03210418298840523,   0.07585273683071136,   -0.005798801779747009,
      -0.033886101096868515,  -0.031159166246652603, -0.013767784461379051,
      0.04487558826804161,    -0.011277451179921627, 0.004454775247722864,
      0.022424241527915,      0.005346289835870266,  -0.027079785242676735,
      0.05505045875906944,    -0.036379411816596985, -0.028062570840120316,
      0.022373324260115623,   -0.02181338332593441,  0.03170377016067505,
      0.011385693214833736}},

    {{-0.012553169392049313,  -0.04445987194776535,  0.010084465146064758,
      -0.018610715866088867,  -0.043504029512405396, -0.02519867941737175,
      0.003718973370268941,   0.045566584914922714,  0.020092567428946495,
      0.05013324320316315,    0.005128337070345879,  0.0007772077224217355,
      0.015559694729745388,   0.062254875898361206,  0.006296444218605757,
      0.028313832357525826,   -0.039663806557655334, -0.013996264897286892,
      -0.0010019276523962617, -0.011064200662076473, 0.07537151128053665,
      -0.03331618010997772,   -0.021658550947904587, -0.051980894058942795,
      -0.0019962394144386053},

     {-0.03802299126982689,   -0.029147276654839516, 0.008747953921556473,
      -0.017727360129356384,  0.029114581644535065,  -0.022644435986876488,
      0.013352198526263237,   0.01963161490857601,   0.034761302173137665,
      -0.00990062952041626,   0.012938380241394043,  -0.016207346692681313,
      0.001385662006214261,   0.036195605993270874,  0.0135946748778224,
      -0.023812606930732727,  -0.0416533425450325,   -0.014905782416462898,
      0.02629610151052475,    0.010721905156970024,  -0.05119724199175835,
      -0.0026454993057996035, 0.012758476659655571,  -0.0017067433800548315,
      8.462447294732556e-05},

     {-0.04035200551152229,  -0.03690600395202637,   -0.03562295436859131,
      -0.029504401609301567, -0.03270368650555611,   -0.03108212538063526,
      0.041960325092077255,  0.03895081952214241,    0.015242427587509155,
      0.06435331702232361,   -0.020604409277439117,  -0.022072656080126762,
      0.03127029538154602,   0.061213936656713486,   0.032989222556352615,
      -0.031071588397026062, 0.016931826248764992,   0.039576057344675064,
      0.029810285195708275,  0.001804651808924973,   0.013736695051193237,
      -0.05416171997785568,  -0.0015864410670474172, -0.02386794425547123,
      -0.029351674020290375},

     {-0.04971959814429283,  0.002275317208841443,  -0.0005110176862217486,
      -0.006096128839999437, -0.03586503863334656,  -0.016477875411510468,
      0.015113496221601963,  -0.018962200731039047, -0.03338493034243584,
      -0.03325628861784935,  -0.022747524082660675, 0.04024716466665268,
      -0.004121602512896061, 0.0030128033831715584, -0.02837892808020115,
      -0.01644187606871128,  0.001416320214048028,  -0.02499472163617611,
      -0.051430895924568176, 0.038903698325157166,  -0.05836465582251549,
      0.015466849319636822,  -0.013273686170578003, -0.012679711915552616,
      0.02325962297618389},

     {0.029270652681589127,  -0.018731841817498207, -0.009487246163189411,
      -0.06539565324783325,  0.015534835867583752,  -0.005002101883292198,
      -0.012905854731798172, 0.029849397018551826,  0.059004273265600204,
      0.02351907454431057,   -0.02909655123949051,  -0.02679046429693699,
      -0.010168733075261116, 0.0020675805862993,    -0.10211817920207977,
      -0.004223654046654701, -0.015214625746011734, -0.01070505939424038,
      -0.03329545259475708,  -0.04708898067474365,  -0.029741261154413223,
      0.03425644710659981,   0.07479489594697952,   0.034642141312360764,
      -0.003917321562767029},

     {-0.024570969864726067, -0.029855022206902504, 0.004439897369593382,
      -0.017527269199490547, -0.040008146315813065, -0.017421502619981766,
      0.020545581355690956,  -0.03901384398341179,  -0.007737348787486553,
      0.02952793426811695,   0.006956034805625677,  -0.013622128404676914,
      -0.000905474356841296, 0.03549519553780556,   -0.001475605764426291,
      -0.02361069619655609,  0.010910235345363617,  -0.011877987533807755,
      0.018831634894013405,  0.052026670426130295,  -0.062282077968120575,
      -0.05349167063832283,  -0.03977690264582634,  0.02281835675239563,
      -0.011183062568306923},

     {-0.021005142480134964, -0.01267135888338089,  -0.06798066198825836,
      -0.0749339684844017,   -0.0232806745916605,   0.011123494245111942,
      -0.046144094318151474, -0.01838262937963009,  -0.01979161985218525,
      0.006886674091219902,  0.0018532235408201814, -0.012279234826564789,
      0.020826280117034912,  0.03288079425692558,   0.04625772684812546,
      0.034914907068014145,  0.03760609030723572,   0.004721614997833967,
      -0.009224443696439266, 0.04237719625234604,   -0.06261054426431656,
      0.01888459175825119,   0.004711514804512262,  -0.04201947897672653,
      -0.04202628880739212},

     {-0.06992126256227493,  0.01611693948507309,    -0.02854844741523266,
      -0.005327345337718725, 0.0060100615955889225,  -0.036685697734355927,
      0.0014664531918242574, -0.006453305948525667,  -0.006657457910478115,
      0.037456873804330826,  -0.0025679708924144506, 0.004300142638385296,
      -0.011680731549859047, -0.009027119725942612,  0.04464038833975792,
      -0.012496836483478546, 0.036347419023513794,   0.038265958428382874,
      0.028593353927135468,  0.025792673230171204,   -0.03819077089428902,
      -0.022961260750889778, 0.00034479470923542976, 0.03380770981311798,
      0.04084230214357376},

     {-0.04141750559210777,  -0.08252110332250595,  -0.014945849776268005,
      -0.022447684779763222, 0.024755099788308144,  0.02803877368569374,
      -0.04455133154988289,  -0.029262056574225426, 0.028537169098854065,
      0.02968718856573105,   0.016752539202570915,  -0.018158521503210068,
      0.017593901604413986,  -0.010025423020124435, 0.05018405616283417,
      0.08438251912593842,   -0.03468294441699982,  0.0043989247642457485,
      0.009591621346771717,  -0.022077305242419243, 0.05100149288773537,
      0.04732593894004822,   0.009762042202055454,  -0.007412059232592583,
      -0.04780249670147896},

     {-0.022151270881295204,  -0.01828613504767418,   -0.00653669610619545,
      -0.03298043832182884,   0.029020817950367928,   -0.04461504518985748,
      0.016873227432370186,   0.012166297994554043,   0.02154969982802868,
      0.029756706207990646,   -0.0077199251390993595, -0.0007608533487655222,
      -0.02002737484872341,   -0.0043820785358548164, 0.007092158775776625,
      -0.03842092677950859,   -0.05494006723165512,   0.005490670911967754,
      -0.0057545010931789875, 0.020753497257828712,   -0.009803134948015213,
      -0.002494528191164136,  -0.007836267352104187,  0.01969143934547901,
      -0.01491687260568142},

     {-0.018514851108193398,   -0.04909341409802437,  0.03060023859143257,
      -0.016948014497756958,   -0.05282227694988251,  -0.027232060208916664,
      -0.00014294337597675622, 0.011563416570425034,  -0.018420275300741196,
      0.019257832318544388,    -0.05243363231420517,  -0.022584732621908188,
      0.004038638435304165,    0.01761764846742153,   0.022655459120869637,
      -0.025132928043603897,   -0.032784655690193176, 0.02576872520148754,
      0.02694973349571228,     0.024452026933431625,  -0.012433822266757488,
      -0.006091855466365814,   -0.05724272504448891,  -0.030515428632497787,
      -0.030367515981197357},

     {-0.03361445292830467,  0.0006907320348545909, 0.025107797235250473,
      0.00885237380862236,   -0.008126192726194859, 0.06241917237639427,
      -0.05398154258728027,  -0.048445601016283035, 0.014433550648391247,
      -0.03518839180469513,  0.007205301430076361,  0.0032486722338944674,
      -0.004406472202390432, 0.04940594360232353,   0.05779581889510155,
      0.020189886912703514,  -0.021802488714456558, 0.0513291209936142,
      0.057177938520908356,  -0.026683028787374496, -0.05838489159941673,
      0.00799793004989624,   0.030702931806445122,  -0.041753195226192474,
      0.021037040278315544},

     {-0.048223163932561874,  -0.056893087923526764, -0.04084290564060211,
      -0.046838585287332535,  0.007647430524230003,  -0.07141117006540298,
      -0.02090626396238804,   0.03689107671380043,   -0.024321269243955612,
      0.027976976707577705,   -0.07137395441532135,  0.0006239899666979909,
      -0.005819236859679222,  0.0006397689576260746, 0.03354216739535332,
      -0.01649625413119793,   -0.007809653878211975, -0.024481281638145447,
      -0.037304170429706573,  0.05080519989132881,   -0.04530635476112366,
      -0.0012769559398293495, -0.03996409475803375,  -0.02038528025150299,
      0.03035789169371128},

     {-0.05058629810810089,  0.04877490922808647,   -0.012230086140334606,
      0.016568122431635857,  0.008757313713431358,  -0.03315936028957367,
      0.045045483857393265,  0.026095377281308174,  0.04359631985425949,
      -0.015130087733268738, 0.005155761726200581,  0.05716158077120781,
      -0.021261567249894142, -0.042702510952949524, 0.007684499025344849,
      -0.053851693868637085, -0.01563921570777893,  -0.0011222988832741976,
      0.015782713890075684,  0.040534358471632004,  -0.007352001499384642,
      -0.019647108390927315, -0.030262479558587074, 0.02204906940460205,
      0.04497063159942627},

     {0.015507151372730732,   -0.041940540075302124, 0.016746891662478447,
      -0.046341270208358765,  -0.02573241852223873,  0.02439388446509838,
      -0.0023996157106012106, -0.037187013775110245, -0.0030085970647633076,
      -0.01860920712351799,   -0.032118674367666245, -0.03160465508699417,
      -0.011850371956825256,  0.02773847058415413,   -0.013293908908963203,
      -0.02680768072605133,   0.015113606117665768,  -0.013267120346426964,
      -0.020504234358668327,  -0.03200564160943031,  -0.03039272502064705,
      0.014640315435826778,   -0.04505681246519089,  0.011680410243570805,
      -0.02703104540705681},

     {-0.04350738227367401,  -0.024208001792430878, -0.005237917881458998,
      -0.005978977773338556, -0.038080912083387375, -0.035651374608278275,
      0.02559477649629116,   -0.02659968100488186,  -0.01903671585023403,
      0.011394869536161423,  0.00806799903512001,   0.03074760176241398,
      0.0032550995238125324, 0.0071422141045331955, 0.008733272552490234,
      0.012701342813670635,  -0.031580425798892975, -0.021452799439430237,
      0.056941937655210495,  0.024137014523148537,  0.009421895258128643,
      -0.02391108125448227,  0.01188841462135315,   0.03277040272951126,
      0.010401108302175999},

     {-0.012608458288013935, 0.008905970491468906,  -0.02585950680077076,
      0.0007452834979631007, -0.06236666440963745,  0.006927958223968744,
      -0.03790779411792755,  -0.06457551568746567,  -0.008250619284808636,
      0.002984049264341593,  -0.013447818346321583, -0.022596847265958786,
      0.011368120089173317,  0.05718330293893814,   0.034403253346681595,
      -0.023339932784438133, -0.0685516968369484,   -0.027549127116799355,
      0.024051235988736153,  0.0005274850409477949, -0.05375894904136658,
      -0.03318987786769867,  0.0054830643348395824, -0.04303652420639992,
      -0.021787090227007866},

     {0.018308624625205994,  0.015408213250339031,  -0.028759727254509926,
      -0.03911927714943886,  0.011206287890672684,  0.02251531183719635,
      -0.03011535108089447,  0.02493245340883732,   0.02492218278348446,
      0.019602613523602486,  0.041747014969587326,  0.006013075355440378,
      0.0013956759357824922, 0.0036215814761817455, 0.005192275159060955,
      -0.034726910293102264, 0.0031280601397156715, 0.02444460056722164,
      -0.04520072042942047,  -0.029701266437768936, -0.01815398968756199,
      -0.029601911082863808, -0.0114680090919137,   -0.060225650668144226,
      -0.04206131398677826},

     {-0.009133216924965382,  -0.0371578112244606,   -0.02087770216166973,
      0.013220060616731644,   -0.004621482454240322, -0.007334955036640167,
      -0.0011662920005619526, -0.035791996866464615, 0.06325537711381912,
      0.021378017961978912,   -0.028130903840065002, 0.0026165705639868975,
      0.0006086680805310607,  0.05530641973018646,   0.050891127437353134,
      -0.06393791735172272,   -0.014975420199334621, 0.003631534054875374,
      0.012602262198925018,   0.03208981826901436,   -0.00397447170689702,
      -0.013250422663986683,  0.0013153624022379518, 0.03413994610309601,
      -0.005833741743117571},

     {-0.037448737770318985, 0.021216807886958122,  0.012361584231257439,
      -0.05633144825696945,  0.037401746958494186,  0.016845572739839554,
      0.008210409432649612,  -0.04533250257372856,  0.02851833589375019,
      0.027146868407726288,  0.01790459454059601,   0.010366625152528286,
      0.013531212694942951,  0.06460193544626236,   0.020748475566506386,
      -0.033375490456819534, -0.005527447443455458, -0.03516484424471855,
      0.026834843680262566,  0.030456939712166786,  -0.008267616853117943,
      -0.016044311225414276, -0.011502274312078953, 0.026250343769788742,
      0.003850142238661647},

     {0.015248410403728485,   -0.042685043066740036, -0.04133864492177963,
      -0.05593589320778847,   -0.030688432976603508, -0.04191124811768532,
      0.020284080877900124,   0.010227152146399021,  0.023478997871279716,
      0.0020229797810316086,  -0.05365057289600372,  -0.008393025025725365,
      0.009068298153579235,   0.04180067032575607,   0.010022751986980438,
      -0.012090095318853855,  -0.004635077901184559, -0.040353260934352875,
      -0.020182350650429726,  0.03771042078733444,   -0.025294112041592598,
      -0.0035821653436869383, -0.03160418942570686,  -0.050579365342855453,
      0.008131078444421291},

     {-0.0040136100724339485, 0.01426958292722702,    -0.026668548583984375,
      0.027634643018245697,   0.030131544917821884,   0.04044981300830841,
      0.029869617894291878,   0.019364330917596817,   0.025307677686214447,
      0.04234130680561066,    0.021587233990430832,   0.03494800627231598,
      0.034392163157463074,   0.033234868198633194,   0.07711972296237946,
      -0.03086971864104271,   -0.019362827762961388,  0.022892875596880913,
      0.05100422725081444,    0.05758081376552582,    -0.03068775311112404,
      -0.0335429422557354,    -0.0025451164692640305, 0.008159334771335125,
      -0.004513739608228207},

     {-0.029151789844036102, -0.014665249735116959, -0.017881952226161957,
      -0.010130297392606735, -0.048100218176841736, 0.015493716113269329,
      -0.041454557329416275, 0.015321172773838043,  -0.01757156290113926,
      -0.022487318143248558, -0.00474515138193965,  -0.0040832627564668655,
      0.011354317888617516,  0.009919591248035431,  -0.007025544065982103,
      -0.011334740556776524, -0.0362866073846817,   0.004837147891521454,
      0.0035613023210316896, -0.040771566331386566, -0.011872579343616962,
      -0.00722476514056325,  -0.020863495767116547, 0.009830192662775517,
      -0.04967339709401131},

     {-0.009430570527911186,  -0.034223444759845734, 0.014279190450906754,
      0.033224355429410934,   0.032213788479566574,  -0.024636559188365936,
      -0.0011960287811234593, 0.03127053380012512,   0.03462674468755722,
      0.0022279336117208004,  -0.05663103982806206,  -0.023803379386663437,
      0.053572263568639755,   0.01763335056602955,   0.05307510867714882,
      -0.048034023493528366,  -0.0454770065844059,   -0.0037392834201455116,
      0.013668564148247242,   0.0038356927689164877, -0.05021010711789131,
      -0.030430778861045837,  0.014599042013287544,  -0.013247821480035782,
      -0.023334719240665436},

     {-0.0017599218990653753, 0.0035923090763390064, 0.011727970093488693,
      0.03450680896639824,    0.029397910460829735,  0.0029714442789554596,
      -0.018373453989624977,  0.02007574588060379,   -0.01580617018043995,
      0.007270173169672489,   0.010639953427016735,  0.02905113808810711,
      0.019492775201797485,   0.015390537679195404,  0.0033852250780910254,
      -0.023864515125751495,  -0.035341810435056686, 0.02357928268611431,
      -0.04383372142910957,   -0.020357243716716766, -0.05592069774866104,
      -0.018700409680604935,  0.0019564880058169365, -0.06736522912979126,
      0.012291671708226204},

     {-0.039760772138834,     -0.06169861927628517,  -0.035105835646390915,
      -0.023560382425785065,  0.017184535041451454,  0.06878399103879929,
      0.002661788370460272,   -0.0549478717148304,   0.03376379236578941,
      0.0589020811021328,     0.00827191211283207,   -0.009945920668542385,
      0.009001433849334717,   0.00660517904907465,   0.04651680216193199,
      0.03797685727477074,    0.022616244852542877,  0.003019494004547596,
      -0.0013452927814796567, -0.003624693490564823, 0.0035742726176977158,
      0.004254037979990244,   0.0038685817271471024, -0.008748375810682774,
      -0.06352002173662186},

     {-0.05587524548172951,  0.02143063023686409,   -0.014682975597679615,
      0.013379150070250034,  -0.03788595646619797,  -0.027858031913638115,
      -0.026854990050196648, 0.003420054679736495,  -0.024435117840766907,
      0.017300797626376152,  -0.03733118250966072,  -0.049009744077920914,
      -0.02450426109135151,  -0.0245099738240242,   -0.014419586397707462,
      -0.01874188706278801,  0.018417954444885254,  0.016126146540045738,
      -0.015491202473640442, -0.04553092643618584,  -0.011918717063963413,
      -0.016263121739029884, 0.0032913796603679657, -0.014164593070745468,
      -0.020585425198078156},

     {-0.0329597108066082,    -0.03480708599090576,  0.025031091645359993,
      0.008418001234531403,   -0.00723192747682333,  -0.018345355987548828,
      -0.023846715688705444,  0.02867172285914421,   0.006271114107221365,
      -0.039477039128541946,  -0.01902441680431366,  0.009681425988674164,
      -0.0076005784794688225, 0.02067144401371479,   0.03983275219798088,
      0.01178266666829586,    0.009172329679131508,  0.008536064065992832,
      -0.03907438740134239,   0.0188264362514019,    0.010170964524149895,
      -0.01940941996872425,   -0.017889095470309258, 0.01984434202313423,
      -0.031258706003427505},

     {-0.02849917858839035,  -0.035871945321559906, 0.013070776127278805,
      -0.044492196291685104, -0.039043232798576355, -0.020038845017552376,
      -0.010679280385375023, 0.017987335100769997,  -0.0043762619607150555,
      0.005560719408094883,  -0.08857528865337372,  -0.03125108778476715,
      -0.004743967205286026, -0.010544431395828724, 0.029174229130148888,
      -0.057400841265916824, -0.03519986569881439,  0.02120756171643734,
      0.0010710067581385374, 0.05500514432787895,   -0.06278745085000992,
      -0.049368198961019516, -0.032571081072092056, -0.030432019382715225,
      0.046645455062389374},

     {0.009382229298353195,  -0.05175081640481949,   -0.017323141917586327,
      -0.015123507007956505, 0.015384169295430183,   -0.002142355777323246,
      -0.023827403783798218, 0.024812832474708557,   -0.0008785919635556638,
      0.01021173968911171,   -0.06072371080517769,   -0.027561062946915627,
      -0.007397709880024195, 0.053852226585149765,   0.04446903243660927,
      -0.04458564892411232,  -0.0012073650723323226, 0.028194744139909744,
      0.005621571559458971,  0.027067432180047035,   0.010113389231264591,
      -0.04021264240145683,  -0.04519489035010338,   0.0020553958602249622,
      -0.008950868621468544},

     {0.029227055609226227,   0.008403901010751724, -0.014132190495729446,
      0.04488443210721016,    0.012293564155697823, 0.04143250361084938,
      -0.029816050082445145,  0.00895829126238823,  0.00420620571821928,
      0.00013249101175460964, 0.019369950518012047, 0.00898362323641777,
      0.04704274237155914,    0.031241538003087044, 0.0647747665643692,
      -0.014372936449944973,  -0.02366933599114418, -0.016029376536607742,
      -0.031173106282949448,  0.007605319377034903, -0.00909934937953949,
      -0.05832529067993164,   0.02475205808877945,  -0.015834609046578407,
      0.029469788074493408},

     {-0.03340204060077667,   -0.05866444855928421,  -0.05571054294705391,
      -0.022838855162262917,  -0.036860331892967224, 0.006747163366526365,
      -0.011095359921455383,  0.02107713371515274,   -0.0009789521573111415,
      0.0011773437727242708,  -0.024884281679987907, -0.0008581064757890999,
      0.023255344480276108,   0.034781571477651596,  -0.03888747841119766,
      -0.0037440184969455004, -0.04507571458816528,  0.025107327848672867,
      0.007110033184289932,   -0.019154561683535576, 0.0009460136061534286,
      0.004502087365835905,   0.018549667671322823,  -0.02249166928231716,
      0.037857066839933395}},

    {{0.036796193569898605,   -0.02767857536673546,  -0.00486992672085762,
      0.0007585703278891742,  0.01626897230744362,   0.004363833460956812,
      0.012174506671726704,   -0.013670084066689014, 0.017037371173501015,
      0.0039683072827756405,  0.02200472354888916,   0.019251713529229164,
      0.000557692430447787,   0.03224707022309303,   -0.014678630977869034,
      -0.06137668713927269,   0.012139901518821716,  0.016202805563807487,
      0.024915866553783417,   -0.03170838579535484,  -0.08858972787857056,
      -0.0041625951416790485, 0.02093612402677536,   0.03837931528687477,
      0.007047052029520273},

     {0.0019451717380434275, -0.009367739781737328, -0.002898918464779854,
      0.0043485695496201515, 0.027600854635238647,  -0.010512372478842735,
      0.009188864380121231,  0.000978200463578105,  0.017684781923890114,
      -0.005038545001298189, 0.021818874403834343,  -0.015033836476504803,
      0.03849133104085922,   -0.025831101462244987, 0.019793890416622162,
      -0.006940674502402544, -0.00444404873996973,  0.007029907777905464,
      -0.0408693328499794,   -0.01723393052816391,  -0.01047992892563343,
      -0.028252962976694107, 0.0351734459400177,    -0.005751417949795723,
      0.011912902817130089},

     {-0.005581477656960487,  -0.01019306480884552, -0.020796125754714012,
      0.008425763808190823,   -0.00334009132348001, 0.017590943723917007,
      -0.011624215170741081,  -0.03060920350253582, -0.04138479754328728,
      0.030200324952602386,   0.005739773623645306, -0.03454681485891342,
      -0.02376587875187397,   0.026611069217324257, 0.018409602344036102,
      -0.0059915692545473576, 0.05302291736006737,  0.01744852215051651,
      -0.0394236259162426,    0.01965486630797386,  0.01495448686182499,
      0.009748644195497036,   0.05084000155329704,  -0.02580590732395649,
      -0.0064292955212295055},

     {0.008404339663684368, 0.048624955117702484,   0.0009212418226525187,
      0.020319467410445213, 0.01277315802872181,    0.001776508055627346,
      0.01394390594214201,  -0.0008802009979262948, 0.010701320134103298,
      -0.03185954689979553, 0.00837005116045475,    0.02874632366001606,
      0.02389204315841198,  -0.003805896732956171,  -0.05805079638957977,
      0.04919666051864624,  0.001080371206626296,   -0.019106794148683548,
      -0.03663717955350876, -0.009284869767725468,  0.04012538120150566,
      -0.05046486109495163, -0.005877459421753883,  -0.007721669506281614,
      -0.036630794405937195},

     {-0.06385161727666855,  -0.0820736289024353,   -0.0037541526835411787,
      0.0030798001680523157, 0.0176266860216856,    0.028772035613656044,
      -0.05240264907479286,  -0.06875782459974289,  0.0237127672880888,
      0.0045445566065609455, 0.03260369226336479,   0.052403952926397324,
      0.003452013246715069,  0.060916174203157425,  0.02644789218902588,
      0.019315041601657867,  0.006028987467288971,  -0.04416532441973686,
      -0.009494970552623272, -0.029170121997594833, -0.02050013467669487,
      -0.004996336996555328, 0.008702580817043781,  -0.023101352155208588,
      0.03330666571855545},

     {0.03312910720705986,     -0.006707292981445789, 0.007265512831509113,
      0.03177764266729355,     0.0389128215610981,    0.021092098206281662,
      0.00753791956230998,     0.0030721770599484444, -0.0022540302015841007,
      -0.02335873246192932,    0.024904821068048477,  0.03403317555785179,
      -0.00024155316350515932, -0.01482763048261404,  0.002100168028846383,
      -0.0070146797224879265,  0.009110580198466778,  0.009346540085971355,
      0.0424327477812767,      0.020374704152345657,  0.030329067260026932,
      0.018208056688308716,    0.018310971558094025,  0.01334190834313631,
      -0.03721771016716957},

     {-0.04088893532752991,  0.036859266459941864,  0.0005851871683262289,
      -0.004978438839316368, -0.018022550269961357, -0.09288408607244492,
      0.006136399693787098,  0.0033163365442305803, 0.02120089903473854,
      0.022630494087934494,  -0.03051011823117733,  -0.019002636894583702,
      0.031013252213597298,  0.0002456532383803278, 0.0005872328765690327,
      -0.017750056460499763, -0.042043495923280716, 0.017244528979063034,
      0.050043441355228424,  -0.010259268805384636, -0.010852708481252193,
      0.009353936649858952,  -0.04791320487856865,  0.05846527963876724,
      -0.010280707851052284},

     {-0.013635055162012577, 0.009148677811026573,  -0.04788444936275482,
      -0.01590949296951294,  0.03094213455915451,   0.016161160543560982,
      0.006619203835725784,  0.017162324860692024,  -0.03881542757153511,
      0.05099651217460632,   0.014691346324980259,  -0.015208959579467773,
      0.033379025757312775,  -0.016783352941274643, 0.03981562331318855,
      0.0064878687262535095, 0.018505608662962914,  0.04879521206021309,
      0.04103868827223778,   0.002717355964705348,  0.016716787591576576,
      0.0067764450795948505, -0.015438280068337917, 0.002990345237776637,
      0.035098422318696976},

     {0.0181429423391819,     0.013443505391478539,  0.026637857779860497,
      -0.04262933135032654,   0.005618866067379713,  0.003828470828011632,
      -0.045612357556819916,  -0.0788397416472435,   0.06479493528604507,
      -0.015018507838249207,  0.04793127253651619,   -0.09392832219600677,
      -0.0030445377342402935, -0.05460479110479355,  -0.008910995908081532,
      0.003303293604403734,   0.018790731206536293,  -0.13139472901821136,
      -0.013224135152995586,  -0.06824350357055664,  -0.04241004213690758,
      0.004308854229748249,   -0.016572920605540276, -0.014838381670415401,
      0.004700586199760437},

     {-0.011220120824873447, 0.02047327719628811,   0.01498362049460411,
      -0.018351787701249123, -0.029299292713403702, 0.016477026045322418,
      0.01631997525691986,   0.004675780888646841,  -0.020010750740766525,
      0.027167802676558495,  0.0005683530471287668, 0.010586060583591461,
      0.03569197282195091,   -0.007305908016860485, -0.04470331221818924,
      0.0005987145123071969, -0.009269117377698421, -0.008603456430137157,
      0.010661202482879162,  -0.006349068600684404, -0.007080849725753069,
      0.029236478731036186,  -0.003157669445499778, 0.027912098914384842,
      -0.009141987189650536},

     {0.02196786180138588,    -0.005602427292615175, -0.01771770603954792,
      0.03144070878624916,    0.02860371023416519,   0.01650531403720379,
      -0.0039750803261995316, 0.014513850212097168,  0.00618670554831624,
      0.009395614266395569,   0.02934211678802967,   -0.02643798664212227,
      -0.016969626769423485,  -0.00644693011417985,  0.019762439653277397,
      -0.00803794153034687,   -0.01369352638721466,  0.010126226581633091,
      0.006763416808098555,   0.008178356103599072,  0.02278423309326172,
      0.03803548961877823,    0.04614928737282753,   -0.03728209435939789,
      -0.03762846440076828},

     {-0.051282819360494614,  0.00799200776964426,   -0.03345614671707153,
      -0.03522023558616638,   -0.01981664076447487,  -0.021688606590032578,
      -0.0009880822617560625, -0.010889633558690548, -0.049912434071302414,
      -0.029098156839609146,  0.014771985821425915,  -0.019719256088137627,
      -0.060306157916784286,  0.01850084587931633,   0.032030634582042694,
      -0.09349489957094193,   -0.043649524450302124, 0.008748935535550117,
      0.044189222157001495,   0.040408264845609665,  -0.03911424055695534,
      0.03417978808283806,    0.01646357774734497,   -0.007120625581592321,
      0.01217527873814106},

     {-0.03105025924742222,  0.01410653069615364,  0.024015303701162338,
      -0.02864200621843338,  -0.03974228352308273, -0.030242057517170906,
      -0.022039638832211494, 0.014845200814306736, 0.001150923315435648,
      2.924381306002033e-06, 0.03950951620936394,  -0.029938550665974617,
      8.593234088039026e-05, 0.01609247736632824,  -0.018054174259305,
      0.025171753019094467,  0.004055041819810867, -0.02485591731965542,
      0.009543257765471935,  0.03512943163514137,  -0.002219710499048233,
      -0.03908031806349754,  0.013138556852936745, 0.030569884926080704,
      0.025979304686188698},

     {-0.009190481156110764, -0.030886849388480186, 0.013094816356897354,
      0.0129378167912364,    0.018588939681649208,  0.017905138432979584,
      0.034601155668497086,  0.025951577350497246,  0.012482408434152603,
      -0.005905607249587774, 0.009853464551270008,  0.01367250643670559,
      -0.00459733372554183,  -0.013826387003064156, 0.020010115578770638,
      -0.0317651741206646,   0.03434931859374046,   0.05075151473283768,
      -0.017224667593836784, 0.027638161554932594,  -0.01672837883234024,
      0.009009039960801601,  0.033534467220306396,  0.025832820683717728,
      -0.028068838641047478},

     {-0.013438615947961807,  -0.015617930330336094, 0.04318530485033989,
      -0.0005244233761914074, 0.002846016548573971,  0.02498452365398407,
      0.014172397553920746,   0.041529491543769836,  0.006956102326512337,
      -0.024487413465976715,  0.03124077059328556,   -0.030268866568803787,
      -0.03115277923643589,   0.03457065299153328,   -0.03172759339213371,
      0.01410905085504055,    0.02894810028374195,   0.0026984831783920527,
      -0.017027797177433968,  0.027721215039491653,  -0.03751673176884651,
      0.025911269709467888,   9.756576764630154e-05, -0.018719717860221863,
      0.023146510124206543},

     {0.052226822823286057,    -0.026898225769400597, 0.009901873767375946,
      0.03577425330877304,     -0.019844811409711838, 0.0599706694483757,
      0.00646275794133544,     -0.013831415213644505, -0.008118909783661366,
      -0.00023812826839275658, 0.018848272040486336,  0.02191038802266121,
      -0.02595885656774044,    -0.020274095237255096, -0.014004654251039028,
      0.026073332875967026,    -0.011706588789820671, -0.02980821020901203,
      -0.03467325493693352,    0.016629545018076897,  -0.03730075806379318,
      -0.02470635436475277,    -0.008175425231456757, 0.039546284824609756,
      -0.02432946115732193},

     {-0.007638102397322655, -0.004672832787036896, 0.00565513176843524,
      0.006862012203782797,  -0.036763209849596024, 0.013234829530119896,
      -0.00644772220402956,  -0.019792668521404266, -0.04053951054811478,
      0.004176220390945673,  -0.07959838211536407,  -0.03451648727059364,
      0.043252330273389816,  0.0017486362485215068, -0.015586218796670437,
      -0.09273745864629745,  -0.004763528238981962, 0.007360374554991722,
      0.010861128568649292,  -0.016822734847664833, 0.0037220194935798645,
      0.04821553826332092,   0.002250956604257226,  -0.009388482198119164,
      -0.013074194081127644},

     {-0.015319748781621456, 0.04753946140408516,   0.017581811174750328,
      0.04804346710443497,   0.020750276744365692,  0.000993110821582377,
      -0.02859310619533062,  -0.007510384079068899, 0.028008027002215385,
      0.018634671345353127,  0.04000425338745117,   -0.014482898637652397,
      -0.027353757992386818, -0.03634532168507576,  -0.036905355751514435,
      -0.015913402661681175, -0.03723177686333656,  -0.007053271867334843,
      -0.05488715320825577,  -0.05612434446811676,  0.029969457536935806,
      0.0109860235825181,    -0.00929595623165369,  -0.029710236936807632,
      -0.018918674439191818},

     {-0.0033971453085541725, -0.012064510025084019, 0.038468051701784134,
      -0.03961827978491783,   0.002658543409779668,  -0.005473206751048565,
      -0.031679172068834305,  -0.0179244726896286,   0.016113953664898872,
      -0.01750897243618965,   -0.06509626656770706,  -0.04824063181877136,
      -0.01662401482462883,   -0.03763464465737343,  0.0028365403413772583,
      -0.07366479933261871,   -0.039233144372701645, -0.0446932315826416,
      -0.10092609375715256,   -0.06435191631317139,  -0.08072947710752487,
      0.025856319814920425,   -0.02079916186630726,  0.024051763117313385,
      0.023332372307777405},

     {-0.020048994570970535, -0.007931089960038662, -0.0530678853392601,
      -0.02258368767797947,  -0.052360307425260544, -0.01584799773991108,
      -0.07245182245969772,  0.031017443165183067,  -0.023228047415614128,
      -0.04325888305902481,  -0.005468083079904318, -0.005656672641634941,
      -0.01616842858493328,  -0.05650273337960243,  -0.028311269357800484,
      -0.047423604875802994, -0.03758270666003227,  -0.04033690318465233,
      -0.08412609994411469,  -0.03467622399330139,  -6.973968083912041e-06,
      0.02459421008825302,   0.03210005909204483,   -0.0227887574583292,
      0.003995951730757952},

     {0.04757411405444145,   -0.00030495025566779077, -0.011329944245517254,
      -0.011357374489307404, 0.0035825162194669247,   -0.0028761045541614294,
      -0.01543570775538683,  0.014299246482551098,    -0.0026071867905557156,
      0.001159194391220808,  0.015101696364581585,    0.022921007126569748,
      0.020336946472525597,  0.007697444409132004,    0.03096015378832817,
      -0.026495371013879776, 0.010396095924079418,    -0.01742248423397541,
      0.004705406259745359,  -0.0022998061031103134,  -0.0012272153981029987,
      0.03287671133875847,   0.0008809365681372583,   0.015669969841837883,
      0.007833592593669891},

     {-0.03575345128774643,   -0.021331731230020523, -0.03454630449414253,
      0.014316103421151638,   0.0015073976246640086, -0.024633169174194336,
      -0.03373672813177109,   -0.05509910359978676,  -0.03815313056111336,
      0.023847617208957672,   -0.030544303357601166, -0.05114077776670456,
      0.028507661074399948,   -0.0368974469602108,   -0.006484239362180233,
      -0.027988765388727188,  0.02978188917040825,   0.03899163007736206,
      -0.0028291151393204927, 0.01899622194468975,   -0.030945781618356705,
      0.008096620440483093,   0.023872725665569305,  0.0013013967545703053,
      -0.023341601714491844},

     {0.007406462915241718,   0.03219471126794815,   0.009151879698038101,
      -0.0037385497707873583, -0.017294086515903473, 0.044123027473688126,
      -0.0330025814473629,    0.014292184263467789,  -0.027331899851560593,
      -0.030798180028796196,  0.019779106602072716,  0.015497077256441116,
      -0.0562254935503006,    -0.024569611996412277, -0.019096363335847855,
      0.024928919970989227,   -0.03635818511247635,  -0.012323452159762383,
      0.0265895277261734,     -0.04080832377076149,  -0.01547747291624546,
      0.0015752839390188456,  0.0150633929297328,    -0.020211756229400635,
      -0.03746279329061508},

     {0.02533096820116043,   0.009183296002447605,  -0.018468979746103287,
      -0.03146747499704361,  0.002776897745206952,  -0.026324450969696045,
      0.019309254363179207,  0.0026055644266307354, -0.03414147347211838,
      0.01254749670624733,   -0.015238952822983265, -0.019230416044592857,
      0.03484073281288147,   -0.018914004787802696, 0.03851332515478134,
      -0.004823215771466494, -0.009487691335380077, 0.00991050899028778,
      0.04189256206154823,   -0.020726537331938744, -0.007066221907734871,
      -0.017774637788534164, -0.00709280651062727,  0.023179123178124428,
      -0.022053277119994164},

     {0.026863258332014084,   0.034612733870744705,  0.03432081639766693,
      -0.0055594174191355705, 0.019709507003426552,  0.011721134185791016,
      -0.03507345914840698,   -0.04386916011571884,  0.004264153074473143,
      0.05566112697124481,    0.05908777937293053,   0.009674536064267159,
      -0.013031150214374065,  0.016665779054164886,  0.033310454338788986,
      0.05278465896844864,    -0.04060559719800949,  -0.03527110442519188,
      -0.0780385211110115,    0.013315564021468163,  0.020747778937220573,
      -0.03654782846570015,   -0.029910726472735405, -0.022715160623192787,
      0.003489030059427023},

     {0.0033388102892786264, -0.05840286612510681,  -0.035947758704423904,
      -0.04764639213681221,  -0.003925784025341272, 0.006807301659137011,
      -0.04898548871278763,  -0.08440029621124268,  -0.022546743974089622,
      -0.05657699331641197,  -0.023336809128522873, -0.0568905808031559,
      -0.10400265455245972,  -0.054206766188144684, -0.061329759657382965,
      -0.04930039867758751,  -0.07825738936662674,  -0.1047232374548912,
      0.004580600652843714,  -0.05327964574098587,  0.018433449789881706,
      0.03812861815094948,   -0.09336784482002258,  -0.0800916850566864,
      -0.08760977536439896},

     {0.007223207503557205,  0.05308724194765091,   -0.016750093549489975,
      -0.025480788201093674, 0.030398035421967506,  -0.009787713177502155,
      0.002612392883747816,  0.034507859498262405,  -0.020526399835944176,
      -0.012876707129180431, 0.046439673751592636,  0.0015841982094570994,
      0.025833433493971825,  0.03467449173331261,   -0.004097915254533291,
      0.015758903697133064,  0.018596431240439415,  -0.00798342190682888,
      0.002349189016968012,  -0.036739807575941086, -0.026231469586491585,
      0.016049737110733986,  0.03938443586230278,   0.03687706217169762,
      -0.04931921884417534},

     {-0.04020864889025688,  -0.030958643183112144, 0.0013035390293225646,
      -0.03006000630557537,  0.031701263040304184,  0.005350866355001926,
      -0.012412689626216888, -0.003775710705667734, 0.0036014521028846502,
      -0.007584451697766781, 0.06131064519286156,   0.01738760806620121,
      -0.025302626192569733, -0.009431811049580574, -0.01190633699297905,
      0.06803596019744873,   0.021304920315742493,  -0.05538163334131241,
      -0.025393666699528694, -0.000997200608253479, 0.02537389285862446,
      -0.045562196522951126, 0.005279472563415766,  -0.01606806367635727,
      0.02053459733724594},

     {0.007024452090263367,  0.031865328550338745,   0.04414091631770134,
      -0.06237413361668587,  0.014907517470419407,   -0.0011332680005580187,
      0.006994558498263359,  -0.0026072748005390167, -0.03302352875471115,
      0.02250361442565918,   -0.10804985463619232,   -0.05925826355814934,
      0.025350142270326614,  0.016510527580976486,   0.008399263955652714,
      7.58761161705479e-05,  0.0014722766354680061,  -0.022883985191583633,
      -0.029693692922592163, 0.014854919165372849,   -0.0008685027132742107,
      -0.05019253492355347,  -0.0008964923908933997, -0.0003870529180858284,
      -0.0007706295000389218},

     {0.018840249627828598,  -0.007321248296648264, 0.02707265317440033,
      -0.034227486699819565, 0.012645907700061798,  0.03054422326385975,
      -0.027013134211301804, 0.04107952490448952,   0.025188596919178963,
      -0.04099283367395401,  -0.03155921772122383,  -0.03159191459417343,
      -0.02514500543475151,  0.006575264502316713,  0.02824486419558525,
      0.027681484818458557,  -0.03994248807430267,  -0.030932003632187843,
      -0.025865809991955757, 0.01792433299124241,   0.0012473379028961062,
      -0.003359848400577903, -0.03971264511346817,  -0.0037872151006013155,
      -0.02286316268146038},

     {-0.06272906810045242,  -0.058048706501722336, 0.011525286361575127,
      0.013413483276963234,  0.016030114144086838,  -0.08969295769929886,
      0.0013479386689141393, 0.008563440293073654,  -0.02186010219156742,
      0.007219297345727682,  -0.023519517853856087, 0.00885214563459158,
      0.04104429855942726,   0.02372625656425953,   -0.030824488028883934,
      -0.008609195239841938, -0.04820882901549339,  -0.008893139660358429,
      0.0024762111715972424, 0.03808685392141342,   0.012552065774798393,
      -0.01946273073554039,  -0.021678771823644638, -0.0026486713904887438,
      0.026140224188566208},

     {0.04370475187897682,   -0.04257635772228241,  -0.020725149661302567,
      -0.03323422744870186,  0.06663823872804642,   -0.01847998984158039,
      -0.011533099226653576, -0.011100678704679012, 0.003227133536711335,
      -0.007133800070732832, 0.058714475482702255,  0.020109856501221657,
      0.044506996870040894,  0.04353143274784088,   -0.04833340272307396,
      0.012214033864438534,  -0.003077688394114375, 0.032176073640584946,
      -0.014842530712485313, -0.057101771235466,    -0.030081000179052353,
      0.05302666872739792,   -0.01457912940531969,  0.0032329773530364037,
      -0.012719463557004929}},

    {{-0.03401368483901024,  0.004317268263548613,  0.00043397420085966587,
      0.04205326735973358,   -0.01007790956646204,  0.015483241528272629,
      -0.03997847065329552,  -0.016507688909769058, -0.022975439205765724,
      0.024821411818265915,  0.046321023255586624,  0.008154386654496193,
      -0.01114648673683405,  0.023320192471146584,  0.020250093191862106,
      0.0647435262799263,    -0.017452893778681755, -0.04549847170710564,
      -0.030646441504359245, 0.008666752837598324,  0.07843474298715591,
      0.028606349602341652,  -0.04221680760383606,  -0.007394505199044943,
      -0.012563050724565983},

     {-0.014004286378622055, -0.01395503431558609,  0.039940040558576584,
      0.01890634372830391,   -0.013644025661051273, -0.020973555743694305,
      0.010092582553625107,  0.001307754428125918,  -0.0179170873016119,
      -0.023168984800577164, -0.02306479588150978,  0.007073432672768831,
      -0.02523024007678032,  -0.02955116331577301,  -0.018943915143609047,
      0.01729491539299488,   -0.019466109573841095, -0.0039069680497050285,
      0.01455892063677311,   -0.049708154052495956, 0.003466584486886859,
      0.02599930576980114,   -0.03166443854570389,  0.011449331417679787,
      -0.032513998448848724},

     {-0.00021270800789352506, 0.05361359938979149,    0.05002845078706741,
      0.04506834223866463,     0.023065170273184776,   -0.02082124724984169,
      -0.008388127200305462,   -0.0020224610343575478, 0.02794647216796875,
      -0.005828426219522953,   -0.009253466501832008,  -0.009880417957901955,
      0.006499440409243107,    0.06358630955219269,    -0.054568562656641006,
      0.0005353959859348834,   -0.06114821135997772,   0.01791977323591709,
      -0.00953192450106144,    -0.03945297747850418,   0.06508681178092957,
      -0.0133427195250988,     -0.04466051980853081,   -0.027486760169267654,
      -0.005130160134285688},

     {-0.0007940872455947101, -0.01768561825156212,  0.03555745258927345,
      0.02766646258533001,    0.02310893125832081,   0.034314338117837906,
      0.022781530395150185,   0.04560990259051323,   -0.05800287052989006,
      -0.02222066931426525,   0.0033603564370423555, -0.014566434547305107,
      -0.010031118988990784,  -0.008152462542057037, 0.028595199808478355,
      0.019581831991672516,   -0.04299969971179962,  -0.0024617156013846397,
      -0.022449126467108727,  0.04118020460009575,   -0.0025393471587449312,
      -0.05273372307419777,   -0.033823564648628235, 0.0327473022043705,
      0.04300117492675781},

     {0.04201451689004898,   0.03345311060547829,   0.026940511539578438,
      -0.004693493712693453, -0.006286425516009331, -0.10162218660116196,
      0.02719825878739357,   0.0008633427205495536, -0.026380784809589386,
      0.0016964128008112311, -0.013041369616985321, -0.08961156755685806,
      0.008510121144354343,  -0.09150021523237228,  -0.03690293803811073,
      0.0022102519869804382, 0.03317106142640114,   -0.025336259976029396,
      0.03751227259635925,   -0.03409406170248985,  -0.026986902579665184,
      0.024372104555368423,  -0.015577920712530613, 0.10514761507511139,
      -0.045707523822784424},

     {0.013343095779418945,  0.03795062378048897,   0.013477428816258907,
      0.015039262361824512,  -0.033381056040525436, 0.01951533555984497,
      -0.014463583938777447, -0.027360448613762856, 0.003098361659795046,
      -0.018494319170713425, 0.040479548275470734,  0.0235479474067688,
      -0.003928728401660919, -0.011549859307706356, -0.018287906423211098,
      -0.02499750256538391,  -0.021941056475043297, -0.026051335036754608,
      -0.03270871192216873,  -0.011664191260933876, -0.0195353701710701,
      0.011570164002478123,  -0.007922803051769733, -0.008523720316588879,
      -0.02948380447924137},

     {0.024942981079220772,   -0.038079310208559036,  -0.018241746351122856,
      -0.0031403466127812862, -0.005932470317929983,  0.05529506504535675,
      -2.324385422980413e-05, -0.0003461256856098771, -0.004013043362647295,
      0.011046726256608963,   0.07797650247812271,    -0.020883165299892426,
      -0.029020100831985474,  0.014314385131001472,   -0.017336701974272728,
      0.06255347281694412,    0.012291902676224709,   0.028281427919864655,
      -0.05537670478224754,   -0.00561667000874877,   -0.0005298795877024531,
      0.006328787188977003,   0.03633005544543266,    -0.05105113983154297,
      -0.02668892778456211},

     {0.016664577648043633,  -0.009717956185340881, -0.04285408928990364,
      -0.016696445643901825, 0.005934918764978647,  -0.06483524292707443,
      -0.046331390738487244, 0.002676610602065921,  -0.013284159824252129,
      0.03545055538415909,   -0.04339137300848961,  -0.02511601336300373,
      -0.048213884234428406, 0.01876348815858364,   -0.03241734951734543,
      -0.0566730834543705,   -0.02363753877580166,  -0.016440603882074356,
      -0.033454183489084244, -0.04129303619265556,  0.003159324172884226,
      -0.009114356711506844, 0.047189246863126755,  -0.010038311593234539,
      -0.015162966214120388},

     {-0.003051112173125148, 0.011477479711174965,  -0.02125071920454502,
      0.030824361369013786,  -0.014293761923909187, 0.01629696972668171,
      0.027966715395450592,  0.08422040939331055,   -0.0009976007277145982,
      0.026641175150871277,  -0.023578820750117302, -0.03175891935825348,
      0.01971106044948101,   0.03916267305612564,   0.000992819550447166,
      -0.06635060161352158,  -0.002498410176485777, 0.03799993544816971,
      0.06003337353467941,   0.0729459822177887,    -0.06831983476877213,
      -0.026811636984348297, 0.008629143238067627,  -0.04400990158319473,
      0.034025393426418304},

     {-0.007916300557553768,  -0.02254590205848217,  -0.024963190779089928,
      -0.000876058591529727,  -0.024458155035972595, -0.012883264571428299,
      0.03347684070467949,    -0.034607455134391785, 0.015514769591391087,
      0.025058550760149956,   0.044011183083057404,  -0.004919841885566711,
      0.02561797946691513,    0.03012896701693535,   -0.01847953535616398,
      -0.0030562258325517178, 0.024117395281791687,  0.030576225370168686,
      -0.004711668938398361,  0.007477262057363987,  0.04636995866894722,
      0.0014359991764649749,  -0.01999499648809433,  -0.018490660935640335,
      0.02179819345474243},

     {0.001049103564582765,  0.009948660619556904,  -0.030101848766207695,
      0.020868197083473206,  -0.008797379210591316, -0.05243033915758133,
      0.01684974692761898,   -0.007544577121734619, 0.026315106078982353,
      0.02675366960465908,   -0.05355163663625717,  0.0041436185128986835,
      0.025891847908496857,  0.04714670777320862,   -0.011294487863779068,
      -0.010473372414708138, 0.032815299928188324,  -0.0032838673796504736,
      0.04922943562269211,   -0.008266167715191841, 0.01115984097123146,
      0.03237159550189972,   0.038318902254104614,  0.021963732317090034,
      -0.013686233200132847},

     {-0.002074575750157237, 0.036749500781297684,  -0.03191391006112099,
      -0.03159837797284126,  -0.043630700558423996, -0.0714634582400322,
      -0.062241509556770325, -0.06078066676855087,  -0.06428493559360504,
      -0.04316375032067299,  -0.06804723292589188,  -0.026893068104982376,
      -0.08089505136013031,  -0.06533210724592209,  -0.05077455937862396,
      -0.019880887120962143, -0.08028274029493332,  -0.04831801354885101,
      -0.05321726202964783,  -0.009111172519624233, 0.04981167986989021,
      -0.0069218291901052,   -0.020757660269737244, -0.030596349388360977,
      -0.09455439448356628},

     {0.012499329634010792,  0.016755729913711548,  -0.014364697970449924,
      0.013024386018514633,  -0.007256829179823399, -0.002460469026118517,
      0.030760454013943672,  0.025684498250484467,  -0.02450983040034771,
      0.027343465015292168,  -0.030235880985856056, -2.4703123926883563e-05,
      -0.014561979100108147, 0.0018193286377936602, 0.009325559251010418,
      -0.03789849579334259,  0.04197956621646881,   0.02631802298128605,
      -0.035837240517139435, -0.014674338512122631, 0.008061844855546951,
      0.051517851650714874,  0.010115722194314003,  -0.04315442591905594,
      0.001984317321330309},

     {0.05029931291937828,   -0.031490508466959,    0.004990589804947376,
      0.022888995707035065,  -0.016988348215818405, 0.06302863359451294,
      0.006954895798116922,  0.024529917165637016,  -0.0009600521298125386,
      0.006561563350260258,  0.05712816119194031,   0.021258609369397163,
      -0.04567486792802811,  -0.030250582844018936, -0.02444784715771675,
      0.0007231243653222919, -0.04027160629630089,  -0.07309428602457047,
      -0.03030790016055107,  0.021606050431728363,  -0.008617939427495003,
      -0.028482899069786072, -0.0629909411072731,   -0.031388889998197556,
      0.038617007434368134},

     {-0.036560896784067154, 0.029822900891304016,   -0.003801581682637334,
      -0.01376846432685852,  -0.0008781065116636455, 0.027344996109604836,
      -0.013878562487661839, -0.013004487380385399,  0.016245082020759583,
      0.01128850132226944,   -0.011300959624350071,  0.0011888649314641953,
      0.04573461413383484,   -0.0024671980645507574, -0.0002984823368024081,
      0.000953064882196486,  -0.006555355153977871,  0.01600046642124653,
      0.026715191081166267,  -0.022685321047902107,  0.002590649062767625,
      -0.04273901507258415,  -0.01301606371998787,   -0.010045039467513561,
      0.025712301954627037},

     {0.004502929747104645,  0.03926563262939453,   -0.031591977924108505,
      -0.005159338470548391, -0.04893064871430397,  0.015999849885702133,
      0.0009060826268978417, -0.011107103899121284, -0.015256556682288647,
      0.005103321745991707,  0.031800657510757446,  -0.004492101259529591,
      0.0016266844468191266, 0.02266854979097843,   0.01960022747516632,
      -0.025194188579916954, 0.03247318044304848,   -0.017976904287934303,
      -0.010760558769106865, 0.03140943869948387,   -0.005141332279890776,
      0.036788083612918854,  -0.023381775245070457, 0.011824355460703373,
      0.04341767728328705},

     {0.02649974450469017,   -0.014234740287065506,  0.02929295040667057,
      0.027374858036637306,  -0.007689408026635647,  0.03884803131222725,
      -0.026010621339082718, -0.0056646643206477165, 0.018323898315429688,
      -0.02615503966808319,  0.04068957269191742,    -0.03352220728993416,
      -0.01402483694255352,  -0.0024186489172279835, 0.015400455333292484,
      0.006555711850523949,  -0.054693322628736496,  0.013316540978848934,
      -0.011983044445514679, -0.016460923478007317,  -0.00890346523374319,
      -0.018803393468260765, -0.011368407867848873,  -0.010021739639341831,
      0.021611550822854042},

     {0.03847496584057808,   0.026515483856201172,   0.029790282249450684,
      -0.008903221227228642, 0.010285002179443836,   0.025406114757061005,
      0.004988368600606918,  0.004078501369804144,   0.009519079700112343,
      -0.018651409074664116, 0.0019170307787135243,  -0.001250885659828782,
      0.009656128473579884,  -0.03339921310544014,   0.009454455226659775,
      -0.019976865500211716, -0.0008255662978626788, -0.018558429554104805,
      -0.03198671713471413,  -0.058830417692661285,  -0.014738849364221096,
      -0.020365035161376,    0.026693644002079964,   0.00905415415763855,
      -0.03802919015288353},

     {0.023565221577882767,  0.017000535503029823,   0.024428488686680794,
      0.029364734888076782,  -0.0006464124307967722, 0.020331038162112236,
      0.016486547887325287,  0.03417534753680229,    -0.03792228549718857,
      -0.017007822170853615, -0.05160767585039139,   -0.0022814334370195866,
      -0.009181780740618706, 0.03726973757147789,    0.019755808636546135,
      -0.014951777644455433, 0.002327563939616084,   0.048849985003471375,
      -0.00838378630578518,  0.06799570471048355,    -0.0037251743488013744,
      0.028659291565418243,  -0.02291755937039852,   -0.060166675597429276,
      -0.03199317678809166},

     {-0.00834745168685913,    0.002290713135153055,  0.00509128300473094,
      0.013366440311074257,    -0.03482551500201225,  0.04596353694796562,
      0.02695002406835556,     -0.041930295526981354, 0.007686640601605177,
      -0.09766491502523422,    0.029841164126992226,  0.030034387484192848,
      -0.023097451776266098,   -0.04210033640265465,  -0.04454360529780388,
      -0.01645801030099392,    0.0005785743705928326, -0.021777380257844925,
      -0.00016062776558101177, -0.04716159403324127,  -0.04229366406798363,
      -0.0552155040204525,     -0.10964112728834152,  0.04210442677140236,
      0.02701125107705593},

     {-0.03951319307088852,   0.002585306530818343,  0.002865036716684699,
      0.02189064584672451,    -0.03128345310688019,  -0.0564207099378109,
      0.007601923309266567,   0.019636055454611778,  0.028717339038848877,
      0.006112503819167614,   0.011258549056947231,  -0.012233126908540726,
      0.004368246998637915,   -0.006258785258978605, 0.0292190108448267,
      -0.023546559736132622,  -0.024856939911842346, -0.003006592858582735,
      -0.0005488360766321421, -0.026065316051244736, -0.006947824265807867,
      -0.01087559387087822,   0.01542764063924551,   -0.0020612054504454136,
      -0.005317061208188534},

     {0.00822242721915245,   0.003102941671386361,  -0.005598036572337151,
      0.013999812304973602,  0.031189782544970512,  0.01346113532781601,
      -0.05440443381667137,  0.008057317696511745,  0.01727132499217987,
      0.010683213360607624,  -0.025761449709534645, -0.008249880746006966,
      -0.032951146364212036, -0.005322929937392473, 0.014604529365897179,
      -0.032092444598674774, 0.007881402038037777,  -0.03824206441640854,
      -0.036986205726861954, -0.044420793652534485, 0.0007113206083886325,
      0.045480161905288696,  0.00420353701338172,   0.004228854551911354,
      0.0028495527803897858},

     {-0.015333735384047031, -0.02599019929766655, -0.028139811009168625,
      -0.039963074028491974, -0.07769814878702164, 0.03875217214226723,
      -0.024745753034949303, 0.026516733691096306, -0.0072898403741419315,
      -0.015383359976112843, 0.02006242424249649,  0.003803542349487543,
      -0.008702952414751053, 0.02244635298848152,  -0.010178654454648495,
      0.0409296378493309,    0.02651967480778694,  0.02690553106367588,
      -0.034498706459999084, -0.05061613768339157, -0.015899579972028732,
      -0.007871747948229313, -0.04290672391653061, -0.04154634475708008,
      0.017825184389948845},

     {0.03296946361660957,   -0.049687083810567856, -0.011092082597315311,
      0.019652152433991432,  -0.008068187162280083, -0.020623061805963516,
      -0.03203465789556503,  -0.03236401453614235,  0.017918214201927185,
      -0.005365830846130848, -0.020366914570331573, 0.03795502707362175,
      -0.012032672762870789, 0.01647718995809555,   0.010196379385888577,
      0.04297185316681862,   0.043386586010456085,  0.017593003809452057,
      0.005196758080273867,  0.013611339963972569,  -0.017591165378689766,
      0.024814782664179802,  0.0051216864958405495, 0.023120859637856483,
      -0.010761251673102379},

     {0.049556273967027664,  0.006865215953439474,  0.04441463202238083,
      0.0034604868851602077, 0.008256523869931698,  -0.046686433255672455,
      0.029820872470736504,  0.07151469588279724,   0.012862597592175007,
      0.02476915344595909,   -0.014474453404545784, -0.02818663977086544,
      -0.012905124574899673, 0.016596339643001556,  -0.05081954225897789,
      -0.057249221950769424, -0.025671789422631264, -0.006224812474101782,
      0.030450081452727318,  -0.0101883914321661,   -0.053364239633083344,
      0.030223192647099495,  0.0607832670211792,    0.00016036290617194027,
      -0.05323571711778641},

     {0.002517280401661992,  -0.01210834737867117,  -0.06954766064882278,
      -0.021646808832883835, 0.012611914426088333,  0.008997284807264805,
      0.04795471951365471,   -0.09188064187765121,  -0.02282077446579933,
      0.01174836978316307,   0.08269106596708298,   0.06728959083557129,
      -0.11086498945951462,  0.003482140600681305,  -0.03237896040081978,
      0.016597675159573555,  -0.024147415533661842, -0.09851188212633133,
      -0.04024796560406685,  -0.03867312893271446,  -0.02433236874639988,
      -0.024816803634166718, 0.015656813979148865,  -0.05040649324655533,
      0.05477133393287659},

     {-0.008330456912517548, -0.027862830087542534,  -0.016789093613624573,
      0.03390763700008392,   0.012544669210910797,   0.0040323687717318535,
      -0.03061659261584282,  0.002462909324094653,   -0.0030789622105658054,
      0.002661553444340825,  0.023005539551377296,   0.03843867778778076,
      -0.00827059242874384,  -0.022223256528377533,  -0.017762213945388794,
      0.018173184245824814,  0.003457542508840561,   0.004383941181004047,
      -0.006562650669366121, -0.037631090730428696,  0.025416215881705284,
      0.015012724325060844,  -0.0006289437296800315, -0.04239390417933464,
      -0.030698833987116814},

     {0.014252767898142338,  0.045423492789268494, 0.06643141061067581,
      -0.013961117714643478, -0.02030489221215248, 0.06621213257312775,
      0.07131974399089813,   0.015203706920146942, 0.02850392460823059,
      -0.02354421280324459,  -0.04405173286795616, -0.00143436377402395,
      -0.009663907811045647, 0.017259160056710243, -0.009974842891097069,
      -0.06341966241598129,  -0.05962236598134041, 0.004531364422291517,
      0.03423289209604263,   -0.04441461339592934, -0.06296888738870621,
      0.01935700699687004,   0.007319661322981119, -0.009774761274456978,
      -0.025127921253442764},

     {-0.05479561910033226,   -0.06699002534151077,  0.03177465498447418,
      0.06194004416465759,    0.004509604535996914,  -0.013290023431181908,
      0.029016802087426186,   0.008799378760159016,  -0.002891016425564885,
      0.03136303648352623,    -0.05049828439950943,  -0.0007126927957870066,
      -0.0033104768954217434, -0.04085727408528328,  -0.01621197536587715,
      -0.0027328627184033394, -0.008575381711125374, -0.004026118200272322,
      0.04253261536359787,    0.022354353219270706,  -0.032926786690950394,
      0.035393014550209045,   0.0013587529538199306, 0.00019889703253284097,
      -0.0351414754986763},

     {0.00823297630995512,   0.025578832253813744, 0.03578295186161995,
      -0.020965347066521645, 0.011119753122329712, 0.020271344110369682,
      0.008235415443778038,  0.02766265720129013,  0.014954005368053913,
      0.020933043211698532,  0.04407820478081703,  0.026408294215798378,
      0.03242383524775505,   0.006428027991205454, 0.016972536221146584,
      0.020783571526408195,  0.002880430081859231, 0.022411653771996498,
      -0.015593067742884159, 0.003724314970895648, 0.015034020878374577,
      0.013685519807040691,  0.02904270775616169,  0.029328400269150734,
      0.002241720911115408},

     {0.0018578043673187494, 0.036193013191223145,   -0.0012445708271116018,
      -0.010078732855618,    0.042631033807992935,   0.037236738950014114,
      -0.018740544095635414, -0.01294335164129734,   0.023726217448711395,
      0.07358852028846741,   -0.03275926038622856,   -0.0035461988300085068,
      -0.012414832599461079, -0.0304078571498394,    0.03448226675391197,
      -0.0362347774207592,   0.017257830128073692,   0.01988714002072811,
