#ifndef WEIGHT2_H_
#define WEIGHT2_H_

ap_fixed<8, 1> WEIGHT2[32][16][25] = {
    {{-0.004529186524450779, -0.01276317983865738,  0.016467265784740448,
      -0.009945591911673546, 0.033109020441770554,  0.013798694126307964,
      0.016988681629300117,  -0.01581393927335739,  0.05025559663772583,
      -0.03555942326784134,  0.0131923733279109,    0.07841721177101135,
      -0.02385593205690384,  0.03835202008485794,   -0.02159491553902626,
      0.07026570290327072,   0.061449989676475525,  0.05773868039250374,
      -0.041373081505298615, -0.041475292295217514, 0.06974119693040848,
      0.011782944202423096,  0.07384052127599716,   -0.015734802931547165,
      -0.015833867713809013},

     {0.08729452639818192,   0.055000435560941696, -0.03289763629436493,
      -0.08914102613925934,  -0.0819791629910469,  -0.02348572388291359,
      -0.045656654983758926, 0.004977781791239977, -0.10955847054719925,
      -0.04316732659935951,  0.004054657183587551, -0.01386997103691101,
      -0.04731953516602516,  -0.03378906846046448, -0.042294446378946304,
      0.0046698530204594135, 0.03002333641052246,  -0.053098663687705994,
      -0.03928510099649429,  -0.03887806087732315, -0.0024626762606203556,
      0.005017717368900776,  0.03936605527997017,  -0.02105063572525978,
      0.017830191180109978},

     {0.026871902868151665,  0.04861003905534744,   -0.028716711327433586,
      0.024613289162516594,  0.036491136997938156,  -6.883477180963382e-05,
      -0.00554077560082078,  -0.017620351165533066, -0.03221198916435242,
      -0.01196223497390747,  0.030608180910348892,  0.033290550112724304,
      -0.02325723133981228,  -0.03905120864510536,  -0.023251032456755638,
      0.0629829689860344,    0.017537634819746017,  -0.025224387645721436,
      -0.045680493116378784, 0.03446328639984131,   -0.020213128998875618,
      0.017028069123625755,  -0.016363168135285378, -0.003710842225700617,
      -0.03323637321591377},

     {-0.05530339479446411,  -0.002825547009706497, -0.025892265141010284,
      0.014725553803145885,  0.06976442784070969,   -0.04381251707673073,
      -0.02569168619811535,  -0.019742542877793312, -0.026828164234757423,
      0.03665100410580635,   -0.008679534308612347, 0.010556112043559551,
      0.02489675208926201,   0.04511168599128723,   0.036922041326761246,
      0.047812532633543015,  -0.03167460113763809,  -0.029507825151085854,
      -0.019956272095441818, 0.032284047454595566,  0.017574984580278397,
      -0.032260581851005554, 0.055374424904584885,  0.03941996768116951,
      0.04460525140166283},

     {0.059768397361040115, 0.08471763134002686,   0.059757050126791,
      -0.02441980130970478, 0.002205622149631381,  0.041764866560697556,
      0.09364506602287292,  0.08756104856729507,   0.039309751242399216,
      0.02106277458369732,  -0.007784353569149971, 0.023549802601337433,
      0.020575053989887238, 0.10279688984155655,   0.04828401654958725,
      0.018200647085905075, 0.04881414771080017,   0.057894956320524216,
      0.07118672132492065,  -0.010687781497836113, 0.01918622851371765,
      0.02391183003783226,  -0.03363672271370888,  -0.06846912205219269,
      -0.015091185458004475},

     {-0.08828981965780258,  -0.04541708156466484,  -0.01966596581041813,
      -0.04379087686538696,  0.04017863795161247,   -0.046416785567998886,
      0.007478075101971626,  -0.010764876380562782, 0.037771712988615036,
      -0.01590021327137947,  -0.029174266383051872, -0.009721227921545506,
      0.027958543971180916,  0.013729048892855644,  0.06255616247653961,
      -0.050653666257858276, -0.014928975142538548, -0.05394690856337547,
      0.017371997237205505,  0.05126873031258583,   -0.043615806847810745,
      0.04888659343123436,   0.013020900078117847,  0.018639447167515755,
      0.04787664860486984},

     {0.03469189256429672,   -0.035284437239170074, -0.011414825916290283,
      -0.009982357732951641, 0.04230024665594101,   -0.036815088242292404,
      0.017639469355344772,  0.02661757543683052,   -0.04286514222621918,
      0.029082898050546646,  -0.03290047124028206,  -0.008970570750534534,
      -0.019753606989979744, -0.03373311460018158,  0.027168909087777138,
      -0.004085993394255638, 0.04936310276389122,   -0.048093825578689575,
      -0.023026293143630028, -0.009778515435755253, 0.024204034358263016,
      0.043937474489212036,  0.015245129354298115,  -0.0453806035220623,
      -0.021377738565206528},

     {0.005803791340440512,  -0.011319076642394066, 0.02908884733915329,
      0.036969006061553955,  0.01082749292254448,   0.0017597287660464644,
      0.06101922318339348,   -0.04545219615101814,  -0.016277801245450974,
      0.04251847416162491,   0.05378773808479309,   0.0030956161208450794,
      -0.007251318544149399, 0.021228346973657608,  -0.0201859213411808,
      0.0659150779247284,    0.022799566388130188,  0.02846609801054001,
      0.01298120804131031,   -0.011501562781631947, -0.01383268553763628,
      0.06104665994644165,   0.00458570197224617,   0.06032640114426613,
      -0.022795412689447403},

     {-0.008101597428321838, 0.018458623439073563,   0.054769862443208694,
      -0.04437483474612236,  -0.11669380217790604,   0.017177987843751907,
      0.10279598832130432,   0.07734047621488571,    -0.06324438750743866,
      -0.04673830047249794,  -0.0029483968392014503, 0.09114400297403336,
      0.053356315940618515,  -0.0059611196629703045, -0.028480101376771927,
      0.07477369904518127,   0.005665347445756197,   0.08154843747615814,
      -0.02857738360762596,  -0.012242655269801617,  0.05242963507771492,
      0.04410070925951004,   0.08211959153413773,    0.038347672671079636,
      0.017572661861777306},

     {-0.05900292098522186,  -0.043481115251779556, -0.017499400302767754,
      -0.0196616742759943,   0.04304131865501404,   -0.0473761260509491,
      -0.04330716282129288,  -0.008233146741986275, 0.02230946347117424,
      0.07071000337600708,   -0.04202898591756821,  -0.04014172405004501,
      0.027360260486602783,  0.0633167251944542,    0.0004113664908800274,
      -0.03326176479458809,  0.03229400888085365,   0.012115293182432652,
      0.0058684078976511955, 0.058180972933769226,  -0.04771032556891441,
      0.01915040984749794,   0.027202721685171127,  0.0292770154774189,
      -5.721644356526667e-06},

     {-0.12736162543296814, -0.06240173056721687,  -0.017511125653982162,
      0.01757388934493065,  0.0076910057105124,    -0.1341041773557663,
      -0.10902690142393112, -0.019870208576321602, -0.04746381565928459,
      0.00999058410525322,  -0.07358341664075851,  0.005598057992756367,
      0.012035688385367393, -0.023771604523062706, -0.030723746865987778,
      -0.066403329372406,   -0.015748484060168266, -0.012176409363746643,
      -0.03727779909968376, 0.0010893824510276318, 0.014351585879921913,
      0.022817488759756088, 0.05470005050301552,   0.02615302987396717,
      0.02064032107591629},

     {0.025826288387179375, 0.028439518064260483,   -0.016428429633378983,
      0.03804986551403999,  -0.010065210983157158,  -0.01641790382564068,
      0.018968811258673668, -0.0029504692647606134, 0.04971671476960182,
      0.04238111898303032,  0.0222979336977005,     0.0468197800219059,
      0.013295907527208328, 0.07671680301427841,    -0.021614963188767433,
      0.06213753670454025,  -0.0014769574627280235, -0.025850394740700722,
      0.07592660933732986,  0.026074498891830444,   -0.01338251680135727,
      0.01436716690659523,  -0.037829842418432236,  0.050672587007284164,
      0.048557184636592865},

     {0.01693682000041008,  0.0050545125268399715, 0.02732347697019577,
      -0.03266677260398865, -0.029546475037932396, 2.4324464902747422e-05,
      0.007291522342711687, 0.03283659741282463,   -0.006771080195903778,
      0.012220349162817001, -0.02050698734819889,  -0.017520055174827576,
      0.015656013041734695, 0.015092816203832626,  -0.03211311250925064,
      0.028182992711663246, -0.03805311396718025,  0.036134880036115646,
      0.06721754372119904,  -0.01625702530145645,  0.033821288496255875,
      -0.01940646767616272, 0.0424485020339489,    0.03960401937365532,
      0.026530131697654724},

     {-0.06945675611495972,  0.0015629983972758055, -0.01372680626809597,
      -0.049382470548152924, -0.024706855416297913, -0.02628401480615139,
      0.02836887538433075,   -0.007721188943833113, 0.024192657321691513,
      0.022893285378813744,  0.02829957753419876,   -0.0003519262536428869,
      0.003643848467618227,  -0.03762514889240265,  0.007233446929603815,
      0.025661006569862366,  0.055305227637290955,  0.0005793803720735013,
      -0.055535122752189636, -0.008483867160975933, 0.02011362463235855,
      0.057985711842775345,  0.0045599061995744705, -0.05761771649122238,
      0.053109295666217804},

     {-0.03983017057180405, 0.01834142580628395,   0.026631545275449753,
      0.021937692537903786, -0.0576401986181736,   -0.01449285726994276,
      0.033408526331186295, 0.057225074619054794,  -0.011081630364060402,
      -0.06689031422138214, 0.020214013755321503,  -0.02306998334825039,
      0.04682132601737976,  0.047679219394922256,  -0.015970740467309952,
      0.024839768186211586, 0.06282519549131393,   0.06306283175945282,
      0.026737285777926445, -0.007591084111481905, 0.00447666784748435,
      0.07006335258483887,  0.0550723634660244,    0.049931589514017105,
      -0.020980950444936752},

     {-0.03766220435500145,  -0.02476484142243862,   0.031774792820215225,
      -0.04867841675877571,  -0.025506118312478065,  6.490222585853189e-05,
      -0.06669973582029343,  -0.04395730420947075,   -0.06242546811699867,
      -0.014896652661263943, -0.0021704870741814375, 0.01566043682396412,
      -0.044003650546073914, -0.03651203215122223,   -0.014849870465695858,
      -0.03296957165002823,  0.048003122210502625,   -0.03762507066130638,
      0.029386160895228386,  -0.014506134204566479,  -0.005152912810444832,
      0.0370781384408474,    -0.028437037020921707,  -0.01398130226880312,
      -0.021823057904839516}},

    {{0.008516866713762283,  0.03647499531507492,   0.031384050846099854,
      0.003805452724918723,  -0.053866878151893616, 0.003246541367843747,
      -0.02109239064157009,  0.04255935922265053,   0.014752690680325031,
      0.034669771790504456,  0.009671999141573906,  0.03302662819623947,
      0.0077308411709964275, 0.04367820546030998,   0.016980525106191635,
      -0.01642703451216221,  -0.01330872904509306,  0.04317041113972664,
      0.023645609617233276,  0.02398660220205784,   0.020747965201735497,
      -0.013863639906048775, 0.02105267532169819,   -0.037738002836704254,
      -0.024884318932890892},

     {-0.004867201671004295, 0.03731213137507439,   0.016761958599090576,
      0.06061612442135811,   0.06158402934670448,   -0.06218676269054413,
      0.033443644642829895,  0.059937916696071625,  0.0354001447558403,
      0.07568096369504929,   -0.045508019626140594, 0.027883607894182205,
      0.04055575281381607,   0.07362645864486694,   -0.03369652479887009,
      -0.04038350656628609,  -0.010690859518945217, 0.04296739026904106,
      0.02092638611793518,   -0.038905419409275055, 0.027176085859537125,
      0.025036228820681572,  -0.02041604556143284,  0.030053671449422836,
      0.047992169857025146},

     {0.01400482002645731,    -0.011440782807767391, 0.029058152809739113,
      -0.0017751312116160989, 0.034302838146686554,  -0.02915927767753601,
      -0.0445423386991024,    -0.009814953431487083, 0.013305705040693283,
      0.0395670011639595,     -0.008220510557293892, -0.006559597793966532,
      -0.03998059779405594,   -0.009701422415673733, 0.004640460945665836,
      -0.031763847917318344,  -0.037609249353408813, -0.036204610019922256,
      0.02688862755894661,    0.01933221146464348,   0.03157688304781914,
      0.016987785696983337,   0.009011981077492237,  0.012882646173238754,
      0.04231611266732216},

     {-0.03544158115983009,  -0.021262038499116898, 0.00527644157409668,
      0.029718177393078804,  -0.00440973648801446,  0.030494116246700287,
      0.00771354790776968,   0.05265910550951958,   0.03306393697857857,
      0.042314253747463226,  -0.02717522345483303,  0.05336601659655571,
      -0.020866356790065765, -0.007047560997307301, -0.0022838315926492214,
      -0.010040048509836197, 0.012221249751746655,  0.042892541736364365,
      -0.0372689887881279,   -0.006096657365560532, -0.018565595149993896,
      0.04930353909730911,   -0.002948507433757186, 0.04142928496003151,
      0.06066504865884781},

     {0.010359601117670536,  0.06313855201005936,   0.08294104784727097,
      0.014356552623212337,  -0.01689387671649456,  -0.04491954669356346,
      0.06710855662822723,   0.058142151683568954,  0.03345032408833504,
      -0.041548047214746475, -0.01815023086965084,  0.02800828404724598,
      0.028100432828068733,  0.06760689616203308,   0.057990483939647675,
      0.009237862192094326,  -0.020741617307066917, 0.053368669003248215,
      0.06268217414617538,   -0.009545035660266876, 0.014567085541784763,
      -0.007100153714418411, 0.08895176649093628,   -0.008213202469050884,
      0.018118474632501602},

     {0.012326661497354507,  -0.04404044896364212,  -0.032287098467350006,
      0.05203172191977501,   0.026056461036205292,  -0.03703056275844574,
      0.028837475925683975,  0.037666644901037216,  -0.007751247845590115,
      0.042513638734817505,  0.040661949664354324,  0.03239598497748375,
      -0.015215028077363968, 0.04638877511024475,   0.03959731012582779,
      -0.031484127044677734, -0.018191052600741386, 0.034663062542676926,
      0.01608654111623764,   0.0009836590616032481, 0.049184780567884445,
      0.02775035984814167,   0.010821781121194363,  0.028151260688900948,
      0.023143116384744644},

     {-0.04882853850722313,  0.052747733891010284,  0.010350647382438183,
      -0.045594315975904465, 0.03650462254881859,   -0.051207300275564194,
      0.029084544628858566,  -0.032702602446079254, 0.033571742475032806,
      0.005297672934830189,  -0.011876208707690239, -0.0005419530207291245,
      0.00528694037348032,   0.018527090549468994,  0.03765834867954254,
      0.0405426062643528,    0.0358293280005455,    0.06014878302812576,
      0.0366571769118309,    -0.023158367723226547, -0.03147883713245392,
      0.03322727233171463,   0.05910725146532059,   0.03491643816232681,
      0.058264028280973434},

     {-0.0006001584115438163, -0.028468821197748184, -0.0006794575019739568,
      -0.007728622294962406,  -0.012294689193367958, -0.02880164608359337,
      0.003393487073481083,   -0.03619861602783203,  0.010839053429663181,
      -0.031031372025609016,  0.03215407952666283,   -0.014341878704726696,
      0.03216148167848587,    -0.010005184449255466, -0.0347723551094532,
      0.01723642274737358,    -0.007069088984280825, 0.05737020820379257,
      -0.01250623818486929,   -0.0357481949031353,   0.03737332671880722,
      -0.02298162132501602,   0.0325147770345211,    0.014347824268043041,
      -0.010479421354830265},

     {0.03841676190495491,   -0.005760032217949629,  -0.021501583978533745,
      0.005104328040033579,  0.08820118010044098,    0.01560504175722599,
      0.029353462159633636,  -0.0008512464119121432, 0.03057561069726944,
      0.055396322160959244,  -0.007824319414794445,  0.025131696835160255,
      0.0039812191389501095, 0.035514529794454575,   -0.031452614814043045,
      0.06250615417957306,   0.05382116511464119,    0.0578433983027935,
      0.024239614605903625,  -0.009199756197631359,  0.06311818957328796,
      -0.00886087492108345,  -0.007487277965992689,  -0.018987581133842468,
      0.05826209485530853},

     {-0.042262930423021317, 0.04581320658326149,  0.06266497075557709,
      0.07377297431230545,   0.017440980300307274, 0.03614536672830582,
      -0.01576177403330803,  0.0332966186106205,   0.01308996882289648,
      0.01737302541732788,   0.010229051113128662, 0.05620415508747101,
      0.07368237525224686,   0.06500934064388275,  0.01702694222331047,
      -0.02936963178217411,  0.01904473453760147,  0.01823563501238823,
      0.007153671234846115,  0.044530805200338364, -0.010954314842820168,
      0.06926978379487991,   0.09201831370592117,  0.026094742119312286,
      0.036311957985162735},

     {-0.02968350052833557,  -0.05658973380923271,  -0.019185906276106834,
      0.000535974744707346,  0.07898347824811935,   0.021603325381875038,
      -0.0361052080988884,   -0.006218198221176863, 0.06484568119049072,
      0.024720776826143265,  0.02882349118590355,   -0.013087047263979912,
      -0.009423624724149704, 0.06935853511095047,   0.007033964153379202,
      0.02887987345457077,   -0.021565603092312813, 0.057384464889764786,
      -0.016388235613703728, -0.01832480914890766,  -0.0075774602591991425,
      0.009925903752446175,  0.02950248308479786,   -0.0022516928147524595,
      0.05995829030871391},

     {-0.03680729120969772,  0.0044983443804085255, -0.014678719453513622,
      -0.018549246713519096, -0.011371969245374203, -0.00040898285806179047,
      -0.014951503835618496, -0.020542923361063004, 0.019941985607147217,
      0.03367168456315994,   -0.03742446005344391,  -0.03742469102144241,
      0.029906248673796654,  -0.023505253717303276, -0.034745629876852036,
      -0.06054030358791351,  0.04156088829040527,   0.05956244468688965,
      0.015585444867610931,  0.033908501267433167,  0.0490763783454895,
      -0.02415776625275612,  0.07453572750091553,   0.049397483468055725,
      0.040444955229759216},

     {0.030308114364743233,   -0.019225703552365303, -0.020967885851860046,
      -0.03688833490014076,   -0.003016841132193804, 0.01177287194877863,
      -0.0041332426480948925, -0.020438970997929573, -0.009597099386155605,
      0.010419899597764015,   -0.005347592290490866, 0.02918393909931183,
      -0.03427569940686226,   0.0018120043678209186, -0.011044265702366829,
      -0.05598202720284462,   0.01900973916053772,   0.01660715788602829,
      0.011065015569329262,   0.0532698780298233,    -0.04998505488038063,
      0.02792135253548622,    0.05543745309114456,   -0.013689367100596428,
      0.03624971583485603},

     {0.026685893535614014,  0.030371924862265587,  -0.023265117779374123,
      -0.026271715760231018, -0.007966840639710426, 0.04017700254917145,
      -0.022262057289481163, 0.01741379126906395,   0.04808588698506355,
      -0.003918748814612627, 0.008932432159781456,  0.017771083861589432,
      0.011366765014827251,  -0.02405766397714615,  0.03458704799413681,
      -0.02862396091222763,  -0.027171265333890915, 0.020484531298279762,
      0.025684380903840065,  0.011876183561980724,  0.02534501627087593,
      0.04290366172790527,   0.029730817303061485,  0.0189865343272686,
      0.04191014543175697},

     {-0.01021602749824524,  -0.03524947538971901,   0.0009140816982835531,
      0.01984097808599472,   0.008307395502924919,   -0.060110826045274734,
      -0.023954669013619423, -0.015794293954968452,  0.0158378966152668,
      0.0450093150138855,    0.01961527392268181,    0.0018678181804716587,
      -0.030949577689170837, -0.0035196628887206316, -0.006833075545728207,
      -0.03269597887992859,  -0.06495783478021622,   0.04062587022781372,
      0.016679031774401665,  0.007686099968850613,   -0.024907279759645462,
      -0.007376459892839193, -0.024988988414406776,  0.01656767725944519,
      0.05470286309719086},

     {-0.011306125670671463, 0.013880912214517593,  -0.003266220213845372,
      0.03344767168164253,   0.002483090152963996,  0.035671815276145935,
      -0.046762824058532715, -0.01956305466592312,  0.04746358096599579,
      0.04949449747800827,   -0.018427709117531776, 0.022955264896154404,
      0.04758930578827858,   -0.002798302797600627, 0.0565921850502491,
      -0.016567518934607506, -0.013678881339728832, 0.01366127748042345,
      -0.013936115428805351, 0.005476869642734528,  -0.0392235703766346,
      0.029110100120306015,  0.02940264344215393,   0.008661829866468906,
      -0.009264346212148666}},

    {{0.0008938579703681171, 0.03803015500307083,   -0.018019920215010643,
      -0.05713793635368347,  -0.02351594716310501,  -0.006064331158995628,
      -0.04797260835766792,  0.027739888057112694,  -0.055256109684705734,
      -0.07015497237443924,  0.00524815171957016,   0.028908783569931984,
      0.021681180223822594,  0.029177799820899963,  -0.03422882780432701,
      0.022803017869591713,  0.032342828810214996,  0.03377150371670723,
      0.016174953430891037,  -0.03424452245235443,  0.05941278114914894,
      0.05112014338374138,   -0.023264868184924126, 0.02637173980474472,
      -0.05101210996508598},

     {0.0022090421989560127, -0.016131168231368065,  -0.01851402409374714,
      -0.0652211382985115,   -0.06612202525138855,   -0.021197931841015816,
      0.04373779147863388,   0.0026684089098125696,  -0.04664874076843262,
      -0.036335576325654984, -0.018969189375638962,  -0.01349419541656971,
      -0.05290280655026436,  0.0036109578795731068,  -0.042400311678647995,
      0.033967696130275726,  0.018512802198529243,   0.028101768344640732,
      0.050207652151584625,  -0.0050477455370128155, 0.05042782425880432,
      0.07367965579032898,   0.0027204405050724745,  -0.009936111979186535,
      -0.0066678402945399284},

     {-0.023591406643390656, 0.022249620407819748,  0.01781666837632656,
      -0.026993345469236374, 0.026524944230914116,  -0.010318023152649403,
      -0.017009837552905083, -0.025027945637702942, -0.03264962136745453,
      -0.058522727340459824, 0.013951394706964493,  -0.015181360766291618,
      0.04505126178264618,   -0.051478128880262375, -0.039786361157894135,
      -0.026479950174689293, -0.031200246885418892, 0.0483240969479084,
      -0.018228678032755852, -0.06412135809659958,  0.04049794748425484,
      0.0006701634265482426, 0.030891643837094307,  0.019600974395871162,
      0.03664555773139},

     {0.0106322281062603,   0.020910022780299187,    -0.023264555260539055,
      0.0464860238134861,   -0.04860903322696686,    -0.03409002721309662,
      -0.04164629429578781, -0.03397710993885994,    0.05360770225524902,
      0.03582696244120598,  -0.00036295209429226816, 0.006554730702191591,
      0.011741661466658115, 0.04446274787187576,     0.04272862896323204,
      -0.04208698868751526, -0.015506903640925884,   -0.02879907377064228,
      0.04014833644032478,  -0.008211944252252579,   0.006481917575001717,
      0.02971239574253559,  -0.029001539573073387,   -0.03058519773185253,
      0.019375618547201157},

     {0.052232034504413605, 0.039600007236003876,  0.01561290118843317,
      0.03583480417728424,  0.04845959320664406,   -0.03680659085512161,
      0.004047136288136244, 0.024646127596497536,  0.05843533203005791,
      0.030122436583042145, -0.029409779235720634, 0.02452113851904869,
      0.025450324639678,    -0.024751953780651093, 0.04632389917969704,
      0.045012734830379486, 0.030390160158276558,  0.024342240765690804,
      0.028273727744817734, 0.03753069415688515,   0.008975696749985218,
      0.030240081250667572, 0.056210603564977646,  0.07621116191148758,
      0.04043666645884514},

     {0.061183806508779526, -0.054132454097270966, -0.0763835683465004,
      -0.03287407010793686, -0.0296267569065094,   0.034296177327632904,
      0.011398634873330593, -0.00678653921931982,  0.023424290120601654,
      -0.02161291241645813, 0.06919294595718384,   -0.00028773696976713836,
      0.07562568783760071,  0.038369011133909225,  0.022532053291797638,
      0.059527404606342316, 0.08581215143203735,   0.0844290629029274,
      0.05160913243889809,  -0.007849656976759434, 0.015745533630251884,
      0.045689694583415985, 0.013048352673649788,  0.0009014526149258018,
      -0.03176862373948097},

     {-0.005796813406050205, -0.05138884112238884,  -0.04720354080200195,
      -0.03183712810277939,  0.03993406519293785,   -0.019160091876983643,
      0.02356082946062088,   -0.017555497586727142, -0.002560684457421303,
      -0.05323178693652153,  0.010512030683457851,  0.013758103363215923,
      0.02030775509774685,   0.03253858536481857,   -0.022211173549294472,
      0.039254914969205856,  -0.03688927739858627,  0.007485487964004278,
      0.012292732484638691,  -0.021205419674515724, 0.03322335705161095,
      -0.015908202156424522, 0.05247214436531067,   0.023499784991145134,
      -0.05264973267912865},

     {-0.015971926972270012,  0.028169482946395874,    -0.0037038044538348913,
      -0.013569123111665249,  -0.027217358350753784,   0.02864350751042366,
      0.01467649731785059,    -0.00030391235486604273, -0.02499241568148136,
      -0.043939124792814255,  -0.0502983033657074,     0.03632388263940811,
      0.0013010376133024693,  -0.044879283756017685,   -0.028871001675724983,
      -0.03669961914420128,   4.277973130228929e-05,   0.011917589232325554,
      0.006192022003233433,   -0.04393554851412773,    -0.045396588742733,
      -0.0008231843239627779, 0.036830220371484756,    0.007793232798576355,
      -0.00535556860268116},

     {0.03499016910791397,   0.10756070166826248,    0.041643090546131134,
      0.047381944954395294,  0.007216833997517824,   0.05191493034362793,
      0.09250275790691376,   -0.001246567815542221,  0.09662114828824997,
      0.10624650120735168,   -0.020124809816479683,  0.01971803605556488,
      0.06447666138410568,   0.02959384396672249,    0.09124451875686646,
      -0.021965177729725838, -0.0054998877458274364, -0.019507257267832756,
      0.06126254424452782,   0.07611535489559174,    -0.003957240842282772,
      0.029013415798544884,  0.020239371806383133,   -0.03140497952699661,
      0.07584666460752487},

     {0.0904202088713646,    0.034944284707307816,  0.04241536557674408,
      -0.004287065006792545, 0.0005238434532657266, 0.082541324198246,
      0.06241616979241371,   0.008184939622879028,  0.020442496985197067,
      -0.02673276513814926,  -0.01447807066142559,  0.04144617170095444,
      0.055085260421037674,  0.015427401289343834,  0.03724946454167366,
      0.04396678879857063,   -0.007212474476546049, 0.03301655501127243,
      0.03910370543599129,   0.021433042362332344,  -0.0009353704517707229,
      0.05032402649521828,   0.04068108648061752,   0.0463566891849041,
      0.08639717847108841},

     {0.044044241309165955,  0.019932862371206284,  -0.050295501947402954,
      0.01430264301598072,   -0.04377410188317299,  0.06992863118648529,
      -0.03067461960017681,  -0.038930393755435944, -0.0691470056772232,
      -0.03085874766111374,  -0.010627089068293571, 0.05523984506726265,
      -0.05192394554615021,  0.005079370923340321,  0.0015882267616689205,
      0.009419193491339684,  -0.011036409065127373, -0.0011935319053009152,
      -0.002894814359024167, 0.02685435861349106,   0.03730383142828941,
      0.055038321763277054,  0.04966593161225319,   -0.023779582232236862,
      -0.001618567737750709},

     {0.046157438308000565, 0.0660119280219078,    -0.0019435592694208026,
      0.04675706848502159,  0.0017454286571592093, 0.07067988067865372,
      0.06278285384178162,  0.04714395850896835,   -0.023289237171411514,
      0.04801390320062637,  0.04238947853446007,   0.06615054607391357,
      0.023975616320967674, -0.007581907790154219, 0.04751141741871834,
      0.016630874946713448, 0.04282723739743233,   0.019972989335656166,
      0.04679461941123009,  -0.01537279598414898,  -0.06860192120075226,
      -0.0299659613519907,  -0.007674230728298426, -0.009552954696118832,
      -0.002889079973101616},

     {0.05215978994965553,   0.051391080021858215,  -0.004451438784599304,
      0.01750488206744194,   0.028986554592847824,  0.004070824012160301,
      0.02330561727285385,   -0.009244243614375591, -0.035048991441726685,
      -0.033363983035087585, -0.0620371475815773,   -0.04003284126520157,
      -0.029346276074647903, 0.016680840402841568,  0.015317984856665134,
      -0.08040107041597366,  -0.0280153751373291,   -0.003466525813564658,
      -0.03339296951889992,  -0.02818457968533039,  -0.07690176367759705,
      -0.046444546431303024, 0.048778094351291656,  0.007852001115679741,
      0.03399788588285446},

     {0.000611395575106144,   -0.05535604804754257,   -0.007207331247627735,
      -0.0030547762289643288, -0.007407845929265022,  0.03934766724705696,
      -0.015222293324768543,  -0.0018415320664644241, 0.008326285518705845,
      0.0066467043943703175,  0.06905477494001389,    0.02843809686601162,
      -0.0386120043694973,    0.061537545174360275,   -0.0014238503063097596,
      0.046484287828207016,   0.03065061941742897,    -0.021026236936450005,
      -0.021721582859754562,  -0.0019399201264604926, 0.08056413382291794,
      0.01689285971224308,    0.03189781308174133,    0.009945959784090519,
      -0.006204280070960522},

     {0.05918275937438011,   -0.014928512275218964, -0.028961148113012314,
      -0.06738036125898361,  -0.02507241815328598,  0.04360125958919525,
      -0.00804666243493557,  -0.034188177436590195, 0.04758394509553909,
      0.04408331215381622,   -0.01766769401729107,  -0.016955962404608727,
      -0.006727795582264662, 0.05616961047053337,   0.055906739085912704,
      -0.04225325211882591,  -0.06735800206661224,  -0.0018731129821389914,
      0.00561100710183382,   0.03988221660256386,   -0.006642116699367762,
      -0.04004479944705963,  0.030099719762802124,  0.07592582702636719,
      0.08538272231817245},

     {-0.024356992915272713,  -0.05713023990392685,  -0.04447115212678909,
      -0.0043189916759729385, -0.021154247224330902, -0.023992324247956276,
      0.03348804637789726,    0.023488057777285576,  -0.03109433688223362,
      -0.03410171717405319,   -0.04367661103606224,  0.037725914269685745,
      -0.042480356991291046,  -0.03569445013999939,  -0.011725928634405136,
      -0.07422573119401932,   0.014945145696401596,  -0.05155371129512787,
      0.01694708690047264,    0.023779867216944695,  -0.015302256681025028,
      -0.06729716062545776,   -0.07191057503223419,  -0.053785014897584915,
      -0.046310681849718094}},

    {{-0.005874174647033215,  -0.03214026242494583,  -0.00939823780208826,
      -0.05388963595032692,   -0.0557604655623436,   -0.019616177305579185,
      -0.0014728966634720564, -0.011040748097002506, -0.003010232700034976,
      -0.045292872935533524,  -0.037132274359464645, -0.0207597054541111,
      0.03345302864909172,    -0.03828020766377449,  0.04931625351309776,
      -0.029817409813404083,  -0.039581894874572754, -0.0011976277455687523,
      0.03868464007973671,    0.0468885637819767,    -0.012350250035524368,
      0.042083609849214554,   0.0289163701236248,    0.022964725270867348,
      0.025049492716789246},

     {0.01835220493376255,   0.06632217764854431,   0.053149670362472534,
      -0.036346420645713806, 0.014759172685444355,  -0.004924220032989979,
      0.019445300102233887,  0.022818025201559067,  -0.020976848900318146,
      0.019176872447133064,  0.049057163298130035,  -0.009770900942385197,
      -0.04995611682534218,  -0.07456591725349426,  -0.049665216356515884,
      -0.01723397523164749,  0.04638541489839554,   0.06136022135615349,
      0.053490422666072845,  -0.045223649591207504, -0.006689115893095732,
      0.04101835563778877,   0.06394699215888977,   -0.015959005802869797,
      -0.07053850591182709},

     {-0.03327138349413872,  0.04905631020665169,   -0.012423963285982609,
      -0.014805691316723824, -0.025187967345118523, 0.023664508014917374,
      0.045261625200510025,  0.03855942189693451,   -0.011837217956781387,
      0.01064403634518385,   0.04900140315294266,   0.02206793799996376,
      -0.007805817760527134, 0.03261946514248848,   -0.029186392202973366,
      0.0010992338648065925, 0.04882388561964035,   0.03278440982103348,
      -0.0529087670147419,   0.04358484223484993,   0.037284307181835175,
      0.04541793838143349,   0.012275081127882004,  -0.036058567464351654,
      0.055120646953582764},

     {0.031837303191423416,   0.015974413603544235,  -0.018823830410838127,
      -0.014378015883266926,  0.01634516380727291,   0.022043446078896523,
      0.05910450220108032,    -0.022694768384099007, -0.05649822577834129,
      -0.003395604668185115,  0.056469496339559555,  -0.0066299764439463615,
      0.05268840491771698,    -0.007475047837942839, -0.013564652763307095,
      0.006874386221170425,   0.020688701421022415,  -0.04517538845539093,
      -0.0029729530215263367, -0.020991386845707893, 0.011468137614428997,
      0.02361510694026947,    -0.03527739644050598,  0.004750341642647982,
      -0.006859972607344389},

     {-0.04474194347858429,  -0.054466214030981064, -0.04674508050084114,
      -0.09344756603240967,  0.005228017922490835,  -0.07916377484798431,
      -0.022040344774723053, 0.005629190243780613,  -0.03583803400397301,
      0.016705891117453575,  -0.009538868442177773, -0.028336090967059135,
      0.004332242999225855,  0.03387173265218735,   -0.006687169428914785,
      -0.02054291032254696,  0.06292691081762314,   0.06192518398165703,
      0.029322730377316475,  0.026994697749614716,  -0.018310904502868652,
      0.10336487740278244,   0.034635528922080994,  0.03752638027071953,
      0.09146548807621002},

     {-0.009105462580919266, -0.0039882902055978775, -0.05150507017970085,
      -0.05907261744141579,  0.0030188155360519886,  0.02138615772128105,
      -0.015432683750987053, 0.011172083206474781,   0.045864976942539215,
      -0.010725160129368305, -0.004990383051335812,  0.042176034301519394,
      0.007906205952167511,  0.03190946206450462,    0.03367568179965019,
      0.0611979104578495,    0.06757581233978271,    -0.006804948206990957,
      0.004063613247126341,  0.007380719296634197,   -0.036774784326553345,
      -0.01778695173561573,  0.018548469990491867,   0.04974902421236038,
      0.0004995648632757366},

     {0.05233365669846535,   0.03860563412308693,   0.02174709178507328,
      -0.03241649270057678,  -0.020502451807260513, 0.04718680679798126,
      0.021919192746281624,  0.04315412417054176,   -0.036135442554950714,
      0.011992126703262329,  0.06224452331662178,   0.045890819281339645,
      -0.004378179088234901, -0.015956073999404907, 0.044616322964429855,
      -0.016255436465144157, 0.06647277623414993,   0.020228328183293343,
      0.007368071470409632,  0.0058538527227938175, -0.006022672634571791,
      -0.004706905223429203, 0.01425940915942192,   0.027977198362350464,
      -0.004114653915166855},

     {-0.007821190170943737, 0.012520411051809788,  0.05495541915297508,
      0.010510899126529694,  0.004496499430388212,  -0.05748628079891205,
      -0.05537056177854538,  -0.005231059622019529, 0.020637480542063713,
      -0.04787727817893028,  -0.02312036044895649,  -0.014878347516059875,
      -0.04427081719040871,  0.05504998192191124,   -0.042781200259923935,
      -0.010342233814299107, 0.049734849482774734,  0.03485843166708946,
      0.05496969446539879,   -0.031937506049871445, -0.058485403656959534,
      0.015319190919399261,  0.03656283766031265,   0.008466781117022038,
      -0.06618168205022812},

     {0.06672704219818115,    0.05804522708058357,    -0.02616807073354721,
      0.0018223390216007829,  -0.00960108358412981,   0.04814164340496063,
      -0.02959422394633293,   -0.07251042872667313,   0.025165094062685966,
      -0.0014164370950311422, -0.02379584312438965,   -0.041464664041996,
      -0.05066072195768356,   0.04286953806877136,    0.019661158323287964,
      -0.006692792754620314,  0.04149457812309265,    0.061782125383615494,
      0.033288028091192245,   -0.055010367184877396,  0.008612602017819881,
      0.00809559877961874,    -0.0013819477753713727, -0.008504164405167103,
      -0.038331519812345505},

     {0.0784122571349144,    0.05713701993227005,    0.03814268112182617,
      0.016539154574275017,  -0.011980944313108921,  0.0130504434928298,
      -0.02311316505074501,  -0.0010350056691095233, -0.02065710909664631,
      0.01133130956441164,   0.06431935727596283,    0.06977289915084839,
      0.05229955539107323,   -0.029616057872772217,  -0.022132065147161484,
      0.048503994941711426,  0.06674247980117798,    0.057615235447883606,
      -0.029377657920122147, 0.006931401323527098,   -0.04723042622208595,
      -0.03128604590892792,  0.04408401623368263,    -0.03759253770112991,
      0.02863278053700924},

     {0.05923329293727875,   0.013091960921883583,   0.022153742611408234,
      -0.01935558021068573,  -0.064863421022892,     0.028441065922379494,
      0.06990634649991989,   -0.026834234595298767,  -0.059175483882427216,
      -0.03729282692074776,  -0.0035678991116583347, 0.032546669244766235,
      -0.038912996649742126, -0.03356250748038292,   -0.11082810163497925,
      0.04112209379673004,   -0.026433931663632393,  0.04922162741422653,
      -0.05808214843273163,  -0.08183696120977402,   0.01680230163037777,
      -0.0479474700987339,   -0.06124413013458252,   -0.07393939793109894,
      -0.052938614040613174},

     {0.009760590270161629,  0.06612762063741684,   0.06575646251440048,
      -0.014726962894201279, -0.012269483879208565, -0.019166938960552216,
      -0.022305071353912354, -0.01476302370429039,  -0.0329323410987854,
      -0.04961896315217018,  -0.03810844197869301,  0.032580453902482986,
      -0.01815822347998619,  -0.03143389895558357,  -0.032504692673683167,
      -0.027858151122927666, -0.06506054103374481,  0.018084274604916573,
      0.01511060819029808,   -0.06176505982875824,  -0.06657952815294266,
      -0.09091759473085403,  0.011206130497157574,  -0.0295359306037426,
      -0.08108165860176086},

     {0.0072687724605202675, 0.02638598345220089,  0.0008116707904264331,
      0.0019399594748392701, -0.0632476806640625,  0.0044984882697463036,
      0.02204025350511074,   0.04268297180533409,  0.0071616945788264275,
      -0.029679639264941216, -0.05026969686150551, -0.03664923831820488,
      -0.012915894389152527, 0.03653169795870781,  -0.04159035533666611,
      -0.024859199300408363, 0.041167087852954865, 0.03646478429436684,
      0.023271048441529274,  -0.07177028059959412, -0.06733418256044388,
      0.06493862718343735,   0.1048717126250267,   0.035872481763362885,
      -0.08780278265476227},

     {0.02289716899394989,   0.04847569763660431,    0.01809629611670971,
      0.05267880856990814,   0.0709770992398262,     0.0040534972213208675,
      0.005687737837433815,  0.0068229432217776775,  -0.04955003410577774,
      0.03556937724351883,   0.03489192575216293,    0.094331756234169,
      0.031745024025440216,  -0.0013742645969614387, -0.0054706307128071785,
      0.0770101249217987,    0.043609701097011566,   0.012006561271846294,
      -0.005875199567526579, 0.06796645373106003,    0.013812479563057423,
      -0.039155442267656326, -0.0027850549668073654, 0.01881522685289383,
      0.03626399487257004},

     {-0.032735131680965424, -0.04677330330014229,    -0.013696986250579357,
      0.030576132237911224,  -0.00036118950811214745, -0.044988490641117096,
      0.005867935251444578,  0.009265902452170849,    0.022028930485248566,
      0.006961976643651724,  -0.06618470698595047,    -0.01074171531945467,
      0.0003048789221793413, 0.004152445588260889,    -0.05270762741565704,
      0.03692704066634178,   0.058284908533096313,    -0.0030435502994805574,
      0.028690075501799583,  -0.0454447902739048,     0.016575345769524574,
      0.031420424580574036,  0.05573772266507149,     0.006263305898755789,
      -0.028416186571121216},

     {0.013166269287467003,  0.0062127429991960526,  0.0036787637509405613,
      -0.028402522206306458, 0.0328141450881958,     0.020021948963403702,
      -0.02804427035152912,  0.04602951556444168,    0.031443823128938675,
      -0.006027426570653915, -0.0017220193985849619, -0.03764624148607254,
      -0.005891067441552877, -0.01493118703365326,   -0.003601362695917487,
      0.022791046649217606,  0.029643014073371887,   -0.04589112475514412,
      0.005202336236834526,  -0.04196258261799812,   0.05094974860548973,
      -0.043217871338129044, -0.04467630758881569,   -0.027978580445051193,
      -0.013511535711586475}},

    {{-0.015671279281377792,  0.04674208536744118,    -0.0654824823141098,
      -0.0660017803311348,    -0.04095132648944855,   0.056734949350357056,
      -0.0005894945352338254, -0.03777430206537247,   0.004332186188548803,
      -0.04540383443236351,   0.027285123243927956,   -0.02759021706879139,
      -0.01989559270441532,   -0.04579731076955795,   -0.028618037700653076,
      0.06321556866168976,    0.016323136165738106,   -0.012159143574535847,
      -0.030448991805315018,  -0.0027996841818094254, 0.031446389853954315,
      0.10593345761299133,    0.019706273451447487,   0.04057057201862335,
      -0.003094700863584876},

     {0.05558289960026741,   0.044878557324409485,   -0.02722877264022827,
      -0.016743572428822517, -0.0078054191544651985, -0.09010177105665207,
      -0.09856577962636948,  -0.011107983998954296,  0.024766715243458748,
      -0.07298784703016281,  -0.046408023685216904,  -0.061129678040742874,
      -0.0721277967095375,   -0.04278628155589104,   -0.06923467665910721,
      0.008136029355227947,  -0.08918697386980057,   -0.10908418893814087,
      -0.03803297132253647,  -0.02490118518471718,   0.03204907476902008,
      -0.08860577642917633,  -0.036368925124406815,  -0.05866085737943649,
      -0.003974955528974533},

     {-0.038764264434576035, -0.003447848604992032, -0.058747000992298126,
      -0.08590677380561829,  0.02218366228044033,   0.028523199260234833,
      -0.06697786599397659,  -0.05689172074198723,  -0.06864804029464722,
      -0.001695783343166113, -0.021585896611213684, -0.07275782525539398,
      -0.027028914541006088, -0.008293425664305687, -0.014843146316707134,
      0.013906462118029594,  0.03367641940712929,   -0.058196526020765305,
      -0.02357684262096882,  -0.07480131834745407,  0.06583388894796371,
      0.07681696861982346,   0.01685546711087227,   -0.014824091456830502,
      -0.0820605605840683},

     {-0.12197988480329514,  -0.11651833355426788, -0.03442232310771942,
      -0.03983063995838165,  -0.02837385982275009, -0.11950142681598663,
      -0.09972172975540161,  -0.0882565826177597,  0.0129970358684659,
      0.07641711086034775,   -0.09726190567016602, -0.08977852016687393,
      -0.1061192974448204,   -0.0319720059633255,  0.061123669147491455,
      -0.1405368596315384,   -0.09180361777544022, -0.0636754035949707,
      -0.05702250078320503,  0.025124911218881607, 0.01556127518415451,
      -0.031236397102475166, -0.02795199118554592, -0.07984539866447449,
      -0.04796232655644417},

     {0.02816123515367508,   0.009407185949385166,  -0.11610021442174911,
      0.032819174230098724,  0.0014350081328302622, -0.002945205196738243,
      0.0023576440289616585, -0.0750611200928688,   0.014165612868964672,
      -0.05047224834561348,  0.020462004467844963,  0.043716855347156525,
      -0.05802095681428909,  -0.03600570559501648,  -0.03378673642873764,
      0.026868978515267372,  0.03395882621407509,   0.010401630774140358,
      -0.04760973900556564,  -0.03878392279148102,  0.12247540056705475,
      0.09439654648303986,   0.13314203917980194,   0.09092525392770767,
      0.005585419479757547},

     {0.017810950055718422,  -0.04563318192958832,  -0.003966365475207567,
      0.019423309713602066,  0.013390644453465939,  0.035581912845373154,
      -0.020861409604549408, -0.02360720746219158,  -0.055362146347761154,
      -0.05545230209827423,  -0.05059431493282318,  -0.038561318069696426,
      -0.09229922294616699,  -0.016963280737400055, 0.05561456084251404,
      0.03951943665742874,   0.01663847826421261,   -0.10089818388223648,
      -0.028401855379343033, 0.04026888683438301,   0.020834175869822502,
      0.06768930703401566,   -0.04154977947473526,  0.006183544173836708,
      -0.026488199830055237},

     {-0.06507984548807144,  -0.11633726954460144,   -0.027821604162454605,
      -0.029791198670864105, -0.042637068778276443,  -0.01416919194161892,
      -0.09560366719961166,  -0.04544873908162117,   0.005286199972033501,
      0.05796949565410614,   -0.060696303844451904,  -0.059318993240594864,
      -0.06382770091295242,  -0.06541901081800461,   0.02440439909696579,
      -0.004484883975237608, -0.03746805340051651,   -0.05088257044553757,
      -0.03739217668771744,  -0.0005072953063063323, 0.060108717530965805,
      0.03847489506006241,   0.018265560269355774,   -0.09804593026638031,
      -0.024355007335543633},

     {0.03131968528032303,   -0.00527851702645421,   -0.027563875541090965,
      -0.10871732980012894,  -0.0012614866718649864, -0.019458508118987083,
      0.0011735560838133097, -0.06147058308124542,   0.012793912552297115,
      -0.025181103497743607, 0.005624982062727213,   -0.003131976118311286,
      0.003263394348323345,  -0.02457432448863983,   -0.08800351619720459,
      -0.017293965443968773, 0.05729377642273903,    0.03561517968773842,
      -0.05513923242688179,  -0.05162249505519867,   0.017865950241684914,
      0.0020876808557659388, 0.05577214062213898,    0.05129621922969818,
      -0.037475209683179855},

     {0.04160977154970169,  -0.0350385420024395,   -0.011633506044745445,
      0.03672086074948311,  -0.01813299022614956,  -0.029383594170212746,
      -0.05878632515668869, 0.04096179082989693,   -0.014865470118820667,
      -0.06616674363613129, -0.042497601360082626, -0.1254824697971344,
      -0.1271020472049713,  -0.018164291977882385, -0.04905550181865692,
      0.01291253138333559,  -0.020933683961629868, -0.047216374427080154,
      -0.03244294598698616, 0.02664605714380741,   0.04171622171998024,
      0.0734390988945961,   -0.011888204142451286, -0.03561130538582802,
      -0.10693762451410294},

     {0.03774822875857353,   -0.04414137080311775,  -0.015043812803924084,
      -0.0615658164024353,   -0.03710084408521652,  0.05770513042807579,
      -0.03776448592543602,  -0.06037453934550285,  -0.08309363573789597,
      -0.017051422968506813, -0.016943085938692093, -0.06542282551527023,
      -0.007547950837761164, -0.01853509061038494,  0.006588186603039503,
      0.017969220876693726,  0.07712330669164658,   0.07195432484149933,
      0.02029639109969139,   0.015866758301854134,  0.042886123061180115,
      0.12595097720623016,   0.13942618668079376,   0.1345561444759369,
      0.027720583602786064},

     {-0.0032229465432465076, -0.04735388234257698,  0.05309046432375908,
      0.0003296520153526217,  0.0357775054872036,    -0.041860658675432205,
      -0.01280765701085329,   0.003018702380359173,  0.0019943458028137684,
      -0.014075116254389286,  -0.07020111382007599,  -0.01292948704212904,
      -0.030500683933496475,  -0.06704473495483398,  0.019770681858062744,
      -0.007128303870558739,  -0.13617487251758575,  -0.12632130086421967,
      -0.05425575375556946,   -0.026053542271256447, -0.020428994670510292,
      -0.09277714788913727,   -0.06260614842176437,  -0.009064177051186562,
      -0.025359082967042923},

     {0.03087654896080494,   -0.060663528740406036, 0.0020275649148970842,
      -0.05616755783557892,  -0.06158098578453064,  0.027442069724202156,
      -0.09448777884244919,  -0.03754880279302597,  -0.004534061066806316,
      -0.02243189699947834,  0.033517684787511826,  -0.08306756615638733,
      -0.08232775330543518,  -0.06632956862449646,  -0.05841785669326782,
      0.03462494909763336,   0.08974882960319519,   0.004277827683836222,
      -0.013822278939187527, -0.03552797809243202,  0.10117217898368835,
      0.07351749390363693,   0.054610736668109894,  0.10453833639621735,
      -0.01158688124269247},

     {0.028728680685162544,  0.03073163516819477,    -0.09827916324138641,
      -0.10753078758716583,  -0.0021370770409703255, -0.007502545602619648,
      0.007721233181655407,  -0.10027734935283661,   -0.01247380394488573,
      -0.07116968929767609,  0.038572508841753006,   -0.06039851903915405,
      -0.08044665306806564,  -0.03254258632659912,   -0.07141287624835968,
      0.07600995898246765,   -0.017717475071549416,  0.01605307310819626,
      -0.021960237994790077, -0.09635474532842636,   0.10360480844974518,
      0.027041170746088028,  0.030045974999666214,   -0.006845151539891958,
      -0.03551121801137924},

     {0.021239062771201134,   -0.044815465807914734,  0.04616883769631386,
      0.05806868150830269,    0.016703389585018158,   -0.014881585724651814,
      -0.04116389900445938,   -0.054511502385139465,  0.02631625346839428,
      0.016991661861538887,   -0.028135834261775017,  -0.055948805063962936,
      -0.03985637053847313,   -0.0018724164692685008, 0.023167293518781662,
      -0.012556171044707298,  -0.02170955017209053,   -0.046864379197359085,
      0.04042072966694832,    0.01272947620600462,    -0.00653854152187705,
      -0.0021114146802574396, -0.02989399991929531,   -0.009117500856518745,
      -0.0158062931150198},

     {0.02696096897125244,   -0.04024243727326393,  -0.00432269973680377,
      -0.022254277020692825, -0.041729364544153214, 0.07656171172857285,
      0.0491715632379055,    -0.037036098539829254, -0.05074290186166763,
      -0.07923593372106552,  -0.004873374011367559, -0.014162983745336533,
      -0.05575602129101753,  -0.0751594826579094,   -0.10294973850250244,
      0.05122678354382515,   0.06124440208077431,   0.02143695391714573,
      -0.07428120076656342,  -0.10774649679660797,  0.06422264873981476,
      0.014492709189653397,  0.029424361884593964,  0.027573876082897186,
      -0.0830506756901741},

     {0.03191929683089256,   -0.01199402380734682,  -0.0676506981253624,
      -0.04183237999677658,  -0.012860622256994247, -0.02183360420167446,
      -0.044339898973703384, -0.09857434779405594,  0.004760168492794037,
      0.017026936635375023,  0.01768244244158268,   -0.07352814823389053,
      -0.06126667186617851,  -0.05782715976238251,  -0.010468664579093456,
      0.0007986108539626002, -0.039381857961416245, -0.06575316190719604,
      -0.03305816650390625,  -0.027386903762817383, 0.08449847996234894,
      0.05495939403772354,   -0.001158697297796607, -0.0380973182618618,
      -0.03713728487491608}},

    {{0.04215453565120697,   0.038634445518255234,   0.04749071225523949,
      0.040921036154031754,  0.03209420666098595,    -0.04173699766397476,
      0.0476212278008461,    -0.029754603281617165,  0.04041674733161926,
      0.023903094232082367,  -0.0009470910299569368, 0.05774621292948723,
      0.0045027462765574455, -0.021065767854452133,  0.0441005676984787,
      0.014320824295282364,  0.016234898939728737,   0.011348120868206024,
      0.004825306590646505,  -0.02072385512292385,   0.048877909779548645,
      0.036709364503622055,  -0.01138066966086626,   0.01462551113218069,
      0.0402984544634819},

     {0.005342450924217701,  0.03048715740442276,   0.03368319198489189,
      0.015310199931263924,  0.03230676427483559,   -0.06317898631095886,
      -0.01578693464398384,  -0.00473157549276948,  0.044749148190021515,
      0.04893725737929344,   -0.019423943012952805, 0.02791048027575016,
      -0.013339098542928696, -0.022512005642056465, 0.001715463469736278,
      -0.05234168469905853,  -0.04861710965633392,  -0.03965848684310913,
      -0.018289033323526382, 0.03177149221301079,   -0.007830984890460968,
      0.006553968880325556,  -0.04931047186255455,  0.015032172203063965,
      0.05260000750422478},

     {0.02035657688975334,    -0.03688453510403633,  0.04491250962018967,
      -0.012482473626732826,  -0.007787376642227173, 0.0026046144776046276,
      0.03283650800585747,    0.028829075396060944,  0.049146175384521484,
      0.019192948937416077,   -0.06113075837492943,  -0.024823103100061417,
      0.05600452423095703,    -0.02804218791425228,  -0.02638688124716282,
      -0.0003969529934693128, 0.04642410948872566,   0.014706689864397049,
      0.05335678160190582,    0.03770199790596962,   0.005979207810014486,
      0.04865548759698868,    0.06193841993808746,   0.023306384682655334,
      0.031170381233096123},

     {0.05403713136911392,    0.03864513337612152,   0.0674218088388443,
      0.02934323623776436,    -0.02180531993508339,  0.0299674179404974,
      0.0785885900259018,     0.08722274750471115,   0.03842797875404358,
      -0.0012131339171901345, 0.0008971603820100427, 0.05463750287890434,
      0.0035424893721938133,  0.04196224734187126,   0.012594659812748432,
      0.009404061362147331,   0.04419643431901932,   0.07988877594470978,
      0.010930455289781094,   0.02639693394303322,   -0.003409445518627763,
      -0.010761975310742855,  -0.02475988306105137,  -0.03573011979460716,
      -0.01698872447013855},

     {-0.022637290880084038, -0.026211218908429146, 0.051722392439842224,
      -0.03211335092782974,  0.0033532248344272375, -0.006826043128967285,
      0.03621726110577583,   0.05386440083384514,   -0.008443434722721577,
      0.05812457203865051,   0.061486903578042984,  -0.01315385289490223,
      0.01199000421911478,   0.07320316880941391,   0.001757039688527584,
      0.0015971434768289328, 0.017372701317071915,  0.08294090628623962,
      -0.004916889127343893, -0.016468312591314316, 0.0023603688459843397,
      0.05641613528132439,   0.013459396548569202,  -0.0008299023029394448,
      0.046639375388622284},

     {-0.010882792063057423,  0.013806446455419064,  0.07813180983066559,
      0.005131868179887533,   -0.05625871941447258,  0.025221675634384155,
      0.05834493786096573,    0.047478243708610535,  0.05124828964471817,
      0.011653699912130833,   -0.030978573486208916, 0.06125931814312935,
      0.00331080611795187,    0.06599366664886475,   0.007668229751288891,
      -0.0010715012904256582, 0.031200535595417023,  0.03459234535694122,
      0.03410617262125015,    0.02285362221300602,   0.0753249078989029,
      0.04131465032696724,    0.05471363291144371,   -0.007317560259252787,
      -0.041958995163440704},

     {-0.006456931587308645,  0.024176685139536858,  0.03648350015282631,
      0.027086328715085983,   -0.021530307829380035, -0.0011205917689949274,
      0.057755496352910995,   0.0788886696100235,    -0.013103296048939228,
      0.027306729927659035,   -0.046501029282808304, -0.025532394647598267,
      0.043110478669404984,   0.07794466614723206,   0.02831776812672615,
      -0.0029722212348133326, 0.012675509788095951,  0.019878344610333443,
      0.07774342596530914,    0.068426214158535,     0.01332269050180912,
      -0.017071271315217018,  0.08084698766469955,   0.020741041749715805,
      -0.0210996363312006},

     {0.011832322925329208,  -0.040037766098976135, -0.040934834629297256,
      -0.008962638676166534, 0.03844978287816048,   -0.03836824372410774,
      0.004102905280888081,  -0.03125002235174179,  0.01017560064792633,
      -0.02222517691552639,  0.030569002032279968,  -0.014377028681337833,
      0.015874970704317093,  0.019368596374988556,  0.027250710874795914,
      0.008618057705461979,  -0.005444645881652832, -0.039350319653749466,
      -0.019278163090348244, -0.000396555638872087, 0.03003496676683426,
      -0.05813031643629074,  -0.009603098966181278, -0.02246839553117752,
      -0.010883557610213757},

     {0.029467878863215446,  -0.037275537848472595, 0.005907502491027117,
      0.02642056718468666,   -0.026597579941153526, 0.04239674657583237,
      -0.032188158482313156, 0.0707351490855217,    0.05972464755177498,
      0.001068845042027533,  -0.008437513373792171, 0.0009420175920240581,
      0.008697855286300182,  0.09099367260932922,   0.08122029900550842,
      -0.0296082254499197,   -0.021208515390753746, 0.06619764119386673,
      0.044768717139959335,  0.02946641482412815,   0.026399025693535805,
      0.026203205808997154,  -0.04420601204037666,  -0.02567579783499241,
      -0.02490793913602829},

     {0.0008406602428294718, 0.03432237729430199,   0.040882281959056854,
      -0.007325455080717802, 0.053084131330251694,  -0.036257099360227585,
      0.04406285285949707,   0.051093339920043945,  0.08064104616641998,
      0.04897979646921158,   -0.012744138017296791, 0.053986214101314545,
      0.055642858147621155,  0.0012743041152134538, 0.07233111560344696,
      -0.002207418903708458, 0.07590124756097794,   0.06595282256603241,
      0.016916444525122643,  0.06415519118309021,   0.03588756173849106,
      0.023168450221419334,  0.0579230822622776,    0.045895930379629135,
      0.0002778289490379393},

     {0.0035916841588914394, -0.017598776146769524,  0.039154283702373505,
      0.05298776179552078,   -0.0014518563402816653, -0.039557427167892456,
      0.012096842750906944,  0.05530892312526703,    0.06325861811637878,
      0.045919694006443024,  -0.06660774350166321,   0.031141391023993492,
      0.04578821361064911,   -0.021582767367362976,  -0.033556848764419556,
      0.015156363137066364,  0.02365891821682453,    -0.024677611887454987,
      -0.045308444648981094, 0.028982875868678093,   0.03064873442053795,
      -0.03604686260223389,  -0.06371325254440308,   -0.03401149436831474,
      0.03018905594944954},

     {0.05148700252175331,   0.047303225845098495,   0.04069177806377411,
      0.05398251861333847,   -0.009880458936095238,  -0.023399466648697853,
      -0.02601204253733158,  0.03103508986532688,    0.048578862100839615,
      0.02339591644704342,   -0.0012075845152139664, 0.04366845265030861,
      -0.03636270761489868,  0.05041539669036865,    -0.028350932523608208,
      0.014972512610256672,  -0.04105663672089577,   0.024236362427473068,
      0.006246567238122225,  -0.0298599973320961,    0.05721278116106987,
      -0.028955042362213135, -0.052109889686107635,  -0.04357677698135376,
      0.018782947212457657},

     {0.001162653206847608,  0.026768121868371964,  0.029518797993659973,
      -0.00793960876762867,  0.024134429171681404,  0.025073157623410225,
      -0.011687558144330978, 0.0192192941904068,    0.04503120854496956,
      -0.04023382440209389,  -0.04208407923579216,  -0.00702660670503974,
      0.009219281375408173,  0.037739526480436325,  0.02899092063307762,
      -0.015014798380434513, -0.0928783044219017,   -0.039209216833114624,
      0.010794234462082386,  -0.029498154297471046, -0.03633793070912361,
      -0.08341614902019501,  -0.029132720082998276, -0.04942694678902626,
      -0.029962273314595222},

     {0.03139599785208702,   0.07568042725324631,   0.056652363389730453,
      0.048934102058410645,  0.006660883780568838,  0.045414652675390244,
      0.06116194278001785,   0.04694073274731636,   0.046890538185834885,
      0.061916057020425797,  0.0156553965061903,    -0.01101685781031847,
      0.027163799852132797,  0.006144357845187187,  0.0009766437578946352,
      0.001599754556082189,  -0.004293548408895731, 0.08175569027662277,
      0.054650817066431046,  -0.032284755259752274, -0.006381545681506395,
      -0.016768569126725197, -0.013386031612753868, 0.02130374126136303,
      -0.019998233765363693},

     {0.03108123503625393,   -0.07310070097446442,  0.020077869296073914,
      -0.027614576742053032, -0.029758602380752563, -0.0037654871121048927,
      -0.07192745059728622,  -0.022684864699840546, -0.023122992366552353,
      0.002558052306994796,  -0.01811661571264267,  -0.06206466257572174,
      -0.0522577203810215,   0.015167401172220707,  -0.00973355583846569,
      -0.004365351051092148, -0.011631798930466175, -0.01623600348830223,
      0.007396593224257231,  0.031498320400714874,  0.019692204892635345,
      0.014690735377371311,  -0.032206468284130096, -0.01320062018930912,
      0.014325350522994995},

     {-0.0379958339035511,    -0.055027976632118225, 0.00992830190807581,
      -0.03341703116893768,   0.04449541121721268,   -0.04599471390247345,
      -0.020161496475338936,  -0.016757318750023842, -0.010198432020843029,
      -0.031048165634274483,  0.03940362483263016,   -0.022108912467956543,
      -0.0015901830047369003, -0.014644186943769455, 0.04143602028489113,
      0.023581048473715782,   -0.020380523055791855, -0.013051135465502739,
      -0.04128563404083252,   0.037100743502378464,  -0.04311583936214447,
      -0.07869770377874374,   0.014507011510431767,  0.029186835512518883,
      0.0297701358795166}},

    {{0.008231337182223797,  -0.028683338314294815, 0.05266009271144867,
      0.045246563851833344,  -0.008569861762225628, 0.061809517443180084,
      -0.010815151035785675, 0.011254644952714443,  0.03860024735331535,
      0.012561612762510777,  0.01704155094921589,   -0.013209880329668522,
      0.026474546641111374,  -0.03960566967725754,  0.05360766127705574,
      0.05005023255944252,   0.04561616852879524,   0.025985760614275932,
      -0.038322966545820236, -0.023451881483197212, 0.009852676652371883,
      -0.004905324894934893, -0.04949968680739403,  -0.02076859585940838,
      0.021360380575060844},

     {0.0030009844340384007,  0.03390591964125633,   0.04085173457860947,
      0.022839713841676712,   -0.02662842534482479,  0.01613277941942215,
      0.038043227046728134,   0.06316877901554108,   0.038149844855070114,
      0.10647448152303696,    -0.031173022463917732, 0.02260691672563553,
      -0.0009374478831887245, 0.05572163313627243,   0.07485966384410858,
      -0.0022963336668908596, 0.020061224699020386,  -0.009236602112650871,
      0.04555443674325943,    -0.030984515324234962, -0.009802861139178276,
      0.0010569371515884995,  -0.006754341069608927, -0.03854113444685936,
      -0.04648393765091896},

     {-0.037854649126529694, -0.04546046257019043,  0.0012464604806154966,
      0.05271810665726662,   0.020462850108742714,  0.004217043519020081,
      0.004960261285305023,  0.027825582772493362,  -0.022802939638495445,
      -0.03712181746959686,  -0.028369879350066185, 0.01194735523313284,
      -0.023765992373228073, 0.004166174679994583,  0.047094956040382385,
      -0.03480319678783417,  -0.028396230190992355, 0.0108860544860363,
      -0.012096219696104527, -0.022260475903749466, 0.006746429018676281,
      -0.07382175326347351,  -0.003245885483920574, -0.03187786415219307,
      -0.034878429025411606},

     {-0.00598896062001586, -0.004695466253906488, -0.022618480026721954,
      0.06636317074298859,  0.03217257186770439,   0.02187139168381691,
      -0.03664668649435043, 0.046188969165086746,  -0.00499368691816926,
      0.07970328629016876,  -0.012037764303386211, -0.04461241513490677,
      -0.03572874143719673, 0.0037829959765076637, 0.0377451591193676,
      0.025080667808651924, -0.03975875303149223,  0.004969881847500801,
      0.02984979748725891,  -0.04886581748723984,  0.029528062790632248,
      0.004876951687037945, -0.043921638280153275, 0.020078884437680244,
      -0.03633429855108261},

     {0.0739966332912445,     0.07979355752468109,   -0.0059309834614396095,
      0.00015013736265245825, 0.05887340009212494,   0.07750285416841507,
      0.07117972522974014,    0.014856602065265179,  -0.045513879507780075,
      0.001324742566794157,   0.051980193704366684,  0.05752775818109512,
      -0.03157346695661545,   -0.02566482685506344,  -0.040431682020425797,
      0.0399947427213192,     -0.011718792840838432, 0.012851225212216377,
      -0.035468943417072296,  0.011478999629616737,  0.04110557958483696,
      0.04909174516797066,    -0.005499791819602251, -0.005707964766770601,
      -0.08803916722536087},

     {-0.03832826018333435,   -0.056007299572229385, 0.0226521585136652,
      0.04168032109737396,    0.06243239343166351,   -0.0325031615793705,
      -0.0016104800160974264, 0.013974658213555813,  0.053219396620988846,
      0.05495463311672211,    -0.03868595138192177,  -0.0394970141351223,
      -0.03867587819695473,   0.023175904527306557,  0.03863009437918663,
      0.0051688505336642265,  0.009823460131883621,  -0.0712987408041954,
      -0.06495214998722076,   -0.0207066610455513,   -0.00027192351990379393,
      -0.007497341837733984,  0.037359755486249924,  -0.07805167138576508,
      -0.056346602737903595},

     {0.04448077082633972,   -0.023815978318452835,  0.031327590346336365,
      0.0643594041466713,    0.02220025658607483,    0.032706573605537415,
      0.029814189299941063,  0.016359928995370865,   0.04999551922082901,
      0.03150664269924164,   -0.0002147378836525604, -0.0531693696975708,
      -0.012596081010997295, 0.05966389551758766,    0.033998701721429825,
      -0.01686928980052471,  -0.05254245549440384,   -0.054291050881147385,
      -0.03870172053575516,  -0.03089020773768425,   0.0018457038095220923,
      -0.07152093946933746,  -0.04246434569358826,   0.011767854914069176,
      0.005240125581622124},

     {-0.02012551575899124,  -0.0376153402030468,   -0.01750076934695244,
      0.034028202295303345,  -0.012455425225198269, 0.043163374066352844,
      0.03334806486964226,   -0.007221081759780645, -0.0051762862130999565,
      -0.015171303413808346, 0.002044723369181156,  0.079621322453022,
      0.0029812841676175594, 0.03227519989013672,   0.02570902183651924,
      0.022163525223731995,  0.06653051823377609,   -0.019718170166015625,
      0.013775838539004326,  -0.027499744668602943, 0.0023173626977950335,
      0.07896687835454941,   -0.0487857311964035,   -0.027681386098265648,
      -0.0272854994982481},

     {-0.048569031059741974,  -0.04611862450838089,  -0.006266457028687,
      0.005350532475858927,   0.05830414593219757,   -0.0481158010661602,
      0.008509383536875248,   0.00316547485999763,   0.01371247973293066,
      -0.008520931005477905,  0.04993079602718353,   -0.010007688775658607,
      -0.02546493150293827,   0.05101098492741585,   -0.011842301115393639,
      0.054595429450273514,   0.0345216765999794,    -0.003703976282849908,
      0.021968064829707146,   -0.025337882339954376, 0.015359451062977314,
      -0.0015081505989655852, -0.015694361180067062, 0.004916070029139519,
      -0.022027133032679558},

     {0.026552844792604446,  -0.022647976875305176, -0.02883029729127884,
      0.03886549547314644,   0.03655824065208435,   0.008492435328662395,
      0.007529657334089279,  0.05043581873178482,   0.03550547733902931,
      0.008118880912661552,  0.04921970143914223,   0.020652197301387787,
      -0.024836214259266853, -0.03670624643564224,  -0.01477870810776949,
      0.06340765208005905,   -0.027249589562416077, -0.02170904166996479,
      0.019195182248950005,  -0.003927730489522219, 0.050271693617105484,
      -0.07473433762788773,  -0.07036657631397247,  3.6688292311737314e-05,
      0.0128883495926857},

     {-0.10661542415618896, -0.035453446209430695,  0.031976476311683655,
      0.06859339028596878,  -0.0062718624249100685, -0.09429746866226196,
      -0.06024244427680969, 0.02212020382285118,    0.05596514791250229,
      0.07312358915805817,  -0.03213547542691231,   0.02008054591715336,
      0.06109399348497391,  0.09509187936782837,    0.01834222488105297,
      0.010973155498504639, -0.03363895043730736,   0.0031134255696088076,
      0.07590825110673904,  0.0025077436584979296,  -0.023305192589759827,
      0.04117351025342941,  -0.04441991448402405,   -0.0019962158985435963,
      -0.008263963274657726},

     {0.03589446097612381,    -0.018358292058110237, -0.011955047026276588,
      -0.0023733621928840876, 0.021772490814328194,  -0.010530512779951096,
      0.015120052732527256,   -0.06452570855617523,  -0.036757223308086395,
      0.06273843348026276,    0.07236967235803604,   -0.006842680275440216,
      0.006183313671499491,   0.04355161264538765,   -0.015227586030960083,
      0.008037918247282505,   0.026924582198262215,  -0.041611526161432266,
      0.03675927594304085,    -0.011521498672664165, 0.09869729727506638,
      0.04366754740476608,    -0.03821418434381485,  0.019182860851287842,
      0.01829729788005352},

     {-0.004478952847421169, 0.0020794086158275604, -0.057341109961271286,
      -0.03313140198588371,  0.07296046614646912,   -0.04445692524313927,
      -0.030681084841489792, -0.04926232621073723,  0.034855809062719345,
      0.03702644631266594,   0.03779004141688347,   0.045965395867824554,
      -0.03458068519830704,  0.03221644088625908,   -0.002492765197530389,
      0.02104966901242733,   0.030314071103930473,  -0.036785393953323364,
      0.020458459854125977,  -0.040954891592264175, 0.08574464172124863,
      0.0393747016787529,    0.007189775351434946,  -0.04447435587644577,
      0.021978851407766342},

     {0.037897754460573196,   0.03157398849725723,   -0.03139247000217438,
      0.03843630477786064,    -0.019528934732079506, -0.023797934874892235,
      -0.07935173064470291,   0.0287579745054245,    0.011816340498626232,
      -0.00876594241708517,   -0.03310410678386688,  -0.011737983673810959,
      -0.0038410667330026627, 0.017359785735607147,  -0.018539227545261383,
      -0.0030879471451044083, -0.12111669033765793,  -0.04907187446951866,
      -0.04344996064901352,   -0.058431465178728104, -0.02580222673714161,
      -0.0399622768163681,    -0.018414679914712906, -0.008102056570351124,
      -0.011221585795283318},

     {0.0016541755758225918, 0.027008097618818283,  0.04049563780426979,
      0.05239472910761833,   0.011962720192968845,  -0.04043452441692352,
      0.02777188830077648,   -0.01543265487998724,  0.01742257922887802,
      0.05543207377195358,   0.06073139235377312,   0.015403475612401962,
      0.014703336171805859,  -0.044093649834394455, 0.0117988595739007,
      0.07822810113430023,   0.03155198693275452,   0.025529872626066208,
      -0.04168839752674103,  0.042523790150880814,  0.09478224068880081,
      0.02399469166994095,   0.025924457237124443,  -0.05097278580069542,
      0.012626329436898232},

     {-0.04411621391773224,  -0.02466387115418911,   0.04517103731632233,
      0.026370881125330925,  0.021160705015063286,   -0.007290683686733246,
      0.05373521149158478,   -0.028940239921212196,  0.011273464187979698,
      0.07047440111637115,   -0.05505584552884102,   0.030729996040463448,
      0.04709973558783531,   -0.0012558242306113243, 0.03282572329044342,
      -0.007217487320303917, 0.0035957382060587406,  0.026088383048772812,
      0.015955794602632523,  -0.009457002393901348,  -0.0316188745200634,
      0.06904136389493942,   -0.0035647323820739985, -0.04024144262075424,
      -0.027972646057605743}},

    {{0.02461816743016243,   0.019223304465413094, -0.030973104760050774,
      -0.021454596891999245, -0.01164245419204235, -0.055440936237573624,
      0.030103962868452072,  0.035972122102975845, 0.0075780064798891544,
      -0.034482453018426895, -0.03503442928195,    -0.010288121178746223,
      -0.00454947492107749,  -0.04481977969408035, -0.037783168256282806,
      -0.044001590460538864, -0.04561813548207283, 0.03180062025785446,
      -0.010221298784017563, 0.025698058307170868, -0.004988603759557009,
      0.01980174519121647,   0.026556791737675667, -0.049890752881765366,
      0.011726179160177708},

     {-0.04119177535176277, 0.04057205095887184,   0.032533060759305954,
      0.07739943265914917,  0.03849168121814728,   -0.031178640201687813,
      -0.03280555456876755, 0.07932139188051224,   0.04118720442056656,
      0.06872005015611649,  -0.02210124582052231,  0.018779275938868523,
      0.01317409798502922,  0.00909675844013691,   0.03536023944616318,
      0.022855227813124657, 0.03233473747968674,   0.060331713408231735,
      0.027042629197239876, -0.012776089832186699, -0.056327275931835175,
      0.042163655161857605, -0.008436119183897972, -0.0016019322210922837,
      -0.03902629390358925},

     {-0.038476668298244476, 0.011447299271821976,  -0.033745307475328445,
      -0.013244695030152798, 0.008978093974292278,  0.02620391920208931,
      0.028978629037737846,  -0.035508155822753906, -0.024937773123383522,
      -0.023286176845431328, -0.03502797707915306,  -0.01591542735695839,
      -0.007793614640831947, 0.03834715858101845,   0.009027033112943172,
      -0.04225333034992218,  0.018375324085354805,  0.040639594197273254,
      -0.015448521822690964, 0.03527981415390968,   0.026887496933341026,
      -0.036281995475292206, 0.03939064219594002,   0.009633229114115238,
      0.00719744386151433},

     {0.040170736610889435,  -0.02790953405201435,  0.04942717030644417,
      0.050057630985975266,  -0.025429898872971535, 0.01779821142554283,
      -0.01937083527445793,  0.036294106394052505,  -0.02697310410439968,
      -0.035343047231435776, -0.05397677421569824,  -0.032634224742650986,
      -0.03909292072057724,  0.0219904575496912,    -0.00048013479681685567,
      0.029098061844706535,  0.040437739342451096,  0.02317477948963642,
      0.01762809045612812,   -0.02319440245628357,  0.04527593031525612,
      0.04168562963604927,   0.05821331590414047,   0.049981601536273956,
      -0.008581708185374737},

     {-0.02120399847626686,  -0.008792412467300892, -0.03897617757320404,
      0.02640586532652378,   0.04575647413730621,   0.03671002760529518,
      -0.030199212953448296, 0.01846821792423725,   0.010423882864415646,
      0.04701904207468033,   -0.01440236996859312,  0.0042534745298326015,
      -0.05883808061480522,  -0.00949912890791893,  0.04961659014225006,
      0.051718488335609436,  0.04589426517486572,   -0.04782833531498909,
      0.007510960102081299,  -0.05184970796108246,  -0.057270925492048264,
      0.02452109009027481,   -0.038901641964912415, -0.019457655027508736,
      -0.001030712854117155},

     {0.05166850984096527,   -0.012023167684674263, 0.0024047521874308586,
      0.034278951585292816,  0.01948026567697525,   -0.0021596834994852543,
      -0.010430273599922657, 0.05157468467950821,   0.03666876256465912,
      -0.01793130673468113,  -0.00843361672013998,  0.0511745922267437,
      -0.01380663737654686,  -0.0306930523365736,   -0.013942120596766472,
      0.06803420186042786,   0.051873840391635895,  -0.04550502821803093,
      -0.08246256411075592,  -0.0327116884291172,   0.04230809956789017,
      0.051368359476327896,  0.000755633634980768,  0.009628958068788052,
      0.02651645429432392},

     {-0.029819471761584282,   -0.0029932991601526737,  0.0393870547413826,
      -0.0385139174759388,     -0.02047845534980297,    -0.041310474276542664,
      -0.00034960347693413496, -0.01517429668456316,    -0.0055618807673454285,
      -0.025609314441680908,   -0.06790897250175476,    -0.06261812895536423,
      -0.021925076842308044,   -0.00023702261387370527, -0.009980444796383381,
      -0.03786808252334595,    0.03900998830795288,     -0.030525362119078636,
      -0.028836028650403023,   -0.04908673092722893,    -0.05808939039707184,
      0.04491998255252838,     -0.021433429792523384,   0.008664675988256931,
      -0.014659292995929718},

     {0.014201542362570763,  0.04114316776394844,   -0.011178484186530113,
      -0.0245520006865263,   -0.015415927395224571, -0.021311528980731964,
      -0.00432910630479455,  0.047273725271224976,  0.03297286108136177,
      0.037409283220767975,  -0.034851666539907455, -0.039536766707897186,
      -0.035351645201444626, 0.0126074543222785,    -0.04397204518318176,
      -0.05703163892030716,  -0.07345811277627945,  0.025030674412846565,
      0.028064092621207237,  -0.03054056502878666,  -0.02555033005774021,
      -0.05442168191075325,  -0.05097091197967529,  -0.0470682792365551,
      -0.04848165065050125},

     {0.023412801325321198,  0.009996331296861172, -0.0023484055418521166,
      0.06085860729217529,   0.05653359368443489,  0.05518539622426033,
      0.020058536902070045,  0.06706883013248444,  0.03554621711373329,
      -0.002171650994569063, 0.03936062753200531,  0.046198245137929916,
      0.06563996523618698,   0.036540258675813675, -0.020340468734502792,
      0.06138996034860611,   0.01757262833416462,  0.06098426878452301,
      0.029176698997616768,  -0.05969831347465515, 0.049369703978300095,
      0.07846181094646454,   0.06295685470104218,  -0.010500302538275719,
      -0.029374442994594574},

     {-0.029414460062980652, 0.04626016691327095,    0.022488372400403023,
      0.05871496722102165,   -0.0015133110573515296, 0.03055397979915142,
      0.06806530058383942,   0.039791565388441086,   0.05508096143603325,
      -0.016856329515576363, 0.05344295874238014,    0.057622309774160385,
      0.04496235027909279,   -0.038754019886255264,  0.009789637289941311,
      -0.009627903811633587, 0.033279046416282654,   0.030310064554214478,
      -0.04557684808969498,  -0.08148166537284851,   0.047577936202287674,
      0.07637305557727814,   0.002535101491957903,   -0.07058251649141312,
      -0.02545013464987278},

     {-0.035751644521951675, -0.007816866971552372, -0.010475975461304188,
      0.05109073966741562,   0.06319782137870789,   0.01159374974668026,
      0.018407417461276054,  0.07056685537099838,   0.07469342648983002,
      0.017420053482055664,  -0.03174014762043953,  0.020618746057152748,
      -0.022421635687351227, -0.03927527368068695,  -0.06910312920808792,
      0.02576107531785965,   -0.03102881833910942,  -0.018297318369150162,
      0.04955516383051872,   0.0158366821706295,    -0.05069055035710335,
      0.033134616911411285,  0.036897581070661545,  -0.022572102025151253,
      -0.007153169251978397},

     {0.06274361163377762,   0.1061379462480545,    0.08643486350774765,
      0.020455852150917053,  0.0009415940730832517, 0.04920352250337601,
      0.11964938044548035,   0.08301358669996262,   0.033321429044008255,
      0.0555865578353405,    0.08896504342556,      0.09925809502601624,
      0.06971979886293411,   0.07059837132692337,   0.01258561760187149,
      -0.00319502130150795,  -0.005457988474518061, 0.055267542600631714,
      0.08757931739091873,   -0.04845062270760536,  0.03159229829907417,
      0.04765857011079788,   0.03635895997285843,   0.04253026843070984,
      -0.0020824186503887177},

     {-0.016284523531794548, 0.02208137884736061,  0.015268283896148205,
      0.007730942685157061,  0.04450743645429611,  -0.044352155178785324,
      0.006645618937909603,  0.0115040959790349,   0.04223649576306343,
      0.011672486551105976,  0.06285441666841507,  0.004333884920924902,
      0.06867485493421555,   0.020512288436293602, -0.012741854414343834,
      0.06253820657730103,   -0.03682268038392067, 0.026374762877821922,
      0.06660525500774384,   0.02946600131690502,  0.033844370394945145,
      -0.04381920397281647,  0.026176072657108307, -0.02183183655142784,
      0.015643129125237465},

     {-0.011398717761039734, 0.051145222038030624,  0.06244807317852974,
      0.03439333662390709,   0.03574540093541145,   0.040804751217365265,
      0.02355395257472992,   0.03331039100885391,   -0.050359245389699936,
      0.010732196271419525,  -0.04190832003951073,  0.009412077255547047,
      0.024970166385173798,  -0.049827802926301956, -0.0467010959982872,
      -0.007532267831265926, -0.01905747316777706,  -0.018068643286824226,
      -0.05513148009777069,  0.023680107668042183,  0.06099947169423103,
      0.08802654594182968,   0.03017917089164257,   0.06708893924951553,
      0.03968420252203941},

     {0.023905327543616295,  0.041168417781591415, 0.05416199192404747,
      0.021059440448880196,  0.03252008184790611,  -0.028206605464220047,
      0.02468579076230526,   0.02309277281165123,  -0.019965102896094322,
      0.026098497211933136,  0.020019104704260826, 0.028235813602805138,
      0.03009703941643238,   0.04869752377271652,  0.04388774558901787,
      -0.006288436707109213, 0.06334637105464935,  0.04348597675561905,
      0.05375204607844353,   0.024206502363085747, -0.018469639122486115,
      0.053816985338926315,  0.007431989070028067, 0.055918291211128235,
      0.03733018785715103},

     {0.02843523398041725,    -0.02519949898123741,  0.05485233664512634,
      -0.01367409247905016,   -0.0221159178763628,   -0.020756272599101067,
      -0.024042261764407158,  0.043493419885635376,  0.048794835805892944,
      0.0362853966653347,     -0.0732303187251091,   -0.05013688653707504,
      0.04172968864440918,    -0.018090838566422462, 0.03692593798041344,
      -0.0024326518177986145, -0.01744009181857109,  0.03669918328523636,
      -0.03331710398197174,   -0.0438249297440052,   -0.029904412105679512,
      -0.06780856847763062,   -0.03697763755917549,  0.04668140783905983,
      -0.03804342448711395}},

    {{-0.04182682931423187,  -0.08655653893947601,   -0.07360424846410751,
      -0.03639308363199234,  -0.0071509964764118195, -0.05576572194695473,
      -0.023487113416194916, -0.09066419303417206,   -0.09519646316766739,
      -0.005442949011921883, 0.022742047905921936,   -0.005760957486927509,
      -0.09631450474262238,  -0.08901742100715637,   -0.04591193050146103,
      -0.027081696316599846, 0.04785030335187912,    -0.044592034071683884,
      -0.05873121693730354,  0.043630450963974,      0.03065415471792221,
      0.0074233016930520535, 0.07544221729040146,    -0.011320550926029682,
      -0.011425142176449299},

     {-0.040539149194955826, -0.052294954657554626,  -0.02722230926156044,
      0.03378109633922577,   -0.0018417560495436192, -0.04275289177894592,
      -0.00847974605858326,  -0.06180628016591072,   -0.014527253806591034,
      -0.02506418339908123,  -0.08027324825525284,   -0.028720038011670113,
      -0.03865901753306389,  -0.047411948442459106,  0.011295919306576252,
      -0.04553890600800514,  -0.09971737116575241,   -0.022777104750275612,
      0.033142782747745514,  0.03419544920325279,    -0.041000016033649445,
      -0.05977234989404678,  -0.007115865126252174,  -0.032826680690050125,
      -0.011740448884665966},

     {-0.05328487977385521,  -0.01753869280219078, -0.06093168258666992,
      -0.014587325043976307, 0.04231669008731842,  0.032833900302648544,
      -0.03996438905596733,  0.01087270025163889,  0.03842630237340927,
      -0.01311883982270956,  0.01363042090088129,  -0.011524112895131111,
      -0.062092456966638565, 0.017949627712368965, 0.08123723417520523,
      0.07743272930383682,   0.039850182831287384, -0.0014343135990202427,
      0.05936237424612045,   0.06237199530005455,  0.07808591425418854,
      0.04364282265305519,   0.03565705940127373,  0.04246268421411514,
      -0.02173207886517048},

     {0.026713406667113304,   0.020957835018634796,  0.04785407707095146,
      0.04520195722579956,    0.03020486608147621,   -0.07003633677959442,
      -0.062627874314785,     -0.03977489098906517,  -0.016477622091770172,
      -0.010478658601641655,  -0.048182033002376556, 0.015092678368091583,
      0.036565374583005905,   -0.025755060836672783, 0.01810065284371376,
      -0.0003689673321787268, -0.051109250634908676, 0.012389995157718658,
      -0.0393836684525013,    -0.008919869549572468, 0.06166200339794159,
      -0.030659332871437073,  0.041316695511341095,  0.030761057510972023,
      0.015003169886767864},

     {-0.08783890306949615,  -0.05484877899289131,  -0.03366081044077873,
      -0.06933320313692093,  -0.011716327629983425, -0.020822566002607346,
      -0.07519658654928207,  -0.049512241035699844, -0.044041167944669724,
      0.050687771290540695,  0.0735134482383728,    0.0241394005715847,
      -0.06059768423438072,  -0.029762813821434975, -0.004253299441188574,
      0.07013349235057831,   0.009014731273055077,  0.030828507617115974,
      -0.045642029494047165, -0.038212619721889496, 0.09658946096897125,
      0.06801623851060867,   0.0335858017206192,    -0.054566580802202225,
      -0.013151773251593113},

     {-0.017253585159778595, -0.0654071494936943,   -0.0319400280714035,
      0.06881286203861237,   0.08152128010988235,   -0.001330642611719668,
      0.024019118398427963,  0.022158248350024223,  0.018402934074401855,
      0.11936920136213303,   -0.03605573624372482,  0.02450631558895111,
      -0.03998223692178726,  -0.005665316712111235, 0.038774605840444565,
      0.0001411816629115492, 0.06753323972225189,   0.003841369180008769,
      -0.029848378151655197, 0.04252989962697029,   0.03923807293176651,
      0.12587317824363708,   0.0073829712346196175, -0.046160660684108734,
      -0.03679421544075012},

     {0.016603851690888405, 0.0054250555112957954, 0.004971025977283716,
      0.05035386607050896,  0.05044560879468918,   0.012822992168366909,
      0.02199135161936283,  -0.036139052361249924, 0.0158962644636631,
      0.06942658126354218,  0.03570084646344185,   0.020483145490288734,
      -0.05822264775633812, 0.007914306595921516,  0.06806536018848419,
      0.02657570131123066,  0.018026528880000114,  0.013696313835680485,
      0.04391559585928917,  0.035637903958559036,  -0.0026543920394033194,
      0.01654277741909027,  0.0041147079318761826, 0.013570033013820648,
      0.023600513115525246},

     {-0.09759411215782166,  -0.08154378831386566, -0.03140486776828766,
      -0.04963664337992668,  0.009846079163253307, -0.08923301845788956,
      -0.08248966187238693,  -0.06098587065935135, -0.04302126541733742,
      0.005216293968260288,  0.010649158619344234, 0.0025792403612285852,
      -0.019670618698000908, -0.06153769791126251, -0.01524598989635706,
      -0.008882606402039528, 0.03924454003572464,  -0.02619190141558647,
      -0.05091007426381111,  -0.06238425523042679, 0.08012650907039642,
      0.08207084983587265,   0.002412190195173025, 0.015009957365691662,
      0.0045059481635689735},

     {-0.06437181681394577,    -0.007118569687008858, 0.0906071662902832,
      0.10152450948953629,     0.04597722738981247,   -0.08458739519119263,
      -0.02245095744729042,    -0.06638540327548981,  0.01757010444998741,
      -1.7509957615402527e-05, 0.036941222846508026,  -0.07795032858848572,
      -0.03324132412672043,    -0.008100055158138275, -0.0794941633939743,
      0.05416767671704292,     0.025286395102739334,  -0.07341940701007843,
      0.0036961939185857773,   -0.03508424758911133,  0.028089558705687523,
      0.03360364958643913,     0.06267473101615906,   0.04336510971188545,
      -0.023999599739909172},

     {0.01788518950343132,    -0.017952561378479004, -0.04703429341316223,
      0.018100230023264885,   0.08256662636995316,   0.00396303553134203,
      -0.013649024069309235,  -0.047986701130867004, 0.037129200994968414,
      0.06547811627388,       0.07814255356788635,   -0.007464171387255192,
      0.015540236607193947,   -0.023108307272195816, 0.005957132671028376,
      -0.0073999520391225815, 0.09234342724084854,   0.01904217340052128,
      0.01905093900859356,    -0.0501057393848896,   0.09145956486463547,
      0.05739712342619896,    0.01811021938920021,   -0.01862400583922863,
      -0.051828935742378235},

     {-0.031539492309093475, -0.0068724872544407845, 0.06894045323133469,
      0.08412164449691772,   0.07676829397678375,    -0.021341873332858086,
      0.0474286824464798,    -0.003562790807336569,  0.05502383038401604,
      0.06609708070755005,   -0.02125772088766098,   -0.009258956648409367,
      0.050742533057928085,  -0.002637442434206605,  -0.054274626076221466,
      -0.062132008373737335, -0.049932580441236496,  0.034999918192625046,
      0.03203893452882767,   0.004998703487217426,   0.016210872679948807,
      0.02219352312386036,   0.0194777213037014,     -0.004724123049527407,
      -0.00992952473461628},

     {-0.027098683640360832, -0.049835506826639175, -4.429427281138487e-05,
      -0.05485289543867111,  -0.012374736368656158, 0.01530948095023632,
      -0.053648725152015686, -0.045202720910310745, -0.026077281683683395,
      -0.07691214978694916,  0.01983039826154709,   -0.009609699249267578,
      -0.10174117982387543,  -0.07672432065010071,  -0.02911180444061756,
      -0.020815668627619743, -0.00469687394797802,  -0.04824302718043327,
      -0.02350246161222458,  -0.056806355714797974, 0.008550288155674934,
      -0.015289075672626495, -0.0500667430460453,   -0.0376182459294796,
      -0.03497804328799248},

     {-0.09454060345888138,   -0.051733314990997314,  -0.005677578039467335,
      0.014192205853760242,   -0.05810169503092766,   -0.0026632652152329683,
      -0.05679365620017052,   -0.05361916869878769,   0.013682650402188301,
      -0.0003976561420131475, -0.016556324437260628,  -0.02628491446375847,
      -0.050960738211870193,  0.04241173714399338,    0.025081055238842964,
      0.007978086359798908,   0.07068004459142685,    0.023657336831092834,
      0.004698702599853277,   -0.0021734610199928284, 0.027881713584065437,
      0.056898586452007294,   0.005054769106209278,   0.012073934078216553,
      -0.007291112095117569},

     {0.007083558011800051,    -0.000765517761465162, 0.023322420194745064,
      -0.04912446811795235,    0.09135752171278,      -0.009801821783185005,
      0.005129841156303883,    -0.008067668415606022, 0.019285734742879868,
      0.0284205824136734,      -0.03394476696848869,  -0.020868079736828804,
      0.03659989684820175,     0.02079581841826439,   0.03290582820773125,
      0.05009971559047699,     0.04016309604048729,   -0.04340832307934761,
      -0.00026425032410770655, 0.03918442875146866,   0.09056185185909271,
      -0.00014371832367032766, -0.04617789015173912,  0.027642637491226196,
      0.044065337628126144},

     {-0.09299196302890778,   -0.08261270821094513, -0.024102481082081795,
      0.020100487396121025,   0.04037926718592644,  -0.0007053025183267891,
      -0.08316342532634735,   -0.10783616453409195, -0.013855422846972942,
      -0.028559768572449684,  0.032422877848148346, 0.028645241633057594,
      -0.05337446555495262,   0.007211154326796532, -0.044914644211530685,
      0.021192185580730438,   0.0728144645690918,   -0.009273627772927284,
      0.00040024981717579067, -0.04246723651885986, 0.09825295954942703,
      0.09990034252405167,    0.07767506688833237,  -0.041077785193920135,
      -0.05788132920861244},

     {-0.10600997507572174,  -0.07519254833459854, -0.018723690882325172,
      0.03439745306968689,   0.01159447431564331,  -0.02168341726064682,
      -0.07696616649627686,  -0.0654611811041832,  -0.022953279316425323,
      3.271103560109623e-05, -0.04711749032139778, -0.039474476128816605,
      0.06395836174488068,   0.009685035794973373, 0.04868903011083603,
      0.048411931842565536,  0.004085003398358822, -0.01705564372241497,
      0.050714462995529175,  0.030935658141970634, 0.04962544143199921,
      0.0796927809715271,    0.04809689521789551,  -0.015094859525561333,
      -0.023566531017422676}},

    {{0.006793567910790443,  -0.027315959334373474,  0.03580057621002197,
      0.009197373874485493,  -0.0007373494445346296, 0.015287989750504494,
      0.0017553457291796803, 0.0018745532725006342,  -0.04957324638962746,
      0.03368595615029335,   -0.0002465150028001517, 0.06379987299442291,
      0.03748273849487305,   0.05285291373729706,    0.03694331273436546,
      -0.03758758306503296,  -0.010156981647014618,  0.03171869367361069,
      0.043709199875593185,  0.028738072142004967,   -0.01751525327563286,
      0.04729907959699631,   -0.04669313132762909,   0.0348031185567379,
      0.04195427522063255},

     {0.004295073915272951,   -0.027982424944639206, -0.037908509373664856,
      -0.0007612426998093724, -0.006611005403101444, 0.021446656435728073,
      0.054832275956869125,   -0.009352372959256172, 0.05437115579843521,
      0.05305057391524315,    0.002051216783002019,  0.04437192156910896,
      -0.006470224354416132,  0.01361924223601818,   0.06311001628637314,
      -0.054126571863889694,  -0.018943995237350464, -0.011776715517044067,
      0.06351161003112793,    0.048617370426654816,  -0.005536365322768688,
      -0.0264417827129364,    -0.015608811751008034, -0.020811626687645912,
      0.020703289657831192},

     {-0.019859738647937775,  0.03141845017671585,   0.04695092886686325,
      0.0018045041942968965,  0.024418417364358902,  -0.008678071200847626,
      -0.03615310788154602,   0.012169044464826584,  -0.024700677022337914,
      0.028675269335508347,   -0.0074623953551054,   -0.007962402887642384,
      0.031125307083129883,   0.020606614649295807,  -0.032891515642404556,
      2.3993612558115274e-05, 0.047178059816360474,  0.05071922764182091,
      0.020360421389341354,   -0.0571521632373333,   0.011594711802899837,
      0.028663460165262222,   -0.004581868182867765, -0.03696407750248909,
      -0.046986594796180725},

     {0.04910704120993614,  -0.010435101576149464, -0.028057513758540154,
      0.0436720997095108,   -0.033430278301239014, 0.018615789711475372,
      -0.00803570356220007, 0.011162202805280685,  -0.03274720162153244,
      -0.03676743432879448, -0.03166549652814865,  0.01391488965600729,
      0.019600337371230125, -0.02051563188433647,  -0.049911171197891235,
      -0.01933608576655388, -0.03168638050556183,  0.051138460636138916,
      -0.04836583137512207, -0.028918547555804253, 0.012358954176306725,
      -0.01124664768576622, 0.04132871702313423,   0.012279634363949299,
      0.014471153728663921},

     {0.0662444606423378,     0.026176676154136658,   0.013365725986659527,
      -0.0008941685664467514, -0.033976323902606964,  0.04341444745659828,
      0.043874286115169525,   -0.011596467345952988,  0.05727507174015045,
      0.019293958321213722,   0.008877888321876526,   0.023278402164578438,
      0.03594788536429405,    0.06862365454435349,    0.05977485701441765,
      0.0032448959536850452,  -0.0024061966687440872, 0.003703085007146001,
      -0.03600168228149414,   0.02685641311109066,    -0.029132740572094917,
      0.009942986071109772,   0.02116500586271286,    -0.010053669102489948,
      -0.002489164937287569},

     {0.036330074071884155,  0.010192438028752804,  -0.03564048931002617,
      -0.007786772213876247, -0.03892673924565315,  0.04123086854815483,
      0.002734994050115347,  0.017871707677841187,  0.02796897478401661,
      -0.02538926713168621,  -0.016723765060305595, -0.01976354606449604,
      0.005904536694288254,  -0.002394068753346801, 0.020536623895168304,
      -0.035769544541835785, 0.01671646162867546,   0.04537862911820412,
      0.009129787795245647,  -0.026060108095407486, 0.019166693091392517,
      0.0457005575299263,    -0.01140336412936449,  -0.0005168385105207562,
      -0.0037614263128489256},

     {0.021506059914827347,  -0.03289921209216118,  0.026821348816156387,
      -0.013154372572898865, 0.03519485145807266,   0.004160142038017511,
      -0.014227709732949734, -0.007604313548654318, -0.013618642464280128,
      0.020031899213790894,  0.04041692987084389,   -0.02329249493777752,
      0.05342639610171318,   -0.05138358473777771,  -0.03423350676894188,
      0.024174831807613373,  0.032053861767053604,  0.00464188726618886,
      -0.03040033020079136,  -0.018439916893839836, 0.029537521302700043,
      -0.013110021129250526, 0.04090685397386551,   -0.018751999363303185,
      -0.009652897715568542},

     {0.03086792677640915,  0.0058816601522266865, 0.00031778612174093723,
      0.01386144571006298,  -0.03235684335231781,  0.012631273828446865,
      0.02190117910504341,  0.008567748591303825,  0.0034626461565494537,
      0.03398839384317398,  -0.03314623981714249,  -0.01369852852076292,
      0.004457365721464157, 0.051573093980550766,  0.03829347342252731,
      0.01828503981232643,  0.02462889440357685,   -0.025516435503959656,
      -0.01821201480925083, -0.022796660661697388, 0.018802152946591377,
      -0.02111061103641987, -0.010752489790320396, 0.02733708545565605,
      -0.004697395954281092},

     {-0.014578287489712238, 0.04349232837557793,    0.013726118952035904,
      -0.04356663301587105,  0.03557739779353142,    0.0662810280919075,
      -0.014150410890579224, 0.017214618623256683,   -0.00363732548430562,
      -0.02779977396130562,  -0.0015367286978289485, 0.006307809613645077,
      0.06563837081193924,   0.0032342940103262663,  0.008044029586017132,
      0.034643225371837616,  0.01789092645049095,    0.01955447718501091,
      -0.022830979898571968, -0.009258066304028034,  0.020907577127218246,
      0.022237088531255722,  0.04844651371240616,    -0.0004141000681556761,
      -0.014567431062459946},

     {-0.00648906547576189,  -0.023143304511904716, 0.059288136661052704,
      0.017208129167556763,  -0.021522097289562225, 0.026497425511479378,
      0.0009751561447046697, -0.003583319252356887, -0.003496660850942135,
      0.018844829872250557,  0.011809084564447403,  0.019539818167686462,
      0.04986126720905304,   0.05758418142795563,   -0.01796538010239601,
      0.004690877161920071,  0.008136422373354435,  0.02356570027768612,
      -0.046376366168260574, -0.0656900554895401,   0.03125016391277313,
      0.016807259991765022,  -0.02303578332066536,  -0.05006247013807297,
      0.0022368915379047394},

     {0.024974141269922256,   0.040737174451351166,  0.041752371937036514,
      -0.027073994278907776,  -0.018387336283922195, 0.035827018320560455,
      -0.03128064423799515,   0.04581456631422043,   0.022293182089924812,
      -0.028704287484288216,  -0.02988947555422783,  -0.00796993263065815,
      -0.012510973028838634,  -0.023143479600548744, -0.016275446861982346,
      0.010384838096797466,   0.012627293355762959,  0.026326347142457962,
      -0.0023617143742740154, 0.03378062695264816,   -0.00876204390078783,
      0.0349552258849144,     -0.009570774622261524, 0.045551497489213943,
      0.015074050985276699},

     {0.033726464956998825,  0.04568713903427124,   -0.03841249644756317,
      -0.02534320391714573,  -0.053958795964717865, -0.02289954200387001,
      -0.019304582849144936, -0.004332067910581827, -0.0282705407589674,
      0.06572221219539642,   -0.00316641409881413,  0.03030235320329666,
      0.055397238582372665,  0.0778304785490036,    0.06145830824971199,
      0.018648510798811913,  -0.03000245988368988,  0.035734210163354874,
      0.0035695137921720743, 0.0020210754591971636, 0.0280454121530056,
      -0.01370773185044527,  -0.023760002106428146, 0.03400476649403572,
      0.013044708408415318},

     {0.0018890283536165953,  -0.00027468439657241106, -0.011879358440637589,
      0.005345503333956003,   -0.04776749014854431,    0.0016429242677986622,
      0.012567857280373573,   0.051818061619997025,    0.04993962123990059,
      0.021882737055420876,   -0.015340408310294151,   -0.013708368875086308,
      0.0035567572340369225,  0.031552642583847046,    -0.06534738093614578,
      -0.0062157451175153255, 0.05812692642211914,     0.008890514262020588,
      0.07731172442436218,    0.02231203392148018,     0.021952271461486816,
      -0.03799448534846306,   0.03347315266728401,     0.08002806454896927,
      0.02434494160115719},

     {-0.01371802482753992, -0.019987570121884346, 0.004643314052373171,
      -0.03088434971868992, 0.03134079650044441,   0.04434190317988396,
      0.01835678704082966,  0.00651277182623744,   -0.024628452956676483,
      0.017004702240228653, 0.04355420917272568,   0.020184597000479698,
      0.004242580849677324, -0.05162746086716652,  -0.01103530265390873,
      0.024819668382406235, 0.00399905676022172,   0.009332996793091297,
      -0.01605595462024212, 0.01474704034626484,   -0.060441140085458755,
      0.01974315382540226,  0.04100833460688591,   0.03675350919365883,
      -0.05896983668208122},

     {0.03407060727477074,   -0.007951086387038231, -0.009194019250571728,
      0.0057458593510091305, -0.05021574720740318,  -0.03670313209295273,
      0.008836569264531136,  0.013700407929718494,  0.04741997271776199,
      0.011429277248680592,  0.06340403109788895,   0.06218312308192253,
      -0.016734765842556953, 0.0517495721578598,    0.0554431714117527,
      0.041868604719638824,  -0.023117948323488235, -0.009575913660228252,
      0.0677640289068222,    0.05553152784705162,   -0.023630617186427116,
      0.004401540383696556,  0.03772606700658798,   0.03933660313487053,
      0.05618630722165108},

     {-0.045901425182819366, 0.027715926989912987,   -0.050222840160131454,
      0.017113802954554558,  -0.03185979649424553,   -0.01372365839779377,
      0.001855625188909471,  0.012925018556416035,   -0.012025488540530205,
      0.028668608516454697,  0.006891680881381035,   -0.0027997964061796665,
      -0.001143711619079113, 0.03344552963972092,    -0.018738631159067154,
      0.02347395196557045,   0.04792802035808563,    0.019555028527975082,
      0.03353646770119667,   -0.0050529357977211475, -0.03467198833823204,
