#ifndef WEIGHT1_H_
#define WEIGHT1_H_

ap_fixed<8, 1> WEIGHT1[2][16][25] = {
    {{0.015068617649376392,  -0.05067317560315132,  -0.143398255109787,
      0.05043709650635719,   -0.04000945761799812,  0.0643429234623909,
      -0.08140316605567932,  -0.015522386878728867, -0.15365441143512726,
      -0.0447089858353138,   -0.03082899935543537,  -0.03139835596084595,
      -0.12707677483558655,  0.03259245306253433,   -0.07987770438194275,
      -0.013167507015168667, -0.09991739690303802,  0.08947327733039856,
      0.06366296112537384,   -0.15329678356647491,  0.005585235543549061,
      0.04579911008477211,   -0.03484516590833664,  0.005554831586778164,
      -0.038641348481178284},

     {0.11001503467559814,  0.023855455219745636,  0.041263893246650696,
      0.1085253581404686,   -0.09384611248970032,  -0.04331366717815399,
      0.11590832471847534,  -0.021962374448776245, -0.05739591643214226,
      -0.09483551979064941, 0.03660044074058533,   -0.007431306876242161,
      -0.06003273278474808, -0.006189999636262655, 0.03776070103049278,
      0.10814027488231659,  -0.08503348380327225,  -0.07464176416397095,
      -0.12590980529785156, -0.11753911525011063,  -0.08470652252435684,
      0.14435866475105286,  0.04619355872273445,   -0.032987236976623535,
      -0.07757694274187088},

     {0.08714590221643448,   -0.06805087625980377,  -0.041302766650915146,
      0.14918941259384155,   0.08961620926856995,   -0.06550668179988861,
      0.04392131790518761,   0.05714136362075806,   -0.053933631628751755,
      0.16481812298297882,   -0.055967796593904495, -0.012572971172630787,
      -0.1043422669172287,   -0.11835139989852905,  -0.0555427260696888,
      0.011806795373558998,  0.12151602655649185,   -0.08881015330553055,
      -0.051146965473890305, 0.05372628569602966,   -0.0628456324338913,
      0.10214637964963913,   0.13186655938625336,   -0.08825375884771347,
      -0.048774026334285736},

     {-0.03677322715520859,  -0.1536073237657547,   0.006880601868033409,
      -0.06991630047559738,  0.1523221731185913,    -0.13194742798805237,
      -0.005498907063156366, 0.06615526229143143,   0.015331238508224487,
      -0.027103330940008163, 0.03646509721875191,   -0.08304870873689651,
      -0.023000989109277725, 0.11314432322978973,   0.10690359026193619,
      -0.10376275330781937,  -0.021466875448822975, 0.150689959526062,
      0.15263664722442627,   -0.1063741073012352,   -0.039625681936740875,
      -0.07770134508609772,  -0.10714352875947952,  0.18616415560245514,
      0.16475734114646912},

     {0.1231459528207779,    -0.10665121674537659, -0.010772746056318283,
      0.041270263493061066,  0.11508222669363022,  -0.11871418356895447,
      -0.011124805547297001, -0.03289550542831421, 0.03062249906361103,
      -0.018950995057821274, -0.0620223730802536,  -0.015138570219278336,
      -0.061045195907354355, 0.133592426776886,    -0.08972562849521637,
      -0.023910008370876312, -0.08596479892730713, -0.03434416279196739,
      -0.13522759079933167,  -0.02325274422764778, -0.11517070233821869,
      -0.03791606426239014,  0.10227452218532562,  -0.09695607423782349,
      0.03748355433344841},

     {-0.04590408131480217, -0.12581875920295715,  -0.11506463587284088,
      0.07820731401443481,  0.08426043391227722,   -0.06880746781826019,
      0.07562238723039627,  -0.057501956820487976, 0.014549752697348595,
      0.1251835823059082,   -0.02211870066821575,  0.0051058316603302956,
      -0.06353124231100082, -0.12152427434921265,  0.12637051939964294,
      0.1109037920832634,   -0.02507518045604229,  0.13041087985038757,
      -0.02794259414076805, 0.05290310084819794,   -0.08206593990325928,
      -0.06040198355913162, 0.05773712322115898,   -0.12365467846393585,
      -0.09746398031711578},

     {0.05491415411233902,   0.007842807099223137,  -0.04202187806367874,
      0.07848965376615524,   -0.016984226182103157, -0.02702401764690876,
      -0.09827999770641327,  0.08218294382095337,   -0.10241283476352692,
      0.12166536599397659,   -0.0500972755253315,   0.049251120537519455,
      -0.0633428692817688,   -0.09106957912445068,  0.1546068787574768,
      -0.16613715887069702,  0.12193238735198975,   0.055967144668102264,
      0.12273905426263809,   -0.08914998173713684,  0.0725107192993164,
      -0.019379492849111557, 0.06239818036556244,   0.10206139832735062,
      -0.11030149459838867},

     {0.092429980635643,     0.030642017722129822,  -0.15482355654239655,
      0.02694324404001236,   -0.08381958305835724,  -0.020755672827363014,
      0.0254682507365942,    -0.014304221607744694, -0.1335083246231079,
      0.01834903471171856,   -0.06187358498573303,  -0.10899795591831207,
      0.03882604092359543,   0.05262121558189392,   -0.03481214493513107,
      -0.035868316888809204, 0.026182135567069054,  -0.0981115847826004,
      0.03335026651620865,   -0.08041560649871826,  0.06315531581640244,
      0.01966949738562107,   0.09073930978775024,   0.07460004836320877,
      0.08361241966485977},

     {-0.12098219245672226, -0.12203270941972733,  -0.004153096117079258,
      0.056601639837026596, -0.1339299976825714,   -0.10221967101097107,
      -0.04869179055094719, -0.08206450939178467,  0.0633268877863884,
      0.09003613144159317,  0.02116486243903637,   0.01373902428895235,
      -0.0781954899430275,  -0.05785205587744713,  -0.06750106811523438,
      0.033672116696834564, 0.09416864812374115,   0.02147824317216873,
      0.016039330512285233, -0.016451828181743622, -0.10160017758607864,
      -0.0866716057062149,  0.08409542590379715,   -0.10601876676082611,
      -0.060884989798069},

     {-0.1114584282040596,  -0.053973592817783356,  -0.10478733479976654,
      0.1250731498003006,   0.10095927119255066,    -0.14223434031009674,
      -0.0646735280752182,  -0.0005507122841663659, 0.1352943331003189,
      -0.06991691887378693, -0.008733990602195263,  0.03260056674480438,
      0.04553786665201187,  0.12429023534059525,    0.0997159481048584,
      -0.04263904318213463, 0.07960236072540283,    0.038337159901857376,
      -0.09812586009502411, -0.13015326857566833,   -0.08990952372550964,
      -0.03423883393406868, -0.13030946254730225,   -0.050759028643369675,
      0.0986710637807846},

     {0.11400910466909409,   0.0024864657316356897, -0.023402687162160873,
      -0.1183856725692749,   0.0421425923705101,    -0.08054943382740021,
      0.0008896839572116733, 0.044981472194194794,  0.09110546112060547,
      0.002699320437386632,  0.060839347541332245,  -0.10593681782484055,
      0.07358133047819138,   0.039885882288217545,  0.05576701834797859,
      0.10318682342767715,   0.09147923439741135,   0.10019326210021973,
      0.05830812454223633,   0.005532673094421625,  0.019695859402418137,
      -0.009758763946592808, 0.007034360896795988,  0.16323156654834747,
      -0.029355725273489952},

     {0.08040151745080948,   -0.0003517056757118553, 0.1322145313024521,
      -0.0560406818985939,   -0.14358383417129517,   -0.1008121594786644,
      0.07688962668180466,   0.017377333715558052,   -0.008854472078382969,
      0.003819806734099984,  -0.0735521912574768,    -0.1125819981098175,
      0.009315363131463528,  0.08597145229578018,    0.15642938017845154,
      -0.10276201367378235,  -0.0375746414065361,    -0.02311098761856556,
      -0.1552537977695465,   -0.06226688250899315,   -0.12679165601730347,
      0.10374473035335541,   -0.0773070752620697,    -0.021871736273169518,
      -0.0024594126734882593},

     {0.08340274542570114,   -0.10604365915060043,  -0.07832903414964676,
      -0.008812027052044868, -0.057108134031295776, 0.12063875794410706,
      0.02321135252714157,   -0.05352387949824333,  0.09083350747823715,
      -0.08822230994701385,  -0.10521718859672546,  -0.09318356215953827,
      0.008335737511515617,  -0.12647773325443268,  -0.10780248790979385,
      -0.04488736391067505,  0.14337220788002014,   0.08794372528791428,
      -0.12157116085290909,  0.01781989261507988,   0.1206655204296112,
      -0.11957080662250519,  0.05482838675379753,   0.07062086462974548,
      -0.06071840971708298},

     {-0.010307272896170616, -0.10732895135879517,  -0.008445878513157368,
      0.02113507129251957,   -0.04333962872624397,  0.06805428117513657,
      -0.05797887220978737,  0.05232274904847145,   0.10535696893930435,
      0.10318956524133682,   -0.11546371132135391,  -0.05859073996543884,
      0.12032140046358109,   -0.016299862414598465, 0.09943421185016632,
      -0.01046511996537447,  -0.0599946603178978,   0.055372484028339386,
      -0.030161181464791298, -0.08456064015626907,  0.07781214267015457,
      -0.021892376244068146, -0.08702364563941956,  0.09743651747703552,
      -0.05257932469248772},

     {-0.046544622629880905, -0.10227750986814499, -0.10349789261817932,
      0.10062634944915771,   -0.04348733276128769, -0.06794741004705429,
      -0.08559529483318329,  0.09364928305149078,  0.1117924377322197,
      0.09920372068881989,   -0.07893628627061844, -0.04706402122974396,
      -0.015083788894116879, 0.04180999845266342,  -0.0807797908782959,
      0.06712290644645691,   0.043968673795461655, 0.11540030688047409,
      -0.08328980207443237,  -0.04007989168167114, 0.09179392457008362,
      0.02272779867053032,   -0.07705948501825333, -0.08773200958967209,
      -0.01518123596906662},

     {0.13210733234882355,   -0.05945657938718796, -0.0011090340558439493,
      -0.019435342401266098, -0.10895886272192001, 0.033656634390354156,
      -0.11412956565618515,  -0.1333829164505005,  0.14841075241565704,
      -0.12207703292369843,  0.10025354474782944,  0.0811888575553894,
      0.11798068881034851,   0.09723736345767975,  -0.08946429938077927,
      0.07314909994602203,   -0.06822648644447327, -0.013429290615022182,
      0.13666804134845734,   0.07850122451782227,  -0.06302175670862198,
      0.044126562774181366,  0.10681338608264923,  0.10230270028114319,
      0.08626119047403336}},

    {{0.09145975112915039,    -0.04953524470329285,  -0.006800235249102116,
      -0.0016363031463697553, 0.07251601666212082,   -0.07062703371047974,
      -0.015913646668195724,  0.04762090742588043,   0.055121906101703644,
      0.05897212773561478,    0.05369158461689949,   0.012800776399672031,
      0.13088935613632202,    0.03924962133169174,   0.0942804217338562,
      0.10404586046934128,    -0.006745373364537954, 0.008049015887081623,
      0.01673145405948162,    0.0929928869009018,    0.1357795000076294,
      -0.10808846354484558,   0.038674209266901016,  -0.04790768027305603,
      0.05804005265235901},

     {0.0875498577952385,    0.0478978157043457,   0.13774217665195465,
      -0.006016121245920658, 0.10093583166599274,  -0.11408323049545288,
      -0.10902529209852219,  0.13265448808670044,  -0.09290695190429688,
      0.13382427394390106,   0.011114773340523243, -0.14795546233654022,
      0.10453583300113678,   -0.09460412710905075, 0.03365558758378029,
      -0.15194536745548248,  -0.11017664521932602, -0.06074107065796852,
      0.02452421560883522,   0.14188331365585327,  -0.06924746930599213,
      -0.08615025877952576,  0.1273995190858841,   -0.008386907167732716,
      -0.08228589594364166},

     {-0.09569820016622543,   -0.09536699205636978,  0.023582151159644127,
      0.017894988879561424,   -0.010089635848999023, -0.11118896305561066,
      -0.08811715245246887,   0.03114447183907032,   0.06638605892658234,
      0.09698866307735443,    -0.06331925094127655,  0.05792081356048584,
      -0.0014915851643308997, 0.038212474435567856,  -0.015207546763122082,
      -0.08396925777196884,   0.11175009608268738,   -0.01683838479220867,
      0.1094568595290184,     0.07468441873788834,   0.09155892580747604,
      0.07882821559906006,    0.08294093608856201,   0.13626205921173096,
      -0.10778199881315231},

     {0.049144331365823746, 0.12204995006322861, 0.08088856935501099,
      0.1205412894487381,   0.04313449561595917, -0.03826742619276047,
      0.020420359447598457, 0.08098594099283218, -0.06524902582168579,
      0.1523098647594452,   0.09370680898427963, 0.11129206418991089,
      0.08044493943452835,  0.15922987461090088, -0.002510491292923689,
      -0.03825240209698677, 0.10576263815164566, -0.0900273397564888,
      0.13973085582256317,  0.04810197651386261, -0.11688346415758133,
      -0.12093708664178848, 0.06295802444219589, 0.04372813180088997,
      -0.10867386311292648},

     {-0.06193239986896515,  0.08320863544940948,   -0.05024763569235802,
      -0.009302624501287937, -0.05492963269352913,  -0.028374770656228065,
      0.11258093267679214,   0.09145987778902054,   -0.00010635000944603235,
      0.10414882004261017,   0.08784247934818268,   0.04844135046005249,
      -0.045007381588220596, -0.049023471772670746, -0.05846080183982849,
      0.10758956521749496,   -0.04435362666845322,  0.00565760862082243,
      0.012797095812857151,  -0.04511195048689842,  0.1445212960243225,
      0.04635491594672203,   -0.01728164032101631,  0.017925266176462173,
      0.08935186266899109},

     {0.10448766499757767,   -0.02959236316382885,  -0.06279256939888,
      0.09911874681711197,   0.02577994577586651,   -0.030214088037610054,
      -0.10218238830566406,  -0.003365620505064726, -0.01255093514919281,
      -0.038861557841300964, 0.09959957003593445,   0.06530528515577316,
      0.01683887280523777,   -0.02236437052488327,  -0.04549079388380051,
      0.10996131598949432,   -0.0319826565682888,   -0.004411148838698864,
      0.12542767822742462,   -0.10120327025651932,  -0.1310715228319168,
      0.10463433712720871,   -0.14822733402252197,  0.0826832726597786,
      -0.12785175442695618},

     {-0.10038324445486069,  -0.09785062819719315, -0.032470934092998505,
      0.08902246505022049,   0.07242092490196228,  0.015614966861903667,
      0.10835639387369156,   0.11950091272592545,  0.008198550902307034,
      0.0925474613904953,    -0.08690162748098373, -0.06221542879939079,
      -0.007441696245223284, 0.1348414421081543,   -0.0667814314365387,
      -0.04302399978041649,  0.0774991512298584,   0.03396178409457207,
      -0.09389713406562805,  0.10974375903606415,  -0.09879450500011444,
      0.06856973469257355,   0.11300662159919739,  -0.06818199902772903,
      -0.10108478367328644},

     {0.04241923987865448,   0.02031712606549263,   0.08271542936563492,
      -0.09600413590669632,  -0.020264681428670883, -0.02163555473089218,
      0.070127934217453,     -0.01702435128390789,  0.035417038947343826,
      -0.10896209627389908,  -0.041625939309597015, 0.10245350748300552,
      0.07291200757026672,   -0.057444799691438675, 0.11217393726110458,
      -0.003764075692743063, 0.022544531151652336,  -0.03229872137308121,
      -0.07961667329072952,  -0.04031219333410263,  0.10587788373231888,
      0.08413060009479523,   -0.10674125701189041,  0.12659984827041626,
      -0.026569165289402008},

     {0.15188179910182953,   0.08861612528562546,   0.10816259682178497,
      0.1205674260854721,    -0.05815310776233673,  -0.0509587861597538,
      0.04421110823750496,   0.12120815366506577,   0.12843388319015503,
      -0.008433314971625805, 0.1539187729358673,    -0.0605713427066803,
      -0.08785082399845123,  -0.0978081226348877,   -0.1133418083190918,
      -0.033235158771276474, 0.04258089140057564,   0.03379043564200401,
      -0.0715901255607605,   -0.061595551669597626, -0.02541099116206169,
      0.11113114655017853,   -0.040752116590738297, 0.028442595154047012,
      -0.05397177115082741},

     {-0.12707847356796265, 0.042697206139564514,  -0.02852395363152027,
      0.0896332859992981,   0.03582213819026947,   -0.05902300775051117,
      0.019757123664021492, -0.05497775226831436,  -0.03420243039727211,
      -0.04374933987855911, -0.03089657425880432,  0.11580219119787216,
      0.08584245294332504,  0.05348885804414749,   0.09559964388608932,
      0.04247201234102249,  -0.038871463388204575, 0.012439501471817493,
      -0.07297998666763306, -0.046465177088975906, 0.0958491787314415,
      0.12243259698152542,  0.02165994793176651,   -0.15599004924297333,
      -0.1568058431148529},

     {-0.009832817129790783, -0.014414990320801735, 0.08731396496295929,
      0.08949890732765198,   0.04980751872062683,   0.017587369307875633,
      0.12137708812952042,   -0.006504335440695286, -0.07211779057979584,
      -0.062321387231349945, -0.11755393445491791,  0.01814313605427742,
      0.057231903076171875,  0.0062098633497953415, -0.09353218227624893,
      -0.09795806556940079,  -0.06715163588523865,  -0.13177558779716492,
      -0.1223631203174591,   -0.1326858103275299,   -0.1266784369945526,
      0.0057328543625772,    -0.07003383338451385,  -0.06703922897577286,
      0.04470421001315117},

     {0.057556845247745514,  0.02268039807677269,  -0.04964669048786163,
      -0.10911549627780914,  -0.0679188147187233,  0.033764831721782684,
      -0.06660590320825577,  0.047736771404743195, -0.04723212122917175,
      -0.024204116314649582, 0.14332817494869232,  0.13488870859146118,
      -0.0858912467956543,   -0.07154269516468048, -0.05040614306926727,
      0.04973764345049858,   0.07052157074213028,  -0.13374654948711395,
      -0.036488696932792664, 0.11952538788318634,  0.09741441905498505,
      -0.03497670590877533,  0.13994523882865906,  -0.06896112859249115,
      0.02514789253473282},

     {-0.04685408994555473, 0.029904263094067574, 0.04279956594109535,
      -0.06792359799146652, -0.0780775174498558,  0.04483366012573242,
      0.11158572137355804,  0.047327425330877304, -0.07304394990205765,
      0.03851989656686783,  0.009924451820552349, 0.06159017235040665,
      -0.07962710410356522, -0.04999122768640518, -0.015240560285747051,
      0.04446394369006157,  0.07071460038423538,  0.07065672427415848,
      -0.09622029215097427, -0.1485414206981659,  0.06767162680625916,
      0.13717976212501526,  -0.02904350683093071, 0.04022799804806709,
      0.008358684368431568},

     {0.10209616273641586,  -0.1302752047777176,   0.03482070192694664,
      -0.11207602173089981, 0.03883659094572067,   -0.06315051019191742,
      0.0960754007101059,   0.10964202135801315,   -0.11690215766429901,
      0.019920121878385544, -0.15430767834186554,  0.11481405049562454,
      0.12099689245223999,  -0.013815757818520069, 0.10015404224395752,
      0.08405820280313492,  -0.11808402836322784,  -0.1252368986606598,
      -0.10901114344596863, 0.14053399860858917,   -0.15572524070739746,
      -0.08221545815467834, -0.028780177235603333, -0.030288223177194595,
      0.10526890307664871},

     {-0.07251192629337311,   -0.08931233733892441,  0.007428884506225586,
      -0.00950476061552763,   -0.00975869782269001,  0.0897585079073906,
      0.08538571000099182,    -0.04152298718690872,  -0.12854915857315063,
      0.15024784207344055,    0.11101716756820679,   0.03850964829325676,
      -0.04068727418780327,   -0.062216609716415405, -0.06879732757806778,
      0.07685527950525284,    -0.09141411632299423,  -0.036460746079683304,
      0.020590029656887054,   -0.033196598291397095, 0.0025537030305713415,
      -0.0035077915526926517, 0.13212056457996368,   -0.03346022218465805,
      -0.12512105703353882},

     {0.03959641233086586,  -0.004026282578706741, -0.13966380059719086,
      0.11465044319629669,  -0.045491889119148254, 0.03228610008955002,
      0.12026653438806534,  -0.13138407468795776,  0.031679704785346985,
      0.07532096654176712,  0.07548579573631287,   -0.15165285766124725,
      -0.11153196543455124, 0.03515079617500305,   -0.10039812326431274,
      0.012530148960649967, -0.11656765639781952,  -0.03783043846487999,
      0.11455956846475601,  -0.13148735463619232,  0.03604215383529663,
      0.041827041655778885, -0.10812036693096161,  -0.05751819908618927,
      -0.06992553919553757}}

};
#endif // WEIGHT1_H_
